{"learner":{"attributes":{"scikit_learn":"{\"_estimator_type\": \"regressor\"}"},"feature_names":[],"feature_types":[],"gradient_booster":{"model":{"cats":{"enc":[],"feature_segments":[],"sorted_idx":[]},"gbtree_model_param":{"num_parallel_tree":"1","num_trees":"400"},"iteration_indptr":[0,1,2,3,4,5,6,7,8,9,10,11,12,13,14,15,16,17,18,19,20,21,22,23,24,25,26,27,28,29,30,31,32,33,34,35,36,37,38,39,40,41,42,43,44,45,46,47,48,49,50,51,52,53,54,55,56,57,58,59,60,61,62,63,64,65,66,67,68,69,70,71,72,73,74,75,76,77,78,79,80,81,82,83,84,85,86,87,88,89,90,91,92,93,94,95,96,97,98,99,100,101,102,103,104,105,106,107,108,109,110,111,112,113,114,115,116,117,118,119,120,121,122,123,124,125,126,127,128,129,130,131,132,133,134,135,136,137,138,139,140,141,142,143,144,145,146,147,148,149,150,151,152,153,154,155,156,157,158,159,160,161,162,163,164,165,166,167,168,169,170,171,172,173,174,175,176,177,178,179,180,181,182,183,184,185,186,187,188,189,190,191,192,193,194,195,196,197,198,199,200,201,202,203,204,205,206,207,208,209,210,211,212,213,214,215,216,217,218,219,220,221,222,223,224,225,226,227,228,229,230,231,232,233,234,235,236,237,238,239,240,241,242,243,244,245,246,247,248,249,250,251,252,253,254,255,256,257,258,259,260,261,262,263,264,265,266,267,268,269,270,271,272,273,274,275,276,277,278,279,280,281,282,283,284,285,286,287,288,289,290,291,292,293,294,295,296,297,298,299,300,301,302,303,304,305,306,307,308,309,310,311,312,313,314,315,316,317,318,319,320,321,322,323,324,325,326,327,328,329,330,331,332,333,334,335,336,337,338,339,340,341,342,343,344,345,346,347,348,349,350,351,352,353,354,355,356,357,358,359,360,361,362,363,364,365,366,367,368,369,370,371,372,373,374,375,376,377,378,379,380,381,382,383,384,385,386,387,388,389,390,391,392,393,394,395,396,397,398,399,400],"tree_info":[0,0,0,0,0,0,0,0,0,0,0,0,0,0,0,0,0,0,0,0,0,0,0,0,0,0,0,0,0,0,0,0,0,0,0,0,0,0,0,0,0,0,0,0,0,0,0,0,0,0,0,0,0,0,0,0,0,0,0,0,0,0,0,0,0,0,0,0,0,0,0,0,0,0,0,0,0,0,0,0,0,0,0,0,0,0,0,0,0,0,0,0,0,0,0,0,0,0,0,0,0,0,0,0,0,0,0,0,0,0,0,0,0,0,0,0,0,0,0,0,0,0,0,0,0,0,0,0,0,0,0,0,0,0,0,0,0,0,0,0,0,0,0,0,0,0,0,0,0,0,0,0,0,0,0,0,0,0,0,0,0,0,0,0,0,0,0,0,0,0,0,0,0,0,0,0,0,0,0,0,0,0,0,0,0,0,0,0,0,0,0,0,0,0,0,0,0,0,0,0,0,0,0,0,0,0,0,0,0,0,0,0,0,0,0,0,0,0,0,0,0,0,0,0,0,0,0,0,0,0,0,0,0,0,0,0,0,0,0,0,0,0,0,0,0,0,0,0,0,0,0,0,0,0,0,0,0,0,0,0,0,0,0,0,0,0,0,0,0,0,0,0,0,0,0,0,0,0,0,0,0,0,0,0,0,0,0,0,0,0,0,0,0,0,0,0,0,0,0,0,0,0,0,0,0,0,0,0,0,0,0,0,0,0,0,0,0,0,0,0,0,0,0,0,0,0,0,0,0,0,0,0,0,0,0,0,0,0,0,0,0,0,0,0,0,0,0,0,0,0,0,0,0,0,0,0,0,0,0,0,0,0,0,0,0,0,0,0,0,0,0,0,0,0,0,0,0,0,0,0,0,0,0,0,0,0,0,0,0,0,0,0,0,0,0,0,0,0,0,0],"trees":[{"base_weights":[5.4844026E-3,-1.2308016E1,2.4536127E1,-3.283151E1,-6.2198725E0,1.6378778E1,5.3231026E1,-1.0741434E0,-7.865815E-1,-9.630121E0,-1.2253602E0,1.3734133E1,2.3266571E1,4.565229E1,2.0367095E0,-1.5974802E1,-8.205975E0,-3.6847613E0,3.3684187E0,1.0686687E1,1.5666395E1,6.207373E-1,8.829441E-1,1.1102505E0,1.4360627E0,-5.4046166E-1,-4.1493437E-1,-2.9499912E-1,-6.9098806E0,-4.168779E0,-1.8384683E0,1.7328308E0,4.762824E0,8.196531E0,1.2133452E1,1.589215E1,-5.066084E-1,-2.2229981E-1,-1.737405E-1,-4.639137E0,-3.6135523E0,-3.1291726E0,-9.746408E-1,1.8839098E0,-4.8711547E-1,-5.1584244E-3,4.831834E0,8.27563E0,5.769161E-2,3.6655265E-1,6.984157E-2,4.064459E-1,5.02557E-1,-1.4009799E-1,-2.0158423E-2,-1.2877883E-2,-1.1024347E-1,-9.762557E-2,-7.558479E-3,-5.4906003E-2,4.671707E-3,5.9455853E-2,1.11265415E-2,3.9221193E-3,-2.8277893E-2,1.4768478E-1,3.1122053E-2,9.3122095E-2,2.5236648E-1],"categories":[],"categories_nodes":[],"categories_segments":[],"categories_sizes":[],"default_left":[0,0,0,0,0,0,0,0,0,0,0,0,0,0,0,0,0,0,0,0,0,0,0,0,0,0,0,0,0,0,0,0,0,0,0,0,0,0,0,0,0,0,0,0,0,0,0,0,0,0,0,0,0,0,0,0,0,0,0,0,0,0,0,0,0,0,0,0,0],"id":0,"left_children":[1,3,5,7,9,11,13,-1,-1,15,17,19,21,23,-1,25,27,29,31,33,35,-1,-1,-1,-1,-1,-1,-1,37,39,41,43,45,47,49,51,-1,-1,-1,53,55,57,59,61,63,-1,65,67,-1,-1,-1,-1,-1,-1,-1,-1,-1,-1,-1,-1,-1,-1,-1,-1,-1,-1,-1,-1,-1],"loss_changes":[5.7753494E5,1.588571E5,1.4870162E5,4.7821875E3,1.6731172E4,8.770125E3,1.2565594E4,0E0,0E0,5.145793E3,4.53159E3,1.9700938E3,1.566125E3,6.771875E1,0E0,2.145039E2,9.4234766E2,2.2557544E2,3.1104102E2,4.1933203E2,1.8851641E3,0E0,0E0,0E0,0E0,0E0,0E0,0E0,1.0812109E2,3.7033936E1,5.9387146E1,2.3053238E1,2.6371826E1,1.1873779E1,4.570703E1,2.14375E2,0E0,0E0,0E0,1.0057129E1,1.7724976E1,7.093292E0,3.4133297E1,8.453598E0,1.5303334E0,0E0,2.0442627E1,1.2738037E1,0E0,0E0,0E0,0E0,0E0,0E0,0E0,0E0,0E0,0E0,0E0,0E0,0E0,0E0,0E0,0E0,0E0,0E0,0E0,0E0,0E0],"parents":[2147483647,0,0,1,1,2,2,3,3,4,4,5,5,6,6,9,9,10,10,11,11,12,12,13,13,15,15,16,16,17,17,18,18,19,19,20,20,28,28,29,29,30,30,31,31,32,32,33,33,34,34,35,35,39,39,40,40,41,41,42,42,43,43,44,44,46,46,47,47],"right_children":[2,4,6,8,10,12,14,-1,-1,16,18,20,22,24,-1,26,28,30,32,34,36,-1,-1,-1,-1,-1,-1,-1,38,40,42,44,46,48,50,52,-1,-1,-1,54,56,58,60,62,64,-1,66,68,-1,-1,-1,-1,-1,-1,-1,-1,-1,-1,-1,-1,-1,-1,-1,-1,-1,-1,-1,-1,-1],"split_conditions":[1.06E2,7.798E1,1.34E2,6.82E1,9.335E1,1.173E2,1.5491E2,-1.0741434E0,-7.865815E-1,8.65E1,9.95E1,1.124E2,1.25E2,1.4125E2,2.0367095E0,7.955542E1,9.012E1,9.64E1,1.016E2,1.1E2,1.2041E2,6.207373E-1,8.829441E-1,1.1102505E0,1.4360627E0,-5.4046166E-1,-4.1493437E-1,-2.9499912E-1,9.224E1,9.473E1,1.01440206E-1,4.7663778E-1,7.6123195E0,1.09996E2,1.14582E2,1.139E2,-5.066084E-1,-2.2229981E-1,-1.737405E-1,3.8172044E-2,8.84977E1,3.1E1,7.351732E1,9.783519E-2,9.999E1,-5.1584244E-3,2.3121387E-2,7.1495E2,5.769161E-2,3.6655265E-1,6.984157E-2,4.064459E-1,5.02557E-1,-1.4009799E-1,-2.0158423E-2,-1.2877883E-2,-1.1024347E-1,-9.762557E-2,-7.558479E-3,-5.4906003E-2,4.671707E-3,5.9455853E-2,1.11265415E-2,3.9221193E-3,-2.8277893E-2,1.4768478E-1,3.1122053E-2,9.3122095E-2,2.5236648E-1],"split_indices":[4,4,4,4,4,1,57,0,0,4,4,4,4,57,0,27,4,4,4,4,4,0,0,0,0,0,0,0,4,4,74,31,56,21,22,4,0,0,0,38,33,9,28,46,4,0,64,50,0,0,0,0,0,0,0,0,0,0,0,0,0,0,0,0,0,0,0,0,0],"split_type":[0,0,0,0,0,0,0,0,0,0,0,0,0,0,0,0,0,0,0,0,0,0,0,0,0,0,0,0,0,0,0,0,0,0,0,0,0,0,0,0,0,0,0,0,0,0,0,0,0,0,0,0,0,0,0,0,0,0,0,0,0,0,0,0,0,0,0,0,0],"sum_hessian":[1.91E3,1.272E3,6.38E2,2.9E2,9.82E2,4.98E2,1.4E2,1.97E2,9.3E1,5.83E2,3.99E2,3.62E2,1.36E2,9.5E1,4.5E1,1.05E2,4.78E2,2.6E2,1.39E2,1.43E2,2.19E2,9.9E1,3.7E1,2.3E1,7.2E1,5E1,5.5E1,2.09E2,2.69E2,2.05E2,5.5E1,6.5E1,7.4E1,5.5E1,8.8E1,2.18E2,1E0,1.82E2,8.7E1,1.07E2,9.8E1,2.1E1,3.4E1,6.1E1,4E0,1E0,7.3E1,5.4E1,1E0,8.7E1,1E0,6.3E1,1.55E2,1.06E2,1E0,2E0,9.6E1,2E1,1E0,1.9E1,1.5E1,5.7E1,4E0,2E0,2E0,7.1E1,2E0,2E0,5.2E1],"tree_param":{"num_deleted":"0","num_feature":"87","num_nodes":"69","size_leaf_vector":"1"}},{"base_weights":[-2.4696389E-1,-1.2734034E1,2.3107807E1,-3.1659231E1,-6.4187326E0,1.528374E1,5.2492897E1,-1.0574942E0,-2.5350428E1,-9.8697605E0,-2.5452683E0,1.2025587E1,2.1060186E1,1.3346515E0,2.0022383E0,-8.148519E-1,-6.323343E-1,-1.5282531E1,-8.467351E0,-4.232265E0,2.2031724E0,7.1658344E0,1.3629987E1,1.8730331E1,8.2396144E-1,-5.2029055E-1,-4.0474305E-1,-2.9172263E-1,-2.1655522E-1,-4.9586167E0,-2.8066256E0,1.2418251E0,3.4473143E0,7.301569E0,-6.557362E-2,1.2019803E1,4.5547968E-1,5.7400364E-1,3.9386718E0,-1.6455095E-1,-4.3268175E0,-3.3538969E0,-1.696249E0,1.8251808E0,1.8878022E-1,-6.0677594E-1,3.628876E0,1.7417122E-1,2.5162387E-1,6.879398E-2,3.6233634E-1,3.9720485E-1,-4.990093E-1,-1.3034011E-1,-3.7854765E-2,-1.0300349E-1,-4.708127E-2,-5.6109566E-2,3.048088E-2,5.6704372E-2,-1.3550262E-2,-2.891281E-2,1.5753102E-2,-5.081062E-3,-2.2223854E-2,6.781754E-2,1.1923705E-1],"categories":[],"categories_nodes":[],"categories_segments":[],"categories_sizes":[],"default_left":[0,0,0,0,0,0,0,0,0,0,0,0,0,0,0,0,0,0,0,0,0,0,0,0,0,0,0,0,0,0,0,0,0,0,0,0,0,0,0,0,0,0,0,0,0,0,0,0,0,0,0,0,0,0,0,0,0,0,0,0,0,0,0,0,0,0,0],"id":1,"left_children":[1,3,5,7,9,11,13,-1,15,17,19,21,23,-1,-1,-1,-1,25,27,29,31,33,35,37,-1,-1,-1,-1,-1,39,41,43,45,47,-1,49,-1,-1,51,-1,53,55,57,59,61,63,65,-1,-1,-1,-1,-1,-1,-1,-1,-1,-1,-1,-1,-1,-1,-1,-1,-1,-1,-1,-1],"loss_changes":[5.5497956E5,1.4799952E5,1.5162862E5,6.1285625E3,1.2419957E4,9.627531E3,1.28839375E4,0E0,3.2521094E2,3.6053281E3,3.53399E3,2.537707E3,2.291125E3,0E0,0E0,0E0,0E0,1.3507422E2,5.466074E2,3.226255E2,1.3446112E2,1.2512256E2,4.5003125E2,7.6540625E2,0E0,0E0,0E0,0E0,0E0,4.7441406E1,6.237079E1,4.0813515E1,3.900531E1,8.937451E1,0E0,4.5171875E1,0E0,0E0,1.176998E3,0E0,9.9243164E-2,5.1168823E0,2.0313217E1,7.2141266E0,1.0196726E1,5.039537E-2,1.3719543E1,0E0,0E0,0E0,0E0,0E0,0E0,0E0,0E0,0E0,0E0,0E0,0E0,0E0,0E0,0E0,0E0,0E0,0E0,0E0,0E0],"parents":[2147483647,0,0,1,1,2,2,3,3,4,4,5,5,6,6,8,8,9,9,10,10,11,11,12,12,17,17,18,18,19,19,20,20,21,21,22,22,23,23,29,29,30,30,31,31,32,32,33,33,35,35,38,38,40,40,41,41,42,42,43,43,44,44,45,45,46,46],"right_children":[2,4,6,8,10,12,14,-1,16,18,20,22,24,-1,-1,-1,-1,26,28,30,32,34,36,38,-1,-1,-1,-1,-1,40,42,44,46,48,-1,50,-1,-1,52,-1,54,56,58,60,62,64,66,-1,-1,-1,-1,-1,-1,-1,-1,-1,-1,-1,-1,-1,-1,-1,-1,-1,-1,-1,-1],"split_conditions":[1.0369E2,7.91E1,1.3312E2,6.7E1,9.2E1,1.1551E2,1.5491E2,-1.0574942E0,7.34E1,8.65E1,9.79E1,1.1E2,1.22E2,1.3346515E0,2.0022383E0,-8.148519E-1,-6.323343E-1,8.2E1,8.985E1,9.45E1,1.012E2,3.33E2,1.123E2,3.5738096E0,8.2396144E-1,-5.2029055E-1,-4.0474305E-1,-2.9172263E-1,-2.1655522E-1,9.31E1,9.598E1,1.2094019E-2,1.3349515E1,1.0506E2,-6.557362E-2,-1.0537583E0,4.5547968E-1,5.7400364E-1,1.181E2,-1.6455095E-1,3.2762E4,5.253925E-2,9.933E1,1.0125E2,2.1097E3,1.033E2,-3.184865E-2,1.7417122E-1,2.5162387E-1,6.879398E-2,3.6233634E-1,3.9720485E-1,-4.990093E-1,-1.3034011E-1,-3.7854765E-2,-1.0300349E-1,-4.708127E-2,-5.6109566E-2,3.048088E-2,5.6704372E-2,-1.3550262E-2,-2.891281E-2,1.5753102E-2,-5.081062E-3,-2.2223854E-2,6.781754E-2,1.1923705E-1],"split_indices":[2,2,2,2,2,2,57,0,2,4,2,4,2,0,0,0,0,2,2,2,4,12,2,29,0,0,0,0,0,2,2,77,37,2,0,31,0,0,2,0,5,40,57,57,50,1,74,0,0,0,0,0,0,0,0,0,0,0,0,0,0,0,0,0,0,0,0],"split_type":[0,0,0,0,0,0,0,0,0,0,0,0,0,0,0,0,0,0,0,0,0,0,0,0,0,0,0,0,0,0,0,0,0,0,0,0,0,0,0,0,0,0,0,0,0,0,0,0,0,0,0,0,0,0,0,0,0,0,0,0,0,0,0,0,0,0,0],"sum_hessian":[1.901E3,1.239E3,6.62E2,3.09E2,9.3E2,5.24E2,1.38E2,1.94E2,1.15E2,4.91E2,4.39E2,3.37E2,1.87E2,9.1E1,4.7E1,7.7E1,3.8E1,9.9E1,3.92E2,3.24E2,1.15E2,8.5E1,2.52E2,1.4E2,4.7E1,4.2E1,5.7E1,1.92E2,2E2,2.13E2,1.11E2,6.6E1,4.9E1,8.4E1,1E0,1.28E2,1.24E2,1.36E2,4E0,1.12E2,1.01E2,7.3E1,3.8E1,4.2E1,2.4E1,2E0,4.7E1,3.8E1,4.6E1,1E0,1.27E2,3E0,1E0,1E2,1E0,6.9E1,4E0,3.6E1,2E0,4.1E1,1E0,5E0,1.9E1,1E0,1E0,1.1E1,3.6E1],"tree_param":{"num_deleted":"0","num_feature":"87","num_nodes":"67","size_leaf_vector":"1"}},{"base_weights":[3.8717142E-1,-1.1617304E1,2.3283998E1,-3.0632378E1,-5.7294536E0,1.5094583E1,4.923424E1,-1.0325096E0,-2.4920965E1,-8.75772E0,-8.0628085E-1,1.2209547E1,1.9973272E1,4.2877968E1,1.9145687E0,-8.0154663E-1,-6.1018693E-1,-1.3766098E1,-7.3807025E0,-3.3781257E0,3.1839454E0,9.515066E0,1.4022404E1,1.8138805E1,7.64444E-1,9.7718465E-1,1.3395646E0,-4.9721786E-1,-1.2091578E1,-8.635672E0,-6.0937824E0,-3.6997004E0,-1.218163E0,1.5389744E0,4.513935E0,7.2360687E0,1.0570424E1,3.6853075E-1,4.458442E-1,5.5432206E-1,-3.4829128E0,-3.6478227E-1,-9.8957516E-2,-2.7342457E-1,-2.3069488E-1,-6.641845E0,-1.5761648E-1,-1.2507609E-1,-3.114774E0,2.7752686E-2,-1.4042914E0,1.8092307E0,4.7785673E-2,4.6284795E0,-6.458999E-2,2.1966295E-1,5.3051833E-2,3.1924906E-1,6.776207E-2,3.3479312E-1,-4.915242E-1,-2.0080346E-1,-9.7966805E-2,-9.504979E-2,-1.5705032E-2,-5.2777544E-2,5.713119E-3,7.148784E-2,4.0636677E-2,1.0796838E-2,-2.7134093E-2,1.0850223E-1,1.6285865E-1],"categories":[],"categories_nodes":[],"categories_segments":[],"categories_sizes":[],"default_left":[0,0,0,0,0,0,0,0,0,0,0,0,0,0,0,0,0,0,0,0,0,0,0,0,0,0,0,0,0,0,0,0,0,0,0,0,0,0,0,0,0,0,0,0,0,0,0,0,0,0,0,0,0,0,0,0,0,0,0,0,0,0,0,0,0,0,0,0,0,0,0,0,0],"id":2,"left_children":[1,3,5,7,9,11,13,-1,15,17,19,21,23,25,-1,-1,-1,27,29,31,33,35,37,39,-1,-1,-1,-1,41,43,45,47,49,51,53,55,57,-1,-1,-1,59,-1,-1,-1,-1,61,-1,-1,63,-1,65,67,69,71,-1,-1,-1,-1,-1,-1,-1,-1,-1,-1,-1,-1,-1,-1,-1,-1,-1,-1,-1],"loss_changes":[5.178402E5,1.3820447E5,1.369681E5,5.454E3,1.4081641E4,6.7092812E3,1.163275E4,0E0,4.4464844E2,3.9329219E3,3.7154253E3,1.3954844E3,1.3768359E3,5.75E2,0E0,0E0,0E0,3.873164E2,6.919121E2,1.4830273E2,3.0371997E2,2.3377734E2,8.7234375E1,1.0892969E3,0E0,0E0,0E0,0E0,8.800781E0,3.445703E1,7.143848E1,3.946704E1,1.3266697E1,2.610875E1,6.953076E1,7.748535E0,2.686621E1,0E0,0E0,0E0,7.4956903E2,0E0,0E0,0E0,0E0,1.8369141E0,0E0,0E0,1.0691772E1,0E0,1.6184849E1,1.1118698E1,3.5947964E0,4.2700195E1,0E0,0E0,0E0,0E0,0E0,0E0,0E0,0E0,0E0,0E0,0E0,0E0,0E0,0E0,0E0,0E0,0E0,0E0,0E0],"parents":[2147483647,0,0,1,1,2,2,3,3,4,4,5,5,6,6,8,8,9,9,10,10,11,11,12,12,13,13,17,17,18,18,19,19,20,20,21,21,22,22,23,23,28,28,29,29,30,30,31,31,32,32,33,33,34,34,35,35,36,36,40,40,45,45,48,48,50,50,51,51,52,52,53,53],"right_children":[2,4,6,8,10,12,14,-1,16,18,20,22,24,26,-1,-1,-1,28,30,32,34,36,38,40,-1,-1,-1,-1,42,44,46,48,50,52,54,56,58,-1,-1,-1,60,-1,-1,-1,-1,62,-1,-1,64,-1,66,68,70,72,-1,-1,-1,-1,-1,-1,-1,-1,-1,-1,-1,-1,-1,-1,-1,-1,-1,-1,-1],"split_conditions":[1.06E2,7.91E1,1.32E2,6.64E1,9.31E1,1.1551E2,1.5491E2,-1.0325096E0,7.32E1,8.74E1,9.84E1,1.1099E2,1.22E2,1.4E2,1.9145687E0,-8.0154663E-1,-6.1018693E-1,7.955542E1,9.052E1,9.61E1,1.016E2,1.079E2,1.1252E2,5.2807953E4,7.64444E-1,9.7718465E-1,1.3395646E0,-4.9721786E-1,1.82E2,8.999E1,9.2E1,9.45E1,1.1027E3,3.2125175E-1,1.56E2,1.08674E2,1.14161E2,3.6853075E-1,4.458442E-1,5.5432206E-1,1.19E2,-3.6478227E-1,-9.8957516E-2,-2.7342457E-1,-2.3069488E-1,9.45445E1,-1.5761648E-1,-1.2507609E-1,3.593396E-2,2.7752686E-2,1.5304959E-1,4.99025E3,1.008E2,1.0322E2,-6.458999E-2,2.1966295E-1,5.3051833E-2,3.1924906E-1,6.776207E-2,3.3479312E-1,-4.915242E-1,-2.0080346E-1,-9.7966805E-2,-9.504979E-2,-1.5705032E-2,-5.2777544E-2,5.713119E-3,7.148784E-2,4.0636677E-2,1.0796838E-2,-2.7134093E-2,1.0850223E-1,1.6285865E-1],"split_indices":[4,2,2,3,2,2,2,0,1,2,2,2,2,2,0,0,0,27,2,2,4,2,2,55,0,0,0,0,6,4,2,2,50,77,6,23,22,0,0,0,2,0,0,0,0,23,0,0,42,0,34,50,4,2,0,0,0,0,0,0,0,0,0,0,0,0,0,0,0,0,0,0,0],"split_type":[0,0,0,0,0,0,0,0,0,0,0,0,0,0,0,0,0,0,0,0,0,0,0,0,0,0,0,0,0,0,0,0,0,0,0,0,0,0,0,0,0,0,0,0,0,0,0,0,0,0,0,0,0,0,0,0,0,0,0,0,0,0,0,0,0,0,0,0,0,0,0,0,0],"sum_hessian":[1.882E3,1.235E3,6.47E2,2.91E2,9.44E2,4.93E2,1.54E2,1.72E2,1.19E2,5.84E2,3.6E2,3.12E2,1.81E2,1.1E2,4.4E1,8.2E1,3.7E1,1.24E2,4.6E2,2.19E2,1.41E2,1.28E2,1.84E2,1.39E2,4.2E1,1.9E1,9.1E1,4.3E1,8.1E1,2.3E2,2.3E2,1.9E2,2.9E1,6.4E1,7.7E1,4.3E1,8.5E1,6.5E1,1.19E2,1.37E2,2E0,8E1,1E0,1.47E2,8.3E1,1.35E2,9.5E1,1.02E2,8.8E1,2E0,2.7E1,5.4E1,1E1,7.6E1,1E0,4.2E1,1E0,8.4E1,1E0,1E0,1E0,1.32E2,3E0,8.6E1,2E0,2.2E1,5E0,2.2E1,3.2E1,8E0,2E0,3.6E1,4E1],"tree_param":{"num_deleted":"0","num_feature":"87","num_nodes":"73","size_leaf_vector":"1"}},{"base_weights":[3.1749713E-1,-1.1054129E1,2.3131882E1,-2.988137E1,-5.6719074E0,1.4676848E1,4.772789E1,-9.854479E-1,-2.385364E1,-8.714097E0,-7.4944925E-1,1.19310875E1,1.93E1,4.1227432E1,1.8563209E0,-7.442655E-1,-5.484915E-1,-1.4199929E1,-7.336077E0,-3.2694347E0,3.179316E0,9.358218E0,1.3618009E1,1.9582613E1,-3.430669E0,9.3583125E-1,1.2909081E0,-4.9488196E-1,-3.677571E-1,-2.6846653E-1,-6.2287145E0,-3.693317E0,-1.6526364E0,1.5824782E0,4.3961253E0,7.016161E0,1.0295158E1,3.5882968E-1,4.3373635E-1,5.3703773E-1,7.3677415E-1,3.2977122E-1,-4.8415133E-1,-6.9441266E0,-5.4712167E0,-4.1230226E0,-3.0046558E0,-1.8643497E0,2.1065266E-1,1.8425442E0,1.1464414E-1,4.500192E0,-6.362114E-2,2.1586558E-1,7.575424E-2,3.109424E-1,6.67456E-2,-6.085613E-2,-2.0891298E-1,-6.475967E-2,-1.6505426E-1,-1.24175705E-1,-3.5410766E-2,1.976509E-3,-9.1428615E-2,-8.019872E-2,-4.1123085E-2,-2.2197112E-2,2.6127204E-2,6.875241E-2,4.380049E-2,1.4922141E-2,-8.616715E-3,1.0080524E-1,1.6302884E-1],"categories":[],"categories_nodes":[],"categories_segments":[],"categories_sizes":[],"default_left":[0,0,0,0,0,0,0,0,0,0,0,0,0,0,0,0,0,0,0,0,0,0,0,0,0,0,0,0,0,0,0,0,0,0,0,0,0,0,0,0,0,0,0,0,0,0,0,0,0,0,0,0,0,0,0,0,0,0,0,0,0,0,0,0,0,0,0,0,0,0,0,0,0,0,0],"id":3,"left_children":[1,3,5,7,9,11,13,-1,15,17,19,21,23,25,-1,-1,-1,27,29,31,33,35,37,39,41,-1,-1,-1,-1,-1,43,45,47,49,51,53,55,-1,-1,-1,-1,-1,-1,57,59,61,63,65,67,69,71,73,-1,-1,-1,-1,-1,-1,-1,-1,-1,-1,-1,-1,-1,-1,-1,-1,-1,-1,-1,-1,-1,-1,-1],"loss_changes":[4.9526078E5,1.2892797E5,1.3135416E5,4.2775156E3,1.4848717E4,5.786711E3,1.2349375E4,0E0,6.2566406E1,4.5298555E3,3.7725583E3,1.1746289E3,1.191375E3,7.1971875E2,0E0,0E0,0E0,3.4161133E2,8.229531E2,1.5289331E2,2.8255725E2,1.9547949E2,7.617969E1,1.00790625E3,7.272506E2,0E0,0E0,0E0,0E0,0E0,1.21875E2,4.176538E1,2.0116898E1,2.49832E1,6.651123E1,1.2439453E1,2.4676758E1,0E0,0E0,0E0,0E0,0E0,0E0,1.6210938E-1,3.121582E0,3.4777832E-1,9.963196E0,1.4303009E1,4.4100404E0,6.2766266E0,1.8348778E0,7.0125854E1,0E0,0E0,0E0,0E0,0E0,0E0,0E0,0E0,0E0,0E0,0E0,0E0,0E0,0E0,0E0,0E0,0E0,0E0,0E0,0E0,0E0,0E0,0E0],"parents":[2147483647,0,0,1,1,2,2,3,3,4,4,5,5,6,6,8,8,9,9,10,10,11,11,12,12,13,13,17,17,18,18,19,19,20,20,21,21,22,22,23,23,24,24,30,30,31,31,32,32,33,33,34,34,35,35,36,36,43,43,44,44,45,45,46,46,47,47,48,48,49,49,50,50,51,51],"right_children":[2,4,6,8,10,12,14,-1,16,18,20,22,24,26,-1,-1,-1,28,30,32,34,36,38,40,42,-1,-1,-1,-1,-1,44,46,48,50,52,54,56,-1,-1,-1,-1,-1,-1,58,60,62,64,66,68,70,72,74,-1,-1,-1,-1,-1,-1,-1,-1,-1,-1,-1,-1,-1,-1,-1,-1,-1,-1,-1,-1,-1,-1,-1],"split_conditions":[1.0506E2,7.71E1,1.32E2,6.78E1,9.31E1,1.1551E2,1.5491E2,-9.854479E-1,7.599E1,8.7E1,9.84E1,1.1099E2,5.2807953E4,1.4E2,1.8563209E0,-7.442655E-1,-5.484915E-1,7.955542E1,9E1,9.598E1,1.016E2,1.079E2,1.1252E2,1.22E2,1.19E2,9.3583125E-1,1.2909081E0,-4.9488196E-1,-3.677571E-1,-2.6846653E-1,9.1E1,9.45E1,9.89E1,1.0298685E-1,3.33E2,1.0655984E2,1.13492E2,3.5882968E-1,4.3373635E-1,5.3703773E-1,7.3677415E-1,3.2977122E-1,-4.8415133E-1,8.63E1,-1.5219565E-1,3.2762E4,3E0,-5.1546394E-4,9.6974E1,4.99025E3,9.841E1,1.0322E2,-6.362114E-2,2.1586558E-1,7.575424E-2,3.109424E-1,6.67456E-2,-6.085613E-2,-2.0891298E-1,-6.475967E-2,-1.6505426E-1,-1.24175705E-1,-3.5410766E-2,1.976509E-3,-9.1428615E-2,-8.019872E-2,-4.1123085E-2,-2.2197112E-2,2.6127204E-2,6.875241E-2,4.380049E-2,1.4922141E-2,-8.616715E-3,1.0080524E-1,1.6302884E-1],"split_indices":[2,3,2,2,2,2,2,0,2,4,2,2,55,2,0,0,0,27,2,2,4,2,2,2,2,0,0,0,0,0,3,2,57,46,12,27,21,0,0,0,0,0,0,3,81,5,11,68,21,50,3,2,0,0,0,0,0,0,0,0,0,0,0,0,0,0,0,0,0,0,0,0,0,0,0],"split_type":[0,0,0,0,0,0,0,0,0,0,0,0,0,0,0,0,0,0,0,0,0,0,0,0,0,0,0,0,0,0,0,0,0,0,0,0,0,0,0,0,0,0,0,0,0,0,0,0,0,0,0,0,0,0,0,0,0,0,0,0,0,0,0,0,0,0,0,0,0,0,0,0,0,0,0],"sum_hessian":[1.907E3,1.273E3,6.34E2,2.82E2,9.91E2,4.73E2,1.61E2,1.86E2,9.6E1,6.12E2,3.79E2,2.99E2,1.74E2,1.13E2,4.8E1,7.9E1,1.7E1,1.21E2,4.91E2,2.31E2,1.48E2,1.21E2,1.78E2,1.72E2,2E0,2E1,9.3E1,5.2E1,6.9E1,1.97E2,2.94E2,1.82E2,4.9E1,6.5E1,8.3E1,3.7E1,8.4E1,6.5E1,1.13E2,1.32E2,4E1,1E0,1E0,1.47E2,1.47E2,1.09E2,7.3E1,4.4E1,5E0,5.5E1,1E1,8.2E1,1E0,3.5E1,2E0,8.3E1,1E0,1E0,1.46E2,2E0,1.45E2,1.08E2,1E0,1E0,7.2E1,1.5E1,2.9E1,2E0,3E0,2.3E1,3.2E1,5E0,5E0,3.9E1,4.3E1],"tree_param":{"num_deleted":"0","num_feature":"87","num_nodes":"75","size_leaf_vector":"1"}},{"base_weights":[-5.523836E-1,-1.1452171E1,2.0316145E1,-2.902395E1,-5.9444165E0,1.3539767E1,4.6317455E1,-9.7364545E-1,-2.4055695E1,-8.903669E0,-2.1305208E0,9.555239E0,1.7352915E1,4.0353996E1,1.8660883E0,-7.7690095E-1,-6.1573654E-1,-1.4162054E1,-7.5958343E0,-3.68994E0,1.9745992E0,5.9099145E0,1.1291061E1,1.5983129E1,6.836175E-1,9.402254E-1,1.2740179E0,-4.7908443E-1,-3.6984405E-1,-8.860932E0,-6.4511995E0,-4.320047E0,-2.6314898E0,1.0645725E0,3.0741596E0,6.0300064E0,-6.266682E-2,1.0041186E1,3.6435413E-1,1.620638E1,-4.76889E-1,-2.8394622E-1,-2.443267E-1,-2.079781E-1,-1.776866E-1,-4.829957E0,-1.1849794E-1,-2.916411E0,-1.352617E0,-1.9600932E-1,1.6291869E0,-2.1561965E-2,3.2402499E0,1.5012522E-1,6.695127E0,3.034989E-1,6.5744475E-2,4.5210832E-1,5.471315E-1,-4.5798033E-2,-1.4698642E-1,-8.892162E-2,-1.449646E-2,-4.858798E-2,2.9013976E-2,-5.7561647E-2,2.5894244E-3,5.1397752E-2,-3.5670472E-3,9.969799E-2,2.4957046E-2,2.0295198E-1,5.1119726E-2],"categories":[],"categories_nodes":[],"categories_segments":[],"categories_sizes":[],"default_left":[0,0,0,0,0,0,0,0,0,0,0,0,0,0,0,0,0,0,0,0,0,0,0,0,0,0,0,0,0,0,0,0,0,0,0,0,0,0,0,0,0,0,0,0,0,0,0,0,0,0,0,0,0,0,0,0,0,0,0,0,0,0,0,0,0,0,0,0,0,0,0,0,0],"id":4,"left_children":[1,3,5,7,9,11,13,-1,15,17,19,21,23,25,-1,-1,-1,27,29,31,33,35,37,39,-1,-1,-1,-1,-1,41,43,45,47,49,51,53,-1,55,-1,57,-1,-1,-1,-1,-1,59,-1,61,63,65,67,-1,69,-1,71,-1,-1,-1,-1,-1,-1,-1,-1,-1,-1,-1,-1,-1,-1,-1,-1,-1,-1],"loss_changes":[4.342312E5,1.2119091E5,1.1478041E5,4.3159062E3,1.0770715E4,7.7500547E3,1.0278781E4,0E0,2.8758594E2,3.5923086E3,2.6895579E3,1.5594746E3,1.6084141E3,5.928125E2,0E0,0E0,0E0,1.5448047E2,5.6985156E2,1.9138037E2,1.12800354E2,9.424658E1,6.272461E1,1.7878008E3,0E0,0E0,0E0,0E0,0E0,1.0786133E1,1.7689453E1,1.6591309E1,3.832306E1,4.658261E1,3.5086945E1,2.3809814E1,0E0,2.2837402E1,0E0,2.1902344E2,0E0,0E0,0E0,0E0,0E0,9.761597E0,0E0,9.464661E0,1.5811016E1,1.0379217E1,6.817108E0,0E0,7.2319946E0,0E0,5.227783E0,0E0,0E0,0E0,0E0,0E0,0E0,0E0,0E0,0E0,0E0,0E0,0E0,0E0,0E0,0E0,0E0,0E0,0E0],"parents":[2147483647,0,0,1,1,2,2,3,3,4,4,5,5,6,6,8,8,9,9,10,10,11,11,12,12,13,13,17,17,18,18,19,19,20,20,21,21,22,22,23,23,29,29,30,30,31,31,32,32,33,33,34,34,35,35,37,37,39,39,45,45,47,47,48,48,49,49,50,50,52,52,54,54],"right_children":[2,4,6,8,10,12,14,-1,16,18,20,22,24,26,-1,-1,-1,28,30,32,34,36,38,40,-1,-1,-1,-1,-1,42,44,46,48,50,52,54,-1,56,-1,58,-1,-1,-1,-1,-1,60,-1,62,64,66,68,-1,70,-1,72,-1,-1,-1,-1,-1,-1,-1,-1,-1,-1,-1,-1,-1,-1,-1,-1,-1,-1],"split_conditions":[1.0322E2,7.71E1,1.32E2,6.5E1,9.23E1,1.14E2,1.62E2,-9.7364545E-1,7.19E1,8.65E1,9.79E1,1.079E2,1.219E2,1.4001E2,1.8660883E0,-7.7690095E-1,-6.1573654E-1,8.2E1,8.985E1,9.45E1,1.012E2,3.33E2,1.1099E2,1.2143E2,6.836175E-1,9.402254E-1,1.2740179E0,-4.7908443E-1,-3.6984405E-1,8.85E1,9.091E1,9.31E1,9.61E1,9.933E1,1.7118622E1,1.047E2,-6.266682E-2,1.1272E2,3.6435413E-1,1.18E2,-4.76889E-1,-2.8394622E-1,-2.443267E-1,-2.079781E-1,-1.776866E-1,9.1E1,-1.1849794E-1,3.593396E-2,9.933E1,6.768E2,8.631309E1,-2.1561965E-2,2.3121387E-2,1.5012522E-1,1.09646E2,3.034989E-1,6.5744475E-2,4.5210832E-1,5.471315E-1,-4.5798033E-2,-1.4698642E-1,-8.892162E-2,-1.449646E-2,-4.858798E-2,2.9013976E-2,-5.7561647E-2,2.5894244E-3,5.1397752E-2,-3.5670472E-3,9.969799E-2,2.4957046E-2,2.0295198E-1,5.1119726E-2],"split_indices":[2,3,2,2,2,2,2,0,2,4,2,2,4,61,0,0,0,2,2,2,4,12,2,2,0,0,0,0,0,2,2,2,2,2,56,2,0,21,0,2,0,0,0,0,0,59,0,42,57,48,28,0,64,0,21,0,0,0,0,0,0,0,0,0,0,0,0,0,0,0,0,0,0],"split_type":[0,0,0,0,0,0,0,0,0,0,0,0,0,0,0,0,0,0,0,0,0,0,0,0,0,0,0,0,0,0,0,0,0,0,0,0,0,0,0,0,0,0,0,0,0,0,0,0,0,0,0,0,0,0,0,0,0,0,0,0,0,0,0,0,0,0,0,0,0,0,0,0,0],"sum_hessian":[1.907E3,1.253E3,6.54E2,2.98E2,9.55E2,5.2E2,1.34E2,1.73E2,1.25E2,5.37E2,4.18E2,2.56E2,2.64E2,1E2,3.4E1,7.8E1,4.7E1,1.05E2,4.32E2,3.03E2,1.15E2,8.4E1,1.72E2,2.14E2,5E1,2.2E1,7.8E1,4.9E1,5.6E1,2.02E2,2.3E2,1.88E2,1.15E2,6.4E1,5.1E1,8.3E1,1E0,7.5E1,9.7E1,2.13E2,1E0,1.03E2,9.9E1,1.14E2,1.16E2,7.4E1,1.14E2,9.3E1,2.2E1,2E1,4.4E1,2E0,4.9E1,3.6E1,4.7E1,7.4E1,1E0,1.42E2,7.1E1,2E0,7.2E1,9.1E1,2E0,2E1,2E0,2E0,1.8E1,4.2E1,2E0,4.7E1,2E0,4.6E1,1E0],"tree_param":{"num_deleted":"0","num_feature":"87","num_nodes":"73","size_leaf_vector":"1"}},{"base_weights":[3.0940836E-3,-1.1087492E1,2.0373886E1,-2.8395979E1,-5.752991E0,1.3336801E1,4.4938663E1,-9.4612277E-1,-2.3303608E1,-8.885461E0,-2.1359637E0,9.541259E0,1.7182848E1,3.873E1,1.7610855E0,-7.5284296E-1,-5.8650786E-1,-1.3733314E1,-7.493728E0,-3.7311988E0,2.1180701E0,6.379135E0,1.1203319E1,4.473835E-1,2.0653812E1,9.484146E-1,1.2365004E0,-4.6648058E-1,-3.6299852E-1,-2.5769097E-1,-6.3986306E0,-4.38202E0,-2.5102968E0,1.1396701E0,3.250833E0,6.490776E0,-6.1726797E-2,6.475834E-2,1.1242894E1,5.579312E-1,7.3518336E-1,-1.9336902E-1,-9.716373E-2,-4.7733274E0,-3.7129877E0,-2.7660058E0,-1.1573788E0,1.5457871E0,-2.514391E-1,3.3795688E0,-1.5002441E-1,1.4812143E-1,7.107869E0,3.1290838E-1,3.6824548E-1,-5.4894865E-2,-1.441582E-1,-2.5585555E-2,-1.1213306E-1,-6.764067E-2,-9.365829E-2,-4.6869207E-2,1.1096008E-2,1.6877564E-2,5.21547E-2,7.3111723E-3,-4.1684967E-2,7.324898E-2,1.14569195E-1,1.7123908E-2,-2.3875007E-2,2.1499436E-1,5.0352972E-2],"categories":[],"categories_nodes":[],"categories_segments":[],"categories_sizes":[],"default_left":[0,0,0,0,0,0,0,0,0,0,0,0,0,0,0,0,0,0,0,0,0,0,0,0,0,0,0,0,0,0,0,0,0,0,0,0,0,0,0,0,0,0,0,0,0,0,0,0,0,0,0,0,0,0,0,0,0,0,0,0,0,0,0,0,0,0,0,0,0,0,0,0,0],"id":5,"left_children":[1,3,5,7,9,11,13,-1,15,17,19,21,23,25,-1,-1,-1,27,29,31,33,35,37,-1,39,-1,-1,-1,-1,-1,41,43,45,47,49,51,-1,-1,53,-1,-1,-1,-1,55,57,59,61,63,65,67,69,-1,71,-1,-1,-1,-1,-1,-1,-1,-1,-1,-1,-1,-1,-1,-1,-1,-1,-1,-1,-1,-1],"loss_changes":[4.3580738E5,1.151595E5,1.169485E5,3.9682969E3,1.0812719E4,7.5729062E3,1.06305E4,0E0,2.8923828E2,3.351504E3,3.0277544E3,1.3422988E3,1.756375E3,5.904219E2,0E0,0E0,0E0,1.4704102E2,4.2511523E2,2.4644678E2,1.3150708E2,1.02833984E2,3.8371094E1,0E0,3.4423828E2,0E0,0E0,0E0,0E0,0E0,9.421875E0,3.7253906E1,3.6583374E1,3.8240517E1,2.5024475E1,5.501294E1,0E0,0E0,1.7884766E1,0E0,0E0,0E0,0E0,3.3374023E0,2.6242676E0,1.0432678E1,1.2946342E1,8.874176E0,9.354699E0,1.2930725E1,1.8507986E0,0E0,8.655762E0,0E0,0E0,0E0,0E0,0E0,0E0,0E0,0E0,0E0,0E0,0E0,0E0,0E0,0E0,0E0,0E0,0E0,0E0,0E0,0E0],"parents":[2147483647,0,0,1,1,2,2,3,3,4,4,5,5,6,6,8,8,9,9,10,10,11,11,12,12,13,13,17,17,18,18,19,19,20,20,21,21,22,22,24,24,30,30,31,31,32,32,33,33,34,34,35,35,38,38,43,43,44,44,45,45,46,46,47,47,48,48,49,49,50,50,52,52],"right_children":[2,4,6,8,10,12,14,-1,16,18,20,22,24,26,-1,-1,-1,28,30,32,34,36,38,-1,40,-1,-1,-1,-1,-1,42,44,46,48,50,52,-1,-1,54,-1,-1,-1,-1,56,58,60,62,64,66,68,70,-1,72,-1,-1,-1,-1,-1,-1,-1,-1,-1,-1,-1,-1,-1,-1,-1,-1,-1,-1,-1,-1],"split_conditions":[1.0369E2,7.71E1,1.32E2,6.61E1,9.2E1,1.14E2,1.5491E2,-9.4612277E-1,7.19E1,8.55E1,9.79E1,1.09E2,1.189E2,1.4125E2,1.7610855E0,-7.5284296E-1,-5.8650786E-1,8.2E1,8.985E1,9.45E1,1.012E2,3.33E2,-1.0537583E0,4.473835E-1,1.25E2,9.484146E-1,1.2365004E0,-4.6648058E-1,-3.6299852E-1,-2.5769097E-1,9.4258E1,9.35E1,9.61E1,3.2125175E-1,1.07326E2,1.047E2,-6.1726797E-2,6.475834E-2,1.12E2,5.579312E-1,7.3518336E-1,-1.9336902E-1,-9.716373E-2,-1.5219565E-1,9.2E1,9.3512184E1,8.253968E1,9.933E1,2E0,-1.732266E-1,1.055E2,1.4812143E-1,3.6592858E0,3.1290838E-1,3.6824548E-1,-5.4894865E-2,-1.441582E-1,-2.5585555E-2,-1.1213306E-1,-6.764067E-2,-9.365829E-2,-4.6869207E-2,1.1096008E-2,1.6877564E-2,5.21547E-2,7.3111723E-3,-4.1684967E-2,7.324898E-2,1.14569195E-1,1.7123908E-2,-2.3875007E-2,2.1499436E-1,5.0352972E-2],"split_indices":[2,3,2,4,2,2,61,0,2,2,2,2,2,59,0,0,0,2,2,2,4,12,31,0,4,0,0,0,0,0,23,2,2,77,21,2,0,0,2,0,0,0,0,81,3,53,28,2,10,31,1,0,35,0,0,0,0,0,0,0,0,0,0,0,0,0,0,0,0,0,0,0,0],"split_type":[0,0,0,0,0,0,0,0,0,0,0,0,0,0,0,0,0,0,0,0,0,0,0,0,0,0,0,0,0,0,0,0,0,0,0,0,0,0,0,0,0,0,0,0,0,0,0,0,0,0,0,0,0,0,0,0,0,0,0,0,0,0,0,0,0,0,0,0,0,0,0,0,0],"sum_hessian":[1.927E3,1.248E3,6.79E2,2.93E2,9.55E2,5.29E2,1.5E2,1.78E2,1.15E2,5.11E2,4.44E2,2.68E2,2.61E2,1.06E2,4.4E1,7.4E1,4.1E1,1.12E2,3.99E2,3.23E2,1.21E2,9.4E1,1.74E2,1.61E2,1E2,3.1E1,7.5E1,4.9E1,6.3E1,1.96E2,2.03E2,2.09E2,1.14E2,6.6E1,5.5E1,9.3E1,1E0,1E0,1.73E2,6.9E1,3.1E1,1.99E2,4E0,1.28E2,8.1E1,9.5E1,1.9E1,5.1E1,1.5E1,5.3E1,2E0,2.9E1,6.4E1,1.03E2,7E1,2E0,1.26E2,1E0,8E1,4.2E1,5.3E1,1.5E1,4E0,9E0,4.2E1,1.1E1,4E0,1.9E1,3.4E1,1E0,1E0,6.3E1,1E0],"tree_param":{"num_deleted":"0","num_feature":"87","num_nodes":"73","size_leaf_vector":"1"}},{"base_weights":[-6.632211E-2,-1.0879946E1,1.994705E1,-2.7262342E1,-5.5763774E0,1.2806272E1,4.3992645E1,-9.1311044E-1,-2.2498112E1,-8.501844E0,-2.1004732E0,9.137107E0,1.6440157E1,3.7771545E1,1.7044318E0,-7.2778213E-1,-5.781366E-1,-1.3160568E1,-7.301966E0,-3.6077034E0,2.10911E0,9.295449E0,-4.7810462E-1,1.5143936E1,6.8888706E-1,9.189403E-1,1.2018871E0,-4.5060536E-1,-3.4901842E-1,-2.51617E-1,-6.180905E0,-4.2046704E0,-2.4619386E0,1.2151264E0,3.4042354E0,6.099996E0,1.0961075E1,4.1480848E-1,5.1650953E-1,-1.864704E-1,-8.664613E-2,-4.697214E0,-3.7096796E0,-2.7822783E0,-1.1847792E0,1.5605478E0,6.674598E-2,3.569049E0,-1.4777374E-1,6.6920085E0,4.269403E0,1.0064853E1,3.6525753E-1,3.5619736E-3,-1.4241178E-1,-1.1175217E-1,-3.0939788E-2,-8.4961094E-2,-1.2853699E-2,-4.2700697E-2,2.8791426E-2,1.02011105E-2,4.805231E-2,-2.9647522E-2,1.7660465E-2,-8.919869E-3,1.0997637E-1,1.6867103E-2,-2.3516921E-2,9.984274E-2,2.055829E-1,1.3848557E-1,-6.0800858E-2,6.378696E-2,3.0365512E-1],"categories":[],"categories_nodes":[],"categories_segments":[],"categories_sizes":[],"default_left":[0,0,0,0,0,0,0,0,0,0,0,0,0,0,0,0,0,0,0,0,0,0,0,0,0,0,0,0,0,0,0,0,0,0,0,0,0,0,0,0,0,0,0,0,0,0,0,0,0,0,0,0,0,0,0,0,0,0,0,0,0,0,0,0,0,0,0,0,0,0,0,0,0,0,0],"id":6,"left_children":[1,3,5,7,9,11,13,-1,15,17,19,21,23,25,-1,-1,-1,27,29,31,33,35,-1,37,-1,-1,-1,-1,-1,-1,39,41,43,45,47,49,51,-1,-1,-1,-1,53,55,57,59,61,63,65,67,69,71,73,-1,-1,-1,-1,-1,-1,-1,-1,-1,-1,-1,-1,-1,-1,-1,-1,-1,-1,-1,-1,-1,-1,-1],"loss_changes":[4.133572E5,1.0758556E5,1.1447847E5,3.8980625E3,9.52033E3,6.756453E3,1.0058156E4,0E0,2.4292969E2,2.7491602E3,2.7358777E3,1.1804102E3,1.8420703E3,5.070625E2,0E0,0E0,0E0,1.1766406E2,4.4333594E2,2.0647168E2,1.2785501E2,1.3116465E3,0E0,3.5985156E2,0E0,0E0,0E0,0E0,0E0,0E0,5.4067383E0,3.3042236E1,4.2116455E1,2.7266426E1,2.7456665E1,7.004907E1,6.1359375E1,0E0,0E0,0E0,0E0,2.4568604E1,6.1083984E-1,9.093323E0,1.3645077E1,2.1201782E0,9.942662E0,1.7562866E1,1.7956995E0,1.3424561E1,6.3940125E1,2.5074219E1,0E0,0E0,0E0,0E0,0E0,0E0,0E0,0E0,0E0,0E0,0E0,0E0,0E0,0E0,0E0,0E0,0E0,0E0,0E0,0E0,0E0,0E0,0E0],"parents":[2147483647,0,0,1,1,2,2,3,3,4,4,5,5,6,6,8,8,9,9,10,10,11,11,12,12,13,13,17,17,18,18,19,19,20,20,21,21,23,23,30,30,31,31,32,32,33,33,34,34,35,35,36,36,41,41,42,42,43,43,44,44,45,45,46,46,47,47,48,48,49,49,50,50,51,51],"right_children":[2,4,6,8,10,12,14,-1,16,18,20,22,24,26,-1,-1,-1,28,30,32,34,36,-1,38,-1,-1,-1,-1,-1,-1,40,42,44,46,48,50,52,-1,-1,-1,-1,54,56,58,60,62,64,66,68,70,72,74,-1,-1,-1,-1,-1,-1,-1,-1,-1,-1,-1,-1,-1,-1,-1,-1,-1,-1,-1,-1,-1,-1,-1],"split_conditions":[1.0369E2,7.71E1,1.3E2,6.5E1,9.2E1,1.1385E2,1.5491E2,-9.1311044E-1,7.19E1,8.65E1,9.79E1,1.19E2,1.22E2,1.415E2,1.7044318E0,-7.2778213E-1,-5.781366E-1,8.2E1,8.985E1,9.45E1,1.016E2,1.09E2,-4.7810462E-1,1.18E2,6.8888706E-1,9.189403E-1,1.2018871E0,-4.5060536E-1,-3.4901842E-1,-2.51617E-1,9.45445E1,9.31E1,9.61E1,1.6530597E-3,1.07326E2,4.2E1,1.12E2,4.1480848E-1,5.1650953E-1,-1.864704E-1,-8.664613E-2,-1.5219565E-1,4.1389E4,3.593396E-2,9.933E1,-1.080054E6,2.253E3,7.6123195E0,1.055E2,1.0499E2,1.37E2,-2.4390243E-2,3.6525753E-1,3.5619736E-3,-1.4241178E-1,-1.1175217E-1,-3.0939788E-2,-8.4961094E-2,-1.2853699E-2,-4.2700697E-2,2.8791426E-2,1.02011105E-2,4.805231E-2,-2.9647522E-2,1.7660465E-2,-8.919869E-3,1.0997637E-1,1.6867103E-2,-2.3516921E-2,9.984274E-2,2.055829E-1,1.3848557E-1,-6.0800858E-2,6.378696E-2,3.0365512E-1],"split_indices":[2,3,3,2,2,1,2,0,2,4,2,2,2,4,0,0,0,2,2,2,4,2,0,2,0,0,0,0,0,0,23,2,2,75,21,11,2,0,0,0,0,81,5,42,57,41,48,56,1,4,6,64,0,0,0,0,0,0,0,0,0,0,0,0,0,0,0,0,0,0,0,0,0,0,0],"split_type":[0,0,0,0,0,0,0,0,0,0,0,0,0,0,0,0,0,0,0,0,0,0,0,0,0,0,0,0,0,0,0,0,0,0,0,0,0,0,0,0,0,0,0,0,0,0,0,0,0,0,0,0,0,0,0,0,0,0,0,0,0,0,0,0,0,0,0,0,0,0,0,0,0,0,0],"sum_hessian":[1.908E3,1.239E3,6.69E2,3.02E2,9.37E2,5.17E2,1.52E2,1.78E2,1.24E2,5.08E2,4.29E2,2.59E2,2.58E2,1.05E2,4.7E1,7.6E1,4.8E1,1.02E2,4.06E2,3.16E2,1.13E2,2.58E2,1E0,2.18E2,4E1,2.9E1,7.6E1,4.2E1,6E1,2.03E2,2.03E2,2.06E2,1.1E2,6.8E1,4.5E1,9E1,1.68E2,1.38E2,8E1,2E2,3E0,9.9E1,1.07E2,8.7E1,2.3E1,5.2E1,1.6E1,4.3E1,2E0,6.6E1,2.4E1,1.02E2,6.6E1,1E0,9.8E1,1.06E2,1E0,8.5E1,2E0,2.1E1,2E0,2E0,5E1,5E0,1.1E1,1E0,4.2E1,1E0,1E0,4E0,6.2E1,2.3E1,1E0,1E0,1.01E2],"tree_param":{"num_deleted":"0","num_feature":"87","num_nodes":"75","size_leaf_vector":"1"}},{"base_weights":[-1.7816214E-1,-1.0115697E1,2.0168907E1,-2.6711796E1,-5.014456E0,1.2983424E1,4.2579777E1,-8.825098E-1,-2.181166E1,-7.625028E0,-5.3567785E-1,1.0423131E1,1.7045511E1,3.673976E1,1.6733811E0,-6.946032E-1,-5.539819E-1,-1.2548609E1,-6.4083114E0,-2.8745334E0,2.7391639E0,1.056441E1,-4.7093305E-1,1.5445539E1,6.4528954E-1,8.3918923E-1,1.1483915E0,-4.3912873E-1,-3.3192348E-1,-7.674954E0,-5.342597E0,-3.4674199E0,-1.9862252E0,1.3310273E0,3.8207233E0,8.300603E0,1.2060752E1,4.1304088E-1,4.9964845E-1,-2.479068E-1,-2.1287422E-1,-1.7423321E-1,-4.594605E0,-2.352539E-2,-3.482492E0,-2.1352472E0,4.320744E-2,1.1514473E-1,1.5636512E0,3.9126446E0,-5.9888877E-2,6.258993E0,9.159906E0,3.3192623E-1,4.013604E-1,3.5085296E-3,-1.3915502E-1,-1.0482294E-1,-3.047573E-2,-7.4054204E-2,-4.0950842E-2,2.821556E-2,-1.5114623E-2,1.1049431E-2,-2.3014069E-2,6.090253E-2,3.7055217E-2,9.576479E-2,1.44139E-1,1.90263E-1,4.6513937E-2,2.7661595E-1,6.283012E-2],"categories":[],"categories_nodes":[],"categories_segments":[],"categories_sizes":[],"default_left":[0,0,0,0,0,0,0,0,0,0,0,0,0,0,0,0,0,0,0,0,0,0,0,0,0,0,0,0,0,0,0,0,0,0,0,0,0,0,0,0,0,0,0,0,0,0,0,0,0,0,0,0,0,0,0,0,0,0,0,0,0,0,0,0,0,0,0,0,0,0,0,0,0],"id":7,"left_children":[1,3,5,7,9,11,13,-1,15,17,19,21,23,25,-1,-1,-1,27,29,31,33,35,-1,37,-1,-1,-1,-1,-1,39,41,43,45,47,49,51,53,-1,-1,-1,-1,-1,55,-1,57,59,61,63,65,67,-1,69,71,-1,-1,-1,-1,-1,-1,-1,-1,-1,-1,-1,-1,-1,-1,-1,-1,-1,-1,-1,-1],"loss_changes":[3.894385E5,1.09417E5,1.0121997E5,3.3881562E3,1.1582857E4,4.8143984E3,9.7448125E3,0E0,7.521875E1,3.6697031E3,2.8112075E3,1.2618691E3,9.819883E2,4.0075E2,0E0,0E0,0E0,2.1948828E2,6.3933594E2,1.0581946E2,2.2793103E2,9.025664E2,0E0,5.269922E1,0E0,0E0,0E0,0E0,0E0,1.9085938E1,6.9697266E1,2.4051514E0,2.6706116E1,1.9053307E1,5.3795654E1,1.5494629E2,8.312891E1,0E0,0E0,0E0,0E0,0E0,2.3499268E1,0E0,5.7617188E-2,1.7676361E1,3.909835E0,2.9629462E0,6.2256165E0,3.9289307E1,0E0,5.4279785E0,1.6242188E1,0E0,0E0,0E0,0E0,0E0,0E0,0E0,0E0,0E0,0E0,0E0,0E0,0E0,0E0,0E0,0E0,0E0,0E0,0E0,0E0],"parents":[2147483647,0,0,1,1,2,2,3,3,4,4,5,5,6,6,8,8,9,9,10,10,11,11,12,12,13,13,17,17,18,18,19,19,20,20,21,21,23,23,29,29,30,30,31,31,32,32,33,33,34,34,35,35,36,36,42,42,44,44,45,45,46,46,47,47,48,48,49,49,51,51,52,52],"right_children":[2,4,6,8,10,12,14,-1,16,18,20,22,24,26,-1,-1,-1,28,30,32,34,36,-1,38,-1,-1,-1,-1,-1,40,42,44,46,48,50,52,54,-1,-1,-1,-1,-1,56,-1,58,60,62,64,66,68,-1,70,72,-1,-1,-1,-1,-1,-1,-1,-1,-1,-1,-1,-1,-1,-1,-1,-1,-1,-1,-1,-1],"split_conditions":[1.0506E2,7.79E1,1.32E2,6.66E1,9.31E1,1.159E2,1.5491E2,-8.825098E-1,7.29E1,8.651E1,9.84E1,1.196E2,1.2005E2,1.4E2,1.6733811E0,-6.946032E-1,-5.539819E-1,8.2E1,9.002E1,9.499E1,1.016E2,1.1099E2,-4.7093305E-1,1.168E2,6.4528954E-1,8.3918923E-1,1.1483915E0,-4.3912873E-1,-3.3192348E-1,8.879E1,9.2E1,9.2E1,9.89E1,9.2619E1,1.56E2,1.079E2,1.14E2,4.1304088E-1,4.9964845E-1,-2.479068E-1,-2.1287422E-1,-1.7423321E-1,-1.5219565E-1,-2.352539E-2,4.1389E4,3.7037037E-2,-5.741627E-3,3.1E1,4.99025E3,1.0369E2,-5.9888877E-2,1.09646E2,1.13492E2,3.3192623E-1,4.013604E-1,3.5085296E-3,-1.3915502E-1,-1.0482294E-1,-3.047573E-2,-7.4054204E-2,-4.0950842E-2,2.821556E-2,-1.5114623E-2,1.1049431E-2,-2.3014069E-2,6.090253E-2,3.7055217E-2,9.576479E-2,1.44139E-1,1.90263E-1,4.6513937E-2,2.7661595E-1,6.283012E-2],"split_indices":[2,2,2,2,2,1,2,0,2,2,2,2,3,2,0,0,0,2,2,2,4,2,0,3,0,0,0,0,0,2,2,3,57,24,6,2,2,0,0,0,0,0,81,0,5,39,58,12,50,2,0,21,21,0,0,0,0,0,0,0,0,0,0,0,0,0,0,0,0,0,0,0,0],"split_type":[0,0,0,0,0,0,0,0,0,0,0,0,0,0,0,0,0,0,0,0,0,0,0,0,0,0,0,0,0,0,0,0,0,0,0,0,0,0,0,0,0,0,0,0,0,0,0,0,0,0,0,0,0,0,0,0,0,0,0,0,0,0,0,0,0,0,0,0,0,0,0,0,0],"sum_hessian":[1.924E3,1.293E3,6.31E2,3.03E2,9.9E2,4.79E2,1.52E2,1.92E2,1.11E2,6.25E2,3.65E2,2.96E2,1.83E2,1.08E2,4.4E1,7.5E1,3.6E1,1.22E2,5.03E2,2.13E2,1.52E2,2.95E2,1E0,1.38E2,4.5E1,1.9E1,8.9E1,4.7E1,7.5E1,2.27E2,2.76E2,1.26E2,8.7E1,6.7E1,8.5E1,1.2E2,1.75E2,6.3E1,7.5E1,1.06E2,1.21E2,1.66E2,1.1E2,1E0,1.25E2,8.1E1,6E0,1.1E1,5.6E1,8.4E1,1E0,3.8E1,8.2E1,1.05E2,7E1,1E0,1.09E2,1.24E2,1E0,5.5E1,2.6E1,2E0,4E0,9E0,2E0,2.1E1,3.5E1,4.9E1,3.5E1,3.7E1,1E0,8.1E1,1E0],"tree_param":{"num_deleted":"0","num_feature":"87","num_nodes":"73","size_leaf_vector":"1"}},{"base_weights":[-9.20978E-2,-1.0239641E1,1.870201E1,-2.5916643E1,-5.2287245E0,1.21877365E1,4.1859768E1,-8.609196E-1,-2.1186607E1,-7.8721175E0,-1.8311211E0,8.727252E0,1.5525271E1,1.0218612E0,5.1562065E1,-6.871028E-1,-5.453658E-1,-1.2496421E1,-6.6840687E0,-3.2686393E0,1.7539753E0,5.3719597E0,1.00442295E1,1.4073948E1,6.161223E-1,1.2506282E0,1.6624497E0,-4.2427886E-1,-3.3140802E-1,-2.367119E-1,-5.806761E0,-3.851307E0,-2.3471859E0,9.807158E-1,3.1666782E0,5.496022E0,-5.8990516E-2,8.78798E0,3.2017207E-1,1.4288227E1,-4.638691E-1,-1.8787317E-1,-5.248677E0,-4.140841E0,-1.0219413E-1,-2.6633048E0,-1.452234E0,1.4796724E0,-1.5621735E-1,-1.022255E-2,3.2605362E0,4.5222635E0,6.0446997E0,2.6572692E-1,6.18877E-2,4.004764E-1,4.827944E-1,-6.420593E-2,-1.5850562E-1,-6.4887635E-2,-1.2593277E-1,-5.1614377E-3,-8.161716E-2,-4.5517772E-2,9.428558E-3,-1.2294769E-3,4.6134863E-2,-5.3739738E-2,1.0263771E-2,1.0141192E-1,1.846489E-2,1.3759731E-1,3.8892858E-2,1.8337983E-1,4.581619E-2],"categories":[],"categories_nodes":[],"categories_segments":[],"categories_sizes":[],"default_left":[0,0,0,0,0,0,0,0,0,0,0,0,0,0,0,0,0,0,0,0,0,0,0,0,0,0,0,0,0,0,0,0,0,0,0,0,0,0,0,0,0,0,0,0,0,0,0,0,0,0,0,0,0,0,0,0,0,0,0,0,0,0,0,0,0,0,0,0,0,0,0,0,0,0,0],"id":8,"left_children":[1,3,5,7,9,11,13,-1,15,17,19,21,23,-1,25,-1,-1,27,29,31,33,35,37,39,-1,-1,-1,-1,-1,-1,41,43,45,47,49,51,-1,53,-1,55,-1,-1,57,59,-1,61,63,65,67,-1,69,71,73,-1,-1,-1,-1,-1,-1,-1,-1,-1,-1,-1,-1,-1,-1,-1,-1,-1,-1,-1,-1,-1,-1],"loss_changes":[3.6769744E5,9.8216766E4,1.0146847E5,3.3772812E3,8.517729E3,5.9741875E3,9.44075E3,0E0,1.8264062E2,2.8502148E3,2.1548013E3,1.1037812E3,1.6604531E3,0E0,1.248125E2,0E0,0E0,1.0147266E2,4.0608398E2,1.5095679E2,1.2798068E2,7.999829E1,5.378125E1,1.5563438E3,0E0,0E0,0E0,0E0,0E0,0E0,3.0960938E1,9.206299E0,2.9515686E1,4.5046303E1,1.49374695E1,1.2735107E1,0E0,1.3548828E1,0E0,1.4108594E2,0E0,0E0,1.581543E0,2.741455E0,0E0,1.1801392E1,4.267494E0,4.9269943E0,2.0983967E1,0E0,1.0917908E1,4.852295E-1,4.4802246E0,0E0,0E0,0E0,0E0,0E0,0E0,0E0,0E0,0E0,0E0,0E0,0E0,0E0,0E0,0E0,0E0,0E0,0E0,0E0,0E0,0E0,0E0],"parents":[2147483647,0,0,1,1,2,2,3,3,4,4,5,5,6,6,8,8,9,9,10,10,11,11,12,12,14,14,17,17,18,18,19,19,20,20,21,21,22,22,23,23,30,30,31,31,32,32,33,33,34,34,35,35,37,37,39,39,42,42,43,43,45,45,46,46,47,47,48,48,50,50,51,51,52,52],"right_children":[2,4,6,8,10,12,14,-1,16,18,20,22,24,-1,26,-1,-1,28,30,32,34,36,38,40,-1,-1,-1,-1,-1,-1,42,44,46,48,50,52,-1,54,-1,56,-1,-1,58,60,-1,62,64,66,68,-1,70,72,74,-1,-1,-1,-1,-1,-1,-1,-1,-1,-1,-1,-1,-1,-1,-1,-1,-1,-1,-1,-1,-1,-1],"split_conditions":[1.0301E2,7.798E1,1.32E2,6.5E1,9.23E1,1.14E2,1.4969E2,-8.609196E-1,7.19E1,8.6E1,9.692E1,1.079E2,1.219E2,1.0218612E0,1.7416943E0,-6.871028E-1,-5.453658E-1,8.2E1,8.95E1,9.43E1,1.016E2,1.37E2,1.104E2,1.2143E2,6.161223E-1,1.2506282E0,1.6624497E0,-4.2427886E-1,-3.3140802E-1,-2.367119E-1,9.091E1,9.35E1,9.598E1,3.562182E-2,7.6123195E0,1.047E2,-5.8990516E-2,1.13492E2,3.2017207E-1,1.18E2,-4.638691E-1,-1.8787317E-1,3.028E2,9.1E1,-1.0219413E-1,8.84977E1,1E0,-9.0377125E5,9.61E1,-1.022255E-2,2.3121387E-2,1.1182665E2,1.09646E2,2.6572692E-1,6.18877E-2,4.004764E-1,4.827944E-1,-6.420593E-2,-1.5850562E-1,-6.4887635E-2,-1.2593277E-1,-5.1614377E-3,-8.161716E-2,-4.5517772E-2,9.428558E-3,-1.2294769E-3,4.6134863E-2,-5.3739738E-2,1.0263771E-2,1.0141192E-1,1.846489E-2,1.3759731E-1,3.8892858E-2,1.8337983E-1,4.581619E-2],"split_indices":[3,4,2,2,2,2,2,0,2,1,2,2,4,0,29,0,0,2,2,2,4,6,2,2,0,0,0,0,0,0,2,2,2,40,56,2,0,21,0,2,0,0,48,59,0,33,13,55,3,0,64,25,21,0,0,0,0,0,0,0,0,0,0,0,0,0,0,0,0,0,0,0,0,0,0],"split_type":[0,0,0,0,0,0,0,0,0,0,0,0,0,0,0,0,0,0,0,0,0,0,0,0,0,0,0,0,0,0,0,0,0,0,0,0,0,0,0,0,0,0,0,0,0,0,0,0,0,0,0,0,0,0,0,0,0,0,0,0,0,0,0,0,0,0,0,0,0,0,0,0,0,0,0],"sum_hessian":[1.926E3,1.251E3,6.75E2,3.02E2,9.49E2,5.28E2,1.47E2,1.87E2,1.15E2,5.33E2,4.16E2,2.61E2,2.67E2,8.4E1,6.3E1,6.9E1,4.6E1,1.07E2,4.26E2,2.97E2,1.19E2,7.5E1,1.86E2,2.1E2,5.7E1,2.1E1,4.2E1,4.6E1,6.1E1,1.76E2,2.5E2,1.8E2,1.17E2,7.8E1,4.1E1,7.4E1,1E0,6.7E1,1.19E2,2.09E2,1E0,1.32E2,1.18E2,1.04E2,7.6E1,8.5E1,3.2E1,5.4E1,2.4E1,1E0,4E1,3E1,4.4E1,6.6E1,1E0,1.43E2,6.6E1,2E0,1.16E2,4E0,1E2,2E0,8.3E1,3.1E1,1E0,2E0,5.2E1,5E0,1.9E1,3.8E1,2E0,2.9E1,1E0,4.3E1,1E0],"tree_param":{"num_deleted":"0","num_feature":"87","num_nodes":"75","size_leaf_vector":"1"}},{"base_weights":[-2.4143094E-1,-9.588089E0,1.8903803E1,-2.5114351E1,-4.70721E0,1.280084E1,4.185576E1,-8.349457E-1,-2.059549E1,-7.597522E0,-1.2149998E0,1.0839478E1,1.9593155E1,1.081943E0,1.6195159E0,-6.607582E-1,-5.1770335E-1,-1.2066144E1,-6.5173426E0,-3.0887134E0,2.5792503E0,8.522426E0,1.2821087E1,5.092449E-1,7.211574E-1,-4.0577418E-1,-3.1023806E-1,-7.6067524E0,-5.5506334E0,-3.7336133E0,-2.143621E0,1.2279024E0,3.6189864E0,6.464201E0,9.353219E0,3.573826E-1,4.1889873E-1,-2.4290042E-1,-2.0920071E-1,-1.8095881E-1,-5.0469303E0,-4.0214715E0,-3.361608E0,-2.2505705E0,2.9916635E-1,1.4985888E0,1.3478851E-1,3.7198489E0,-2.7700806E-1,4.5281522E-2,1.9584015E-1,6.0959358E-2,2.8186598E-1,-6.2921755E-2,-1.523827E-1,-4.3990098E-2,-1.2184545E-1,-1.0239105E-1,-4.5165595E-2,1.0647354E-2,-6.896908E-2,2.3923988E-2,-1.394867E-2,3.633036E-2,5.8029808E-2,-1.0503387E-2,2.0091182E-2,1.1466657E-1,-5.451813E-3,1.36564635E-2,-2.6121825E-2],"categories":[],"categories_nodes":[],"categories_segments":[],"categories_sizes":[],"default_left":[0,0,0,0,0,0,0,0,0,0,0,0,0,0,0,0,0,0,0,0,0,0,0,0,0,0,0,0,0,0,0,0,0,0,0,0,0,0,0,0,0,0,0,0,0,0,0,0,0,0,0,0,0,0,0,0,0,0,0,0,0,0,0,0,0,0,0,0,0,0,0],"id":9,"left_children":[1,3,5,7,9,11,13,-1,15,17,19,21,23,-1,-1,-1,-1,25,27,29,31,33,35,-1,-1,-1,-1,37,39,41,43,45,47,49,51,-1,-1,-1,-1,-1,53,55,57,59,61,63,65,67,69,-1,-1,-1,-1,-1,-1,-1,-1,-1,-1,-1,-1,-1,-1,-1,-1,-1,-1,-1,-1,-1,-1],"loss_changes":[3.3874322E5,9.627624E4,8.6450734E4,3.1594688E3,9.771443E3,6.3421406E3,7.1834844E3,0E0,1.8320703E2,2.479625E3,3.1360752E3,1.6538711E3,8.6066406E2,0E0,0E0,0E0,0E0,1.1693457E2,4.0957617E2,1.7179639E2,2.0069281E2,2.4733105E2,4.6347656E1,0E0,0E0,0E0,0E0,5.291992E0,2.55625E1,5.1140137E0,3.2546387E1,1.9030922E1,3.3253174E1,7.5341797E0,1.9942383E1,0E0,0E0,0E0,0E0,0E0,7.5146484E-1,3.5598145E0,2.6887817E0,1.5569885E1,2.655358E0,4.173538E0,3.8658247E0,3.2647095E1,1.7005746E0,0E0,0E0,0E0,0E0,0E0,0E0,0E0,0E0,0E0,0E0,0E0,0E0,0E0,0E0,0E0,0E0,0E0,0E0,0E0,0E0,0E0,0E0],"parents":[2147483647,0,0,1,1,2,2,3,3,4,4,5,5,6,6,8,8,9,9,10,10,11,11,12,12,17,17,18,18,19,19,20,20,21,21,22,22,27,27,28,28,29,29,30,30,31,31,32,32,33,33,34,34,40,40,41,41,42,42,43,43,44,44,45,45,46,46,47,47,48,48],"right_children":[2,4,6,8,10,12,14,-1,16,18,20,22,24,-1,-1,-1,-1,26,28,30,32,34,36,-1,-1,-1,-1,38,40,42,44,46,48,50,52,-1,-1,-1,-1,-1,54,56,58,60,62,64,66,68,70,-1,-1,-1,-1,-1,-1,-1,-1,-1,-1,-1,-1,-1,-1,-1,-1,-1,-1,-1,-1,-1,-1],"split_conditions":[1.0506E2,7.79E1,1.37E2,6.61E1,9.23E1,1.2E2,1.62E2,-8.349457E-1,7.29E1,8.65E1,9.84E1,1.123E2,1.2513E2,1.081943E0,1.6195159E0,-6.607582E-1,-5.1770335E-1,8.34E1,8.985E1,9.45E1,1.016E2,1.09E2,1.1551E2,5.092449E-1,7.211574E-1,-4.0577418E-1,-3.1023806E-1,8.85E1,9.091E1,9.35E1,9.89E1,3.2125175E-1,1.07326E2,5.45E2,-1.0537583E0,3.573826E-1,4.1889873E-1,-2.4290042E-1,-2.0920071E-1,-1.8095881E-1,3.028E2,9.24E1,2.1511188E-2,9.1232E1,5.017E3,1.1320255E-2,4.375E3,1.6035E4,1.055E2,4.5281522E-2,1.9584015E-1,6.0959358E-2,2.8186598E-1,-6.2921755E-2,-1.523827E-1,-4.3990098E-2,-1.2184545E-1,-1.0239105E-1,-4.5165595E-2,1.0647354E-2,-6.896908E-2,2.3923988E-2,-1.394867E-2,3.633036E-2,5.8029808E-2,-1.0503387E-2,2.0091182E-2,1.1466657E-1,-5.451813E-3,1.36564635E-2,-2.6121825E-2],"split_indices":[2,2,2,4,2,4,2,0,2,4,2,2,3,0,0,0,0,4,2,2,4,2,2,0,0,0,0,2,2,2,57,77,21,49,31,0,0,0,0,0,48,4,38,22,48,73,5,5,1,0,0,0,0,0,0,0,0,0,0,0,0,0,0,0,0,0,0,0,0,0,0],"split_type":[0,0,0,0,0,0,0,0,0,0,0,0,0,0,0,0,0,0,0,0,0,0,0,0,0,0,0,0,0,0,0,0,0,0,0,0,0,0,0,0,0,0,0,0,0,0,0,0,0,0,0,0,0,0,0,0,0,0,0,0,0,0,0,0,0,0,0,0,0,0,0],"sum_hessian":[1.891E3,1.271E3,6.2E2,3.03E2,9.68E2,4.91E2,1.29E2,1.86E2,1.17E2,5.29E2,4.39E2,3.83E2,1.08E2,9E1,3.9E1,7.8E1,3.9E1,1.01E2,4.28E2,2.94E2,1.45E2,1.79E2,2.04E2,7.1E1,3.7E1,5.1E1,5E1,1.98E2,2.3E2,1.73E2,1.21E2,6.4E1,8.1E1,5.4E1,1.25E2,1.2E2,8.4E1,1.05E2,9.3E1,1.12E2,1.18E2,9.2E1,8.1E1,1.16E2,5E0,5.1E1,1.3E1,7.9E1,2E0,1E0,5.3E1,1E0,1.24E2,2E0,1.16E2,2E0,9E1,7.8E1,3E0,2E0,1.14E2,3E0,2E0,3.3E1,1.8E1,7E0,6E0,7.7E1,2E0,1E0,1E0],"tree_param":{"num_deleted":"0","num_feature":"87","num_nodes":"71","size_leaf_vector":"1"}},{"base_weights":[1.6088887E-1,-9.125702E0,1.8646757E1,-2.3971382E1,-4.5284986E0,1.2164206E1,3.9927082E1,-7.966005E-1,-1.917972E1,-6.9141665E0,-5.983011E-1,1.0362855E1,1.7542377E1,3.4767258E1,1.5801253E0,-6.163824E-1,-4.5237005E-1,-1.08474455E1,-5.7529464E0,-2.6722407E0,2.5519495E0,1.0474565E1,-4.6454978E-1,4.603373E-1,6.6529965E-1,8.704141E-1,1.0975454E0,-3.7905276E-1,-9.201189E0,-6.730326E0,-4.780122E0,-3.0109444E0,-1.26557E0,1.2667699E0,3.612453E0,8.379093E0,1.23736E1,-6.937443E-2,-2.778909E-1,-2.1211329E-1,-5.9957232E0,-1.5574048E-1,-4.215173E0,-3.3322742E0,-2.5316122E0,-1.4675442E0,2.9185233E-1,1.5246822E0,1.6305923E-1,3.7071455E0,-5.8023833E-2,6.0705924E0,9.202524E0,3.4624007E-1,4.0888235E-1,-1.8082538E-1,-5.226471E-2,-1.2698452E-1,-3.543663E-2,-1.0042807E-1,-2.630184E-2,-1.0616226E-2,-7.667791E-2,-5.7304457E-2,-2.633447E-2,2.3385657E-2,-1.3669739E-2,5.9302606E-2,3.6296308E-2,-3.3304824E-3,2.035794E-2,8.177922E-2,1.3163692E-1,1.8533255E-1,6.9975205E-2,6.0044974E-2,2.772849E-1],"categories":[],"categories_nodes":[],"categories_segments":[],"categories_sizes":[],"default_left":[0,0,0,0,0,0,0,0,0,0,0,0,0,0,0,0,0,0,0,0,0,0,0,0,0,0,0,0,0,0,0,0,0,0,0,0,0,0,0,0,0,0,0,0,0,0,0,0,0,0,0,0,0,0,0,0,0,0,0,0,0,0,0,0,0,0,0,0,0,0,0,0,0,0,0,0,0],"id":10,"left_children":[1,3,5,7,9,11,13,-1,15,17,19,21,23,25,-1,-1,-1,27,29,31,33,35,-1,-1,-1,-1,-1,-1,37,39,41,43,45,47,49,51,53,-1,-1,-1,55,-1,57,59,61,63,65,67,69,71,-1,73,75,-1,-1,-1,-1,-1,-1,-1,-1,-1,-1,-1,-1,-1,-1,-1,-1,-1,-1,-1,-1,-1,-1,-1,-1],"loss_changes":[3.285762E5,8.684018E4,8.780281E4,3.2146562E3,9.128227E3,4.5846875E3,7.966375E3,0E0,3.0092188E2,2.7054434E3,2.4176548E3,1.2334531E3,9.023047E2,7.8390625E1,0E0,0E0,0E0,2.8692188E2,4.147119E2,1.02436646E2,1.9577563E2,1.3686875E3,0E0,0E0,0E0,0E0,0E0,0E0,1.0530273E1,1.5573242E1,3.364258E1,1.9134277E1,1.4583466E1,1.91083E1,4.9187744E1,2.8439453E2,4.3371094E1,0E0,0E0,0E0,3.166504E-1,0E0,6.746826E-1,9.7961426E-1,3.1203918E0,8.763901E0,2.5424237E0,5.4356766E0,2.0534856E0,4.0805542E1,0E0,5.6188965E0,1.9231445E1,0E0,0E0,0E0,0E0,0E0,0E0,0E0,0E0,0E0,0E0,0E0,0E0,0E0,0E0,0E0,0E0,0E0,0E0,0E0,0E0,0E0,0E0,0E0,0E0],"parents":[2147483647,0,0,1,1,2,2,3,3,4,4,5,5,6,6,8,8,9,9,10,10,11,11,12,12,13,13,17,17,18,18,19,19,20,20,21,21,28,28,29,29,30,30,31,31,32,32,33,33,34,34,35,35,36,36,40,40,42,42,43,43,44,44,45,45,46,46,47,47,48,48,49,49,51,51,52,52],"right_children":[2,4,6,8,10,12,14,-1,16,18,20,22,24,26,-1,-1,-1,28,30,32,34,36,-1,-1,-1,-1,-1,-1,38,40,42,44,46,48,50,52,54,-1,-1,-1,56,-1,58,60,62,64,66,68,70,72,-1,74,76,-1,-1,-1,-1,-1,-1,-1,-1,-1,-1,-1,-1,-1,-1,-1,-1,-1,-1,-1,-1,-1,-1,-1,-1],"split_conditions":[1.0506E2,7.816E1,1.3312E2,6.78E1,9.31E1,1.18E2,1.62E2,-7.966005E-1,7.438E1,8.74E1,9.84E1,1.202E2,1.25E2,1.44E2,1.5801253E0,-6.163824E-1,-4.5237005E-1,8.4E1,9.052E1,9.598E1,1.016E2,1.123E2,-4.6454978E-1,4.603373E-1,6.6529965E-1,8.704141E-1,1.0975454E0,-3.7905276E-1,7E0,8.985E1,9.2E1,9.45E1,9.89E1,9.783519E-2,3.33E2,1.09E2,1.1525E2,-6.937443E-2,-2.778909E-1,-2.1211329E-1,9.3E1,-1.5574048E-1,1.4057901E6,4.1389E4,8.84977E1,3.3344448E-4,5.017E3,4.99025E3,4.375E3,1.0322E2,-5.8023833E-2,2.1999698E-2,-1.0537583E0,3.4624007E-1,4.0888235E-1,-1.8082538E-1,-5.226471E-2,-1.2698452E-1,-3.543663E-2,-1.0042807E-1,-2.630184E-2,-1.0616226E-2,-7.667791E-2,-5.7304457E-2,-2.633447E-2,2.3385657E-2,-1.3669739E-2,5.9302606E-2,3.6296308E-2,-3.3304824E-3,2.035794E-2,8.177922E-2,1.3163692E-1,1.8533255E-1,6.9975205E-2,6.0044974E-2,2.772849E-1],"split_indices":[2,3,2,2,2,1,2,0,4,2,2,2,4,2,0,0,0,4,2,2,4,2,0,0,0,0,0,0,11,2,2,2,57,46,12,2,2,0,0,0,1,0,55,5,33,64,48,50,5,2,0,47,31,0,0,0,0,0,0,0,0,0,0,0,0,0,0,0,0,0,0,0,0,0,0,0,0],"split_type":[0,0,0,0,0,0,0,0,0,0,0,0,0,0,0,0,0,0,0,0,0,0,0,0,0,0,0,0,0,0,0,0,0,0,0,0,0,0,0,0,0,0,0,0,0,0,0,0,0,0,0,0,0,0,0,0,0,0,0,0,0,0,0,0,0,0,0,0,0,0,0,0,0,0,0,0,0],"sum_hessian":[1.912E3,1.273E3,6.39E2,3E2,9.73E2,4.91E2,1.48E2,1.92E2,1.08E2,6.05E2,3.68E2,3.7E2,1.21E2,1.08E2,4E1,7.8E1,3E1,1.36E2,4.69E2,2.22E2,1.46E2,3.69E2,1E0,8.5E1,3.6E1,3E1,7.8E1,6.2E1,7.4E1,2.31E2,2.38E2,1.78E2,4.4E1,6.7E1,7.9E1,1.78E2,1.91E2,1E0,7.3E1,1.52E2,7.9E1,1.33E2,1.05E2,1.03E2,7.5E1,3.9E1,5E0,5.4E1,1.3E1,7.8E1,1E0,4.9E1,1.29E2,1.21E2,7E1,7.8E1,1E0,1.04E2,1E0,1.02E2,1E0,1E0,7.4E1,2.1E1,1.8E1,3E0,2E0,2E1,3.4E1,9E0,4E0,3.4E1,4.4E1,4.7E1,2E0,1E0,1.28E2],"tree_param":{"num_deleted":"0","num_feature":"87","num_nodes":"77","size_leaf_vector":"1"}},{"base_weights":[-3.3891525E-2,-9.038952E0,1.8105335E1,-2.3570457E1,-4.4573474E0,1.2022882E1,3.9416824E1,-7.8580004E-1,-1.9519146E1,-7.213292E0,-1.192504E0,1.0141083E1,1.7869392E1,1.0353179E0,1.5090655E0,-6.270436E-1,-4.9976E-1,-1.1456238E1,-6.155586E0,-2.9076293E0,2.3770442E0,7.6930165E0,1.1664227E1,4.500094E-1,6.565313E-1,-3.8752884E-1,-2.9323602E-1,-7.1836085E0,-5.2413383E0,-3.5271297E0,-1.9274881E0,1.1613407E0,3.3626063E0,5.3736467E0,8.403232E0,1.1849996E1,-4.5758158E-1,-2.3001342E-1,-1.9676863E-1,-1.7055783E-1,-4.794406E0,-1.1323975E-1,-3.164347E0,-2.2861803E0,-9.3430585E-1,1.3696003E0,-4.46597E-3,3.4545658E0,-5.7153508E-2,5.530937E-2,1.6568054E-1,6.3734117E0,2.6042792E-1,3.3005223E-1,3.964737E-1,-4.0323257E-2,-1.4436765E-1,-9.6496396E-2,-5.2141294E-2,-1.7236691E-2,-7.023371E-2,-3.455582E-2,7.100029E-3,4.2601336E-2,1.5213013E-4,1.175663E-2,-2.3881702E-2,7.430221E-2,1.2701195E-1,2.0058052E-1,8.057739E-2],"categories":[],"categories_nodes":[],"categories_segments":[],"categories_sizes":[],"default_left":[0,0,0,0,0,0,0,0,0,0,0,0,0,0,0,0,0,0,0,0,0,0,0,0,0,0,0,0,0,0,0,0,0,0,0,0,0,0,0,0,0,0,0,0,0,0,0,0,0,0,0,0,0,0,0,0,0,0,0,0,0,0,0,0,0,0,0,0,0,0,0],"id":11,"left_children":[1,3,5,7,9,11,13,-1,15,17,19,21,23,-1,-1,-1,-1,25,27,29,31,33,35,-1,-1,-1,-1,37,39,41,43,45,47,49,51,53,-1,-1,-1,-1,55,-1,57,59,61,63,65,67,-1,-1,-1,69,-1,-1,-1,-1,-1,-1,-1,-1,-1,-1,-1,-1,-1,-1,-1,-1,-1,-1,-1],"loss_changes":[3.0921206E5,8.4115625E4,8.093131E4,2.7084219E3,8.656209E3,5.209742E3,5.6874844E3,0E0,1.3816016E2,2.2721074E3,2.7129338E3,1.3010898E3,1.0310078E3,0E0,0E0,0E0,0E0,1.2687109E2,3.5709277E2,1.7475366E2,1.6862866E2,1.9534277E2,1.3208242E3,0E0,0E0,0E0,0E0,8.606445E0,1.7581543E1,4.39917E0,3.9901093E1,1.6030289E1,4.485022E1,9.28418E0,6.677246E0,1.175918E2,0E0,0E0,0E0,0E0,8.6035156E-1,0E0,3.6566162E-1,6.742584E0,8.679392E0,3.8474197E0,3.7632136E0,4.8941406E1,0E0,0E0,0E0,1.6384277E0,0E0,0E0,0E0,0E0,0E0,0E0,0E0,0E0,0E0,0E0,0E0,0E0,0E0,0E0,0E0,0E0,0E0,0E0,0E0],"parents":[2147483647,0,0,1,1,2,2,3,3,4,4,5,5,6,6,8,8,9,9,10,10,11,11,12,12,17,17,18,18,19,19,20,20,21,21,22,22,27,27,28,28,29,29,30,30,31,31,32,32,33,33,34,34,35,35,40,40,42,42,43,43,44,44,45,45,46,46,47,47,51,51],"right_children":[2,4,6,8,10,12,14,-1,16,18,20,22,24,-1,-1,-1,-1,26,28,30,32,34,36,-1,-1,-1,-1,38,40,42,44,46,48,50,52,54,-1,-1,-1,-1,56,-1,58,60,62,64,66,68,-1,-1,-1,70,-1,-1,-1,-1,-1,-1,-1,-1,-1,-1,-1,-1,-1,-1,-1,-1,-1,-1,-1],"split_conditions":[1.05E2,7.71E1,1.37E2,6.46E1,9.23E1,1.1835E2,1.62E2,-7.8580004E-1,7.19E1,8.55E1,9.84E1,1.12E2,1.25E2,1.0353179E0,1.5090655E0,-6.270436E-1,-4.9976E-1,8.34E1,8.985E1,9.45E1,1.016E2,1.079E2,1.202E2,4.500094E-1,6.565313E-1,-3.8752884E-1,-2.9323602E-1,8.85E1,9.091E1,2.220446E-16,9.61E1,5.5085637E-2,1.37E2,1.3006988E-1,-8.5604594E5,1.1525E2,-4.5758158E-1,-2.3001342E-1,-1.9676863E-1,-1.7055783E-1,-2.9803922E-2,-1.1323975E-1,1.4637392E-2,5.051E2,1.5304959E-1,1.0298686E2,3.1E1,1.0322E2,-5.7153508E-2,5.530937E-2,1.6568054E-1,1.0886623E2,2.6042792E-1,3.3005223E-1,3.964737E-1,-4.0323257E-2,-1.4436765E-1,-9.6496396E-2,-5.2141294E-2,-1.7236691E-2,-7.023371E-2,-3.455582E-2,7.100029E-3,4.2601336E-2,1.5213013E-4,1.175663E-2,-2.3881702E-2,7.430221E-2,1.2701195E-1,2.0058052E-1,8.057739E-2],"split_indices":[3,3,2,3,2,1,2,0,2,2,2,2,4,0,0,0,0,4,2,2,4,2,2,0,0,0,0,2,2,80,2,45,6,77,55,2,0,0,0,0,60,0,68,49,34,53,12,2,0,0,0,26,0,0,0,0,0,0,0,0,0,0,0,0,0,0,0,0,0,0,0],"split_type":[0,0,0,0,0,0,0,0,0,0,0,0,0,0,0,0,0,0,0,0,0,0,0,0,0,0,0,0,0,0,0,0,0,0,0,0,0,0,0,0,0,0,0,0,0,0,0,0,0,0,0,0,0,0,0,0,0,0,0,0,0,0,0,0,0,0,0,0,0,0,0],"sum_hessian":[1.891E3,1.264E3,6.27E2,3.02E2,9.62E2,4.89E2,1.38E2,1.8E2,1.22E2,5.21E2,4.41E2,3.72E2,1.17E2,9.8E1,4E1,7.8E1,4.4E1,1.02E2,4.19E2,2.98E2,1.43E2,1.45E2,2.27E2,7.1E1,4.6E1,5.1E1,5.1E1,1.94E2,2.25E2,1.81E2,1.17E2,6.5E1,7.8E1,3.6E1,1.09E2,2.26E2,1E0,1.03E2,9.1E1,1.07E2,1.18E2,1.02E2,7.9E1,8.5E1,3.2E1,5.5E1,1E1,7.7E1,1E0,2E0,3.4E1,1.6E1,9.3E1,1.45E2,8.1E1,1E0,1.17E2,7.5E1,4E0,3E0,8.2E1,2.7E1,5E0,5.3E1,2E0,7E0,3E0,3.6E1,4.1E1,1.4E1,2E0],"tree_param":{"num_deleted":"0","num_feature":"87","num_nodes":"71","size_leaf_vector":"1"}},{"base_weights":[7.843983E-2,-8.770421E0,1.755447E1,-2.2368841E1,-4.146598E0,1.13119755E1,3.680968E1,-2.5043144E1,-1.7248276E1,-5.5799923E0,1.526139E0,9.376316E0,1.4706677E1,3.0185839E1,4.58598E1,-8.463865E-1,-7.097933E-1,-5.5835766E-1,-4.0597174E-1,-8.136234E0,-4.066789E0,-1.0617777E0,2.4513705E0,7.163273E0,1.0453578E1,1.4947813E1,-4.020655E0,6.921943E-1,9.409245E-1,1.1981951E0,1.5747926E0,-3.1924263E-1,-6.9456477E0,-5.0655894E0,-3.1321387E0,-1.3937409E0,4.3864518E-1,1.2624164E0,3.2431319E0,5.379702E0,7.9416065E0,2.8583628E-1,3.3689025E-1,4.1647643E-1,5.858193E-1,2.6978838E-1,-4.5071787E-1,-7.4222403E0,-1.9040807E-1,-1.6490297E-1,-4.6095443E0,-3.570119E0,-2.5772939E0,-4.2254966E-1,-1.8145318E0,-1.72229E-1,8.7459946E-1,1.4006402E0,-4.8288575E-1,3.3274236E0,-5.6296233E-2,4.099262E-2,1.6372652E-1,7.9998813E0,5.7935715E-2,-2.235962E-1,-6.488365E-2,-5.5948716E-2,-1.3923177E-1,-1.075247E-1,-2.5125274E-2,-7.848009E-2,-8.578873E-3,9.107691E-3,-4.324001E-2,-8.606357E-2,-4.426088E-2,-1.2967605E-2,4.3561556E-3,6.6307066E-3,2.8833298E-2,4.9020868E-2,3.0450847E-2,2.0680237E-3,-2.621231E-2,7.559874E-2,1.1957579E-1,6.051315E-2,2.4172065E-1],"categories":[],"categories_nodes":[],"categories_segments":[],"categories_sizes":[],"default_left":[0,0,0,0,0,0,0,0,0,0,0,0,0,0,0,0,0,0,0,0,0,0,0,0,0,0,0,0,0,0,0,0,0,0,0,0,0,0,0,0,0,0,0,0,0,0,0,0,0,0,0,0,0,0,0,0,0,0,0,0,0,0,0,0,0,0,0,0,0,0,0,0,0,0,0,0,0,0,0,0,0,0,0,0,0,0,0,0,0],"id":12,"left_children":[1,3,5,7,9,11,13,15,17,19,21,23,25,27,29,-1,-1,-1,-1,31,33,35,37,39,41,43,45,-1,-1,-1,-1,-1,47,49,51,53,55,57,59,61,63,-1,-1,-1,-1,-1,-1,65,-1,-1,67,69,71,73,75,77,79,81,83,85,-1,-1,-1,87,-1,-1,-1,-1,-1,-1,-1,-1,-1,-1,-1,-1,-1,-1,-1,-1,-1,-1,-1,-1,-1,-1,-1,-1,-1],"loss_changes":[2.9397556E5,7.9257625E4,7.6391766E4,3.950125E3,7.6763027E3,3.042461E3,7.9673594E3,2.4453906E2,3.2072266E2,2.8796016E3,4.5993735E2,6.6655273E2,8.4585156E2,5.5765625E1,4.1664062E2,0E0,0E0,0E0,0E0,7.582461E2,4.2756006E2,2.6013699E1,1.286388E2,1.0303906E2,4.1720703E1,5.679922E2,5.646861E2,0E0,0E0,0E0,0E0,0E0,7.676758E0,1.9495605E1,5.106543E1,1.6397339E1,2.8137634E0,1.4668411E1,4.2493835E1,3.4777832E0,9.418945E0,0E0,0E0,0E0,0E0,0E0,0E0,3.3007812E-1,0E0,0E0,1.4645996E0,2.21521E0,9.274475E0,1.0794483E1,6.137047E0,4.7546878E-1,1.2681913E-1,3.2012787E0,1.1386467E0,3.4083984E1,0E0,0E0,0E0,7.8168945E0,0E0,0E0,0E0,0E0,0E0,0E0,0E0,0E0,0E0,0E0,0E0,0E0,0E0,0E0,0E0,0E0,0E0,0E0,0E0,0E0,0E0,0E0,0E0,0E0,0E0],"parents":[2147483647,0,0,1,1,2,2,3,3,4,4,5,5,6,6,7,7,8,8,9,9,10,10,11,11,12,12,13,13,14,14,19,19,20,20,21,21,22,22,23,23,24,24,25,25,26,26,32,32,33,33,34,34,35,35,36,36,37,37,38,38,39,39,40,40,47,47,50,50,51,51,52,52,53,53,54,54,55,55,56,56,57,57,58,58,59,59,63,63],"right_children":[2,4,6,8,10,12,14,16,18,20,22,24,26,28,30,-1,-1,-1,-1,32,34,36,38,40,42,44,46,-1,-1,-1,-1,-1,48,50,52,54,56,58,60,62,64,-1,-1,-1,-1,-1,-1,66,-1,-1,68,70,72,74,76,78,80,82,84,86,-1,-1,-1,88,-1,-1,-1,-1,-1,-1,-1,-1,-1,-1,-1,-1,-1,-1,-1,-1,-1,-1,-1,-1,-1,-1,-1,-1,-1],"split_conditions":[1.0506E2,7.98E1,1.3E2,6.86E1,9.598E1,1.16E2,1.4969E2,6.13E1,7.599E1,8.985E1,9.95E1,1.1099E2,5.2807953E4,1.37E2,1.659E2,-8.463865E-1,-7.097933E-1,-5.5835766E-1,-4.0597174E-1,8.55E1,9.23E1,8.253968E1,1.016E2,1.079E2,1.135E2,1.25E2,1.19E2,6.921943E-1,9.409245E-1,1.1981951E0,1.5747926E0,-3.1924263E-1,8.85E1,9.1E1,9.4E1,9.082E2,4.5677504E-1,4.7663778E-1,1.56E2,5.45E2,1.13492E2,2.8583628E-1,3.3689025E-1,4.1647643E-1,5.858193E-1,2.6978838E-1,-4.5071787E-1,2.09E2,-1.9040807E-1,-1.6490297E-1,3.028E2,1.0088672E7,3.593396E-2,6.903527E-1,1.5037594E-2,2E0,1.5375716E5,4.5669E3,9.854E1,1.0322E2,-5.6296233E-2,4.099262E-2,1.6372652E-1,-4.8543688E-2,5.7935715E-2,-2.235962E-1,-6.488365E-2,-5.5948716E-2,-1.3923177E-1,-1.075247E-1,-2.5125274E-2,-7.848009E-2,-8.578873E-3,9.107691E-3,-4.324001E-2,-8.606357E-2,-4.426088E-2,-1.2967605E-2,4.3561556E-3,6.6307066E-3,2.8833298E-2,4.9020868E-2,3.0450847E-2,2.0680237E-3,-2.621231E-2,7.559874E-2,1.1957579E-1,6.051315E-2,2.4172065E-1],"split_indices":[2,2,3,2,2,2,2,2,2,2,4,2,55,2,2,0,0,0,0,2,2,28,4,2,2,4,2,0,0,0,0,0,2,2,2,48,51,31,6,49,21,0,0,0,0,0,0,6,0,0,48,7,42,29,40,8,7,49,3,2,0,0,0,66,0,0,0,0,0,0,0,0,0,0,0,0,0,0,0,0,0,0,0,0,0,0,0,0,0],"split_type":[0,0,0,0,0,0,0,0,0,0,0,0,0,0,0,0,0,0,0,0,0,0,0,0,0,0,0,0,0,0,0,0,0,0,0,0,0,0,0,0,0,0,0,0,0,0,0,0,0,0,0,0,0,0,0,0,0,0,0,0,0,0,0,0,0,0,0,0,0,0,0,0,0,0,0,0,0,0,0,0,0,0,0,0,0,0,0,0,0],"sum_hessian":[1.899E3,1.261E3,6.38E2,3.19E2,9.42E2,4.83E2,1.55E2,2.07E2,1.12E2,7.52E2,1.9E2,3.1E2,1.73E2,9.2E1,6.3E1,5.7E1,1.5E2,7.9E1,3.3E1,2.78E2,4.74E2,5E1,1.4E2,1.04E2,2.06E2,1.71E2,2E0,1.6E1,7.6E1,3.7E1,2.6E1,8.7E1,1.91E2,2.27E2,2.47E2,4.1E1,9E0,5.7E1,8.3E1,3.4E1,7E1,1E2,1.06E2,1.42E2,2.9E1,1E0,1E0,1E2,9.1E1,1.11E2,1.16E2,1.35E2,1.12E2,1.3E1,2.8E1,4E0,5E0,5.3E1,4E0,8.2E1,1E0,1E0,3.3E1,6.9E1,1E0,9.9E1,1E0,2E0,1.14E2,1.34E2,1E0,1.1E2,2E0,8E0,5E0,5E0,2.3E1,2E0,2E0,1E0,4E0,3.1E1,2.2E1,2E0,2E0,3.9E1,4.3E1,1E0,6.8E1],"tree_param":{"num_deleted":"0","num_feature":"87","num_nodes":"89","size_leaf_vector":"1"}},{"base_weights":[6.830595E-2,-8.469189E0,1.6802738E1,-2.1914202E1,-4.1408124E0,1.104094E1,3.652156E1,-7.4128544E-1,-1.7936396E1,-6.4049535E0,-9.5062643E-1,9.166898E0,1.5971959E1,9.1485596E-1,1.3814268E0,-5.6857044E-1,-4.0457952E-1,-1.0379506E1,-5.5607934E0,-2.5370388E0,2.3626652E0,9.272235E0,-4.4395718E-1,1.3942398E1,6.083698E-1,-3.548716E-1,-2.7662516E-1,-6.540601E0,-4.668833E0,-3.0513191E0,-1.6168206E0,1.3033278E0,3.2126315E0,7.2244186E0,1.0901129E1,2.99284E-1,4.3154925E-1,-2.0998596E-1,-1.7745896E-1,-1.5344074E-1,-4.1627774E0,-3.0709782E0,5.2451706E-3,1.9066204E-1,-1.8197705E0,-3.8571358E-1,1.3989916E0,3.3099473E0,-5.5451773E-2,5.36907E0,8.120151E0,2.890435E-1,3.4795618E-1,-4.8492204E-2,-1.2575242E-1,-1.0140894E-1,-8.223164E-2,1.48148015E-2,-8.157029E-3,-6.0209002E-2,-2.249971E-2,2.0266725E-3,-2.6182823E-2,5.6828238E-2,3.1723734E-2,-1.5264473E-2,1.011531E-1,1.6661468E-1,5.767288E-3,5.9605405E-2,2.4474572E-1],"categories":[],"categories_nodes":[],"categories_segments":[],"categories_sizes":[],"default_left":[0,0,0,0,0,0,0,0,0,0,0,0,0,0,0,0,0,0,0,0,0,0,0,0,0,0,0,0,0,0,0,0,0,0,0,0,0,0,0,0,0,0,0,0,0,0,0,0,0,0,0,0,0,0,0,0,0,0,0,0,0,0,0,0,0,0,0,0,0,0,0],"id":13,"left_children":[1,3,5,7,9,11,13,-1,15,17,19,21,23,-1,-1,-1,-1,25,27,29,31,33,-1,35,-1,-1,-1,37,39,41,43,45,47,49,51,-1,-1,-1,-1,-1,53,55,-1,57,59,61,63,65,-1,67,69,-1,-1,-1,-1,-1,-1,-1,-1,-1,-1,-1,-1,-1,-1,-1,-1,-1,-1,-1,-1],"loss_changes":[2.7573878E5,7.428257E4,7.367431E4,3.014875E3,6.9858066E3,4.529496E3,7.034625E3,0E0,3.4123438E2,1.8413008E3,2.1242617E3,1.0687402E3,9.235742E2,0E0,0E0,0E0,0E0,5.5520508E1,3.793457E2,1.24263794E2,1.1376538E2,1.1487715E3,0E0,2.6765625E1,0E0,0E0,0E0,2.2016602E1,3.4890625E1,1.157251E1,3.7029816E1,1.0234428E1,4.1579407E1,2.3227734E2,6.75332E1,0E0,0E0,0E0,0E0,0E0,2.224121E0,8.389526E0,0E0,1.6768324E0,1.6518097E1,9.4201416E-1,7.6387634E0,1.8477661E1,0E0,5.3449097E1,9.455566E0,0E0,0E0,0E0,0E0,0E0,0E0,0E0,0E0,0E0,0E0,0E0,0E0,0E0,0E0,0E0,0E0,0E0,0E0,0E0,0E0],"parents":[2147483647,0,0,1,1,2,2,3,3,4,4,5,5,6,6,8,8,9,9,10,10,11,11,12,12,17,17,18,18,19,19,20,20,21,21,23,23,27,27,28,28,29,29,30,30,31,31,32,32,33,33,34,34,40,40,41,41,43,43,44,44,45,45,46,46,47,47,49,49,50,50],"right_children":[2,4,6,8,10,12,14,-1,16,18,20,22,24,-1,-1,-1,-1,26,28,30,32,34,-1,36,-1,-1,-1,38,40,42,44,46,48,50,52,-1,-1,-1,-1,-1,54,56,-1,58,60,62,64,66,-1,68,70,-1,-1,-1,-1,-1,-1,-1,-1,-1,-1,-1,-1,-1,-1,-1,-1,-1,-1,-1,-1],"split_conditions":[1.06E2,7.9E1,1.3315E2,6.46E1,9.319E1,1.173E2,1.535E2,-7.4128544E-1,7.5E1,8.6E1,9.95E1,1.182E2,1.221E2,9.1485596E-1,1.3814268E0,-5.6857044E-1,-4.0457952E-1,8.2E1,8.97E1,9.54E1,1.016E2,1.1105E2,-4.4395718E-1,1.165E2,6.083698E-1,-3.548716E-1,-2.7662516E-1,8.82E1,9.09E1,1.91E2,3.2E1,9.57E1,1.56E2,1.08E2,1.135E2,2.99284E-1,4.3154925E-1,-2.0998596E-1,-1.7745896E-1,-1.5344074E-1,-1.5219565E-1,3.1634772E-6,5.2451706E-3,5.8778524E-1,1.4620924E0,9.854E1,4.99025E3,7.6123195E0,-5.5451773E-2,1.1954663E2,9.789E1,2.890435E-1,3.4795618E-1,-4.8492204E-2,-1.2575242E-1,-1.0140894E-1,-8.223164E-2,1.48148015E-2,-8.157029E-3,-6.0209002E-2,-2.249971E-2,2.0266725E-3,-2.6182823E-2,5.6828238E-2,3.1723734E-2,-1.5264473E-2,1.011531E-1,1.6661468E-1,5.767288E-3,5.9605405E-2,2.4474572E-1],"split_indices":[4,3,1,3,4,1,4,0,1,1,4,3,3,0,0,0,0,3,3,4,4,3,0,3,0,0,0,3,3,6,12,21,6,3,3,0,0,0,0,0,81,75,0,17,71,3,50,56,0,32,65,0,0,0,0,0,0,0,0,0,0,0,0,0,0,0,0,0,0,0,0],"split_type":[0,0,0,0,0,0,0,0,0,0,0,0,0,0,0,0,0,0,0,0,0,0,0,0,0,0,0,0,0,0,0,0,0,0,0,0,0,0,0,0,0,0,0,0,0,0,0,0,0,0,0,0,0,0,0,0,0,0,0,0,0,0,0,0,0,0,0,0,0,0,0],"sum_hessian":[1.928E3,1.277E3,6.51E2,3.1E2,9.67E2,5.05E2,1.46E2,1.79E2,1.31E2,5.65E2,4.02E2,3.68E2,1.37E2,9.2E1,5.4E1,1.04E2,2.7E1,9.7E1,4.68E2,2.72E2,1.3E2,3.67E2,1E0,9.6E1,4.1E1,3.9E1,5.8E1,2.2E2,2.48E2,1.73E2,9.9E1,5.9E1,7.1E1,1.65E2,2.02E2,1.2E1,8.4E1,1.21E2,9.9E1,1.27E2,1.21E2,1.72E2,1E0,1E1,8.9E1,3E0,5.6E1,7E1,1E0,5.6E1,1.09E2,7.7E1,1.25E2,2E0,1.19E2,8.4E1,8.8E1,6E0,4E0,7.5E1,1.4E1,2E0,1E0,2.1E1,3.5E1,1E0,6.9E1,5.4E1,2E0,1E0,1.08E2],"tree_param":{"num_deleted":"0","num_feature":"87","num_nodes":"71","size_leaf_vector":"1"}},{"base_weights":[1.1148212E-1,-8.549352E0,1.5420876E1,-2.1473738E1,-4.389851E0,9.924851E0,3.4276257E1,-7.213073E-1,-1.7920664E1,-6.898641E0,-2.0135868E0,7.109046E0,1.2998868E1,2.890747E1,1.2928153E0,-5.7671666E-1,-4.5962924E-1,-1.0909314E1,-5.964415E0,-3.0615332E0,1.320901E0,4.4582286E0,8.424841E0,3.354137E-1,1.591309E1,6.7635113E-1,9.12389E-1,-3.5391888E-1,-2.798722E-1,-6.671209E0,-5.1019654E0,-3.7864404E0,-2.2911744E0,8.059386E-1,2.1335466E0,4.543487E0,-5.4620016E-2,8.6257925E0,-4.3729785E-1,4.271968E-1,5.6027585E-1,-2.2793834E-1,-1.9003996E-1,-3.7504118E-2,-1.535208E-1,-4.101879E0,-3.3633673E0,-2.6491725E0,-1.8150371E0,-1.5858078E-1,1.1069461E0,4.4238758E-1,2.441539E0,3.7906933E0,5.1451883E0,7.9920325E0,3.0232012E-1,-1.2509021E-1,-5.8581665E-2,-1.01970695E-1,-3.767288E-2,-8.0382325E-2,5.1665497E-3,3.2125093E-2,-5.7082873E-2,-2.8004445E-2,9.199791E-3,3.5517424E-2,-5.111275E-3,2.3536637E-2,-2.9291725E-2,-1.5035477E-2,7.611609E-2,4.4712525E-2,1.1584134E-1,1.5893352E-1,6.1976507E-2,5.871128E-2,2.4067394E-1],"categories":[],"categories_nodes":[],"categories_segments":[],"categories_sizes":[],"default_left":[0,0,0,0,0,0,0,0,0,0,0,0,0,0,0,0,0,0,0,0,0,0,0,0,0,0,0,0,0,0,0,0,0,0,0,0,0,0,0,0,0,0,0,0,0,0,0,0,0,0,0,0,0,0,0,0,0,0,0,0,0,0,0,0,0,0,0,0,0,0,0,0,0,0,0,0,0,0,0],"id":14,"left_children":[1,3,5,7,9,11,13,-1,15,17,19,21,23,25,-1,-1,-1,27,29,31,33,35,37,-1,39,-1,-1,-1,-1,41,43,45,47,49,51,53,-1,55,-1,-1,-1,-1,-1,-1,-1,57,59,61,63,65,67,69,71,73,75,77,-1,-1,-1,-1,-1,-1,-1,-1,-1,-1,-1,-1,-1,-1,-1,-1,-1,-1,-1,-1,-1,-1,-1],"loss_changes":[2.5431089E5,6.576049E4,7.147514E4,2.2901094E3,5.518424E3,4.5644297E3,6.1392656E3,0E0,1.4251953E2,1.6247734E3,1.6743503E3,9.495254E2,1.1786914E3,2.7220312E2,0E0,0E0,0E0,7.8125E0,1.9028711E2,1.9459644E2,4.6405914E1,5.966382E1,9.947051E2,0E0,1.7783398E2,0E0,0E0,0E0,0E0,1.393457E1,3.6831055E0,1.1026123E1,2.5703308E1,2.107912E1,2.1837936E1,2.35271E1,0E0,9.148926E1,0E0,0E0,0E0,0E0,0E0,0E0,0E0,6.7193604E0,2.1193237E0,8.99292E0,2.229071E1,6.775534E0,5.608925E0,4.649706E0,1.1687546E1,1.7243652E0,1.2549927E1,9.09375E0,0E0,0E0,0E0,0E0,0E0,0E0,0E0,0E0,0E0,0E0,0E0,0E0,0E0,0E0,0E0,0E0,0E0,0E0,0E0,0E0,0E0,0E0,0E0],"parents":[2147483647,0,0,1,1,2,2,3,3,4,4,5,5,6,6,8,8,9,9,10,10,11,11,12,12,13,13,17,17,18,18,19,19,20,20,21,21,22,22,24,24,29,29,30,30,31,31,32,32,33,33,34,34,35,35,37,37,45,45,46,46,47,47,48,48,49,49,50,50,51,51,52,52,53,53,54,54,55,55],"right_children":[2,4,6,8,10,12,14,-1,16,18,20,22,24,26,-1,-1,-1,28,30,32,34,36,38,-1,40,-1,-1,-1,-1,42,44,46,48,50,52,54,-1,56,-1,-1,-1,-1,-1,-1,-1,58,60,62,64,66,68,70,72,74,76,78,-1,-1,-1,-1,-1,-1,-1,-1,-1,-1,-1,-1,-1,-1,-1,-1,-1,-1,-1,-1,-1,-1,-1],"split_conditions":[1.024E2,7.71E1,1.3E2,6.46E1,9.1E1,1.1385E2,1.535E2,-7.213073E-1,7.09E1,8.42E1,9.61E1,1.07E2,1.2E2,1.3963E2,1.2928153E0,-5.7671666E-1,-4.5962924E-1,7.955542E1,8.995E1,9.4E1,1.012E2,3.33E2,1.182E2,3.354137E-1,1.25E2,6.7635113E-1,9.12389E-1,-3.5391888E-1,-2.798722E-1,8.765E1,8.65E1,9.201E1,9.54E1,9.95E1,-3.6201626E-1,1.06E2,-5.4620016E-2,1.12E2,-4.3729785E-1,4.271968E-1,5.6027585E-1,-2.2793834E-1,-1.9003996E-1,-3.7504118E-2,-1.535208E-1,8.3714E3,1.6611648E-3,1.46E2,-2.9803922E-2,4.14724E-1,4.1758243E-2,1.055E2,7.6123195E0,-2.3032942E0,1.0655984E2,-4.8543688E-2,3.0232012E-1,-1.2509021E-1,-5.8581665E-2,-1.01970695E-1,-3.767288E-2,-8.0382325E-2,5.1665497E-3,3.2125093E-2,-5.7082873E-2,-2.8004445E-2,9.199791E-3,3.5517424E-2,-5.111275E-3,2.3536637E-2,-2.9291725E-2,-1.5035477E-2,7.611609E-2,4.4712525E-2,1.1584134E-1,1.5893352E-1,6.1976507E-2,5.871128E-2,2.4067394E-1],"split_indices":[3,3,3,3,3,1,4,0,3,3,3,3,4,3,0,0,0,27,4,4,4,12,3,0,4,0,0,0,0,4,1,3,4,4,71,4,0,3,0,0,0,0,0,0,0,49,75,6,58,30,38,1,56,30,27,66,0,0,0,0,0,0,0,0,0,0,0,0,0,0,0,0,0,0,0,0,0,0,0],"split_type":[0,0,0,0,0,0,0,0,0,0,0,0,0,0,0,0,0,0,0,0,0,0,0,0,0,0,0,0,0,0,0,0,0,0,0,0,0,0,0,0,0,0,0,0,0,0,0,0,0,0,0,0,0,0,0,0,0,0,0,0,0,0,0,0,0,0,0,0,0,0,0,0,0,0,0,0,0,0,0],"sum_hessian":[1.916E3,1.224E3,6.92E2,2.97E2,9.27E2,5.37E2,1.55E2,1.69E2,1.28E2,4.5E2,4.77E2,2.82E2,2.55E2,9.9E1,5.6E1,8.1E1,4.7E1,8.3E1,3.67E2,3.63E2,1.14E2,9.5E1,1.87E2,1.6E2,9.5E1,2.2E1,7.7E1,4.9E1,3.4E1,1.98E2,1.69E2,1.85E2,1.78E2,7.1E1,4.3E1,9.4E1,1E0,1.86E2,1E0,6.3E1,3.2E1,4.7E1,1.51E2,1E0,1.68E2,1.01E2,8.4E1,9.9E1,7.9E1,1.7E1,5.4E1,7E0,3.6E1,4.5E1,4.9E1,1.34E2,5.2E1,9.7E1,4E0,8.2E1,2E0,9.8E1,1E0,2E0,7.7E1,6E0,1.1E1,5.1E1,3E0,6E0,1E0,1E0,3.5E1,2E0,4.3E1,4.6E1,3E0,1E0,1.33E2],"tree_param":{"num_deleted":"0","num_feature":"87","num_nodes":"79","size_leaf_vector":"1"}},{"base_weights":[-1.3335034E-1,-8.282432E0,1.5229871E1,-2.0901232E1,-4.268887E0,9.791871E0,3.3576878E1,-2.325082E1,-1.733182E1,-6.889473E0,-1.9282303E0,6.8922253E0,1.2481867E1,2.8720697E1,1.3378041E0,-7.7360547E-1,-6.5908384E-1,-5.564671E-1,-4.426774E-1,-1.0410064E1,-5.8105288E0,-3.1429656E0,1.2027913E0,4.3818436E0,8.013256E0,3.2776707E-1,1.5246444E1,7.248262E-1,9.334408E-1,-3.4685257E-1,-2.7185878E-1,-6.7779355E0,-5.226571E0,-3.7597034E0,-2.4448323E0,-2.538891E-1,1.8527694E0,4.852446E0,3.3345659E0,7.166417E0,2.5853524E-1,4.175653E-1,5.3636056E-1,-2.0402718E-1,-5.7910077E-2,-5.5620265E0,-1.4260834E-1,-1.2346092E-1,-3.3949888E0,-1.8693106E0,-2.6930354E0,-6.5890133E-1,6.000621E-1,1.2116288E0,2.508739E0,5.1505506E-2,4.941747E0,1.0772729E-1,-5.3800736E-2,2.164915E-1,4.9785346E-2,-1.675243E-1,-4.2625006E-2,-1.0240838E-1,-2.2989005E-2,1.6373863E-2,-5.7694353E-2,-7.700456E-2,-1.0845251E-1,1.2469548E-2,-2.8002603E-2,4.013689E-2,9.123363E-3,4.024548E-2,-2.3277283E-4,2.7785059E-2,8.406296E-2,3.6948852E-2,1.497395E-1],"categories":[],"categories_nodes":[],"categories_segments":[],"categories_sizes":[],"default_left":[0,0,0,0,0,0,0,0,0,0,0,0,0,0,0,0,0,0,0,0,0,0,0,0,0,0,0,0,0,0,0,0,0,0,0,0,0,0,0,0,0,0,0,0,0,0,0,0,0,0,0,0,0,0,0,0,0,0,0,0,0,0,0,0,0,0,0,0,0,0,0,0,0,0,0,0,0,0,0],"id":15,"left_children":[1,3,5,7,9,11,13,15,17,19,21,23,25,27,-1,-1,-1,-1,-1,29,31,33,35,37,39,-1,41,-1,-1,-1,-1,43,45,47,49,51,53,55,57,59,-1,-1,-1,-1,-1,61,-1,-1,63,65,67,69,71,73,75,-1,77,-1,-1,-1,-1,-1,-1,-1,-1,-1,-1,-1,-1,-1,-1,-1,-1,-1,-1,-1,-1,-1,-1],"loss_changes":[2.4238069E5,6.397811E4,6.661758E4,2.1549688E3,5.881385E3,3.9621914E3,6.9045156E3,2.1648438E1,1.1817969E2,1.6602402E3,1.9396921E3,6.7406934E2,9.864961E2,4.3810938E2,0E0,0E0,0E0,0E0,0E0,5.8250977E1,1.6173438E2,1.4882544E2,1.3586427E2,2.3247437E1,2.6814453E1,0E0,7.963867E1,0E0,0E0,0E0,0E0,1.1254883E0,8.781738E0,1.1063232E1,1.996399E1,1.595911E1,3.859668E1,6.3564453E0,4.3246063E1,9.486572E0,0E0,0E0,0E0,0E0,0E0,3.4230957E0,0E0,0E0,2.3288574E0,8.330551E0,4.686096E0,9.53251E0,2.8685594E0,8.246315E0,1.9689362E1,0E0,3.2319336E0,0E0,0E0,0E0,0E0,0E0,0E0,0E0,0E0,0E0,0E0,0E0,0E0,0E0,0E0,0E0,0E0,0E0,0E0,0E0,0E0,0E0,0E0],"parents":[2147483647,0,0,1,1,2,2,3,3,4,4,5,5,6,6,7,7,8,8,9,9,10,10,11,11,12,12,13,13,19,19,20,20,21,21,22,22,23,23,24,24,26,26,31,31,32,32,33,33,34,34,35,35,36,36,37,37,38,38,39,39,45,45,48,48,49,49,50,50,51,51,52,52,53,53,54,54,56,56],"right_children":[2,4,6,8,10,12,14,16,18,20,22,24,26,28,-1,-1,-1,-1,-1,30,32,34,36,38,40,-1,42,-1,-1,-1,-1,44,46,48,50,52,54,56,58,60,-1,-1,-1,-1,-1,62,-1,-1,64,66,68,70,72,74,76,-1,78,-1,-1,-1,-1,-1,-1,-1,-1,-1,-1,-1,-1,-1,-1,-1,-1,-1,-1,-1,-1,-1,-1],"split_conditions":[1.0369E2,7.798E1,1.32E2,6.5E1,9.103E1,1.135E2,1.5491E2,6.17E1,7.19E1,8.549E1,9.61E1,1.079E2,1.189E2,1.44E2,1.3378041E0,-7.7360547E-1,-6.5908384E-1,-5.564671E-1,-4.426774E-1,8.2E1,8.879E1,9.35E1,9.933E1,4.2E1,1.1099E2,3.2776707E-1,1.221E2,7.248262E-1,9.334408E-1,-3.4685257E-1,-2.7185878E-1,1.43E2,9.002E1,9.23E1,9.34743E1,9.84E1,1.016E2,-1.8361089E0,1.37E2,1.14261E2,2.5853524E-1,4.175653E-1,5.3636056E-1,-2.0402718E-1,-5.7910077E-2,9.3E1,-1.4260834E-1,-1.2346092E-1,8.4087E4,-2.1467367E-2,5.8E1,1.0542531E-2,4.99025E3,9.783519E-2,-1.5838066E-1,5.1505506E-2,7.1495E2,1.0772729E-1,-5.3800736E-2,2.164915E-1,4.9785346E-2,-1.675243E-1,-4.2625006E-2,-1.0240838E-1,-2.2989005E-2,1.6373863E-2,-5.7694353E-2,-7.700456E-2,-1.0845251E-1,1.2469548E-2,-2.8002603E-2,4.013689E-2,9.123363E-3,4.024548E-2,-2.3277283E-4,2.7785059E-2,8.406296E-2,3.6948852E-2,1.497395E-1],"split_indices":[2,4,2,2,2,2,2,4,2,4,2,2,2,2,0,0,0,0,0,2,2,2,2,11,2,0,3,0,0,0,0,6,2,2,53,2,4,30,6,22,0,0,0,0,0,4,0,0,5,68,6,47,50,46,74,0,50,0,0,0,0,0,0,0,0,0,0,0,0,0,0,0,0,0,0,0,0,0,0],"split_type":[0,0,0,0,0,0,0,0,0,0,0,0,0,0,0,0,0,0,0,0,0,0,0,0,0,0,0,0,0,0,0,0,0,0,0,0,0,0,0,0,0,0,0,0,0,0,0,0,0,0,0,0,0,0,0,0,0,0,0,0,0,0,0,0,0,0,0,0,0,0,0,0,0,0,0,0,0,0,0],"sum_hessian":[1.934E3,1.264E3,6.7E2,3.04E2,9.6E2,5.18E2,1.52E2,1.8E2,1.24E2,4.52E2,5.08E2,2.51E2,2.67E2,1.08E2,4.4E1,5.4E1,1.26E2,8E1,4.4E1,1.04E2,3.48E2,3.66E2,1.42E2,7.9E1,1.72E2,1.74E2,9.3E1,4.1E1,6.7E1,5.2E1,5.2E1,1.27E2,2.21E2,1.92E2,1.74E2,4.4E1,9.8E1,5.2E1,2.7E1,7.7E1,9.5E1,6.6E1,2.7E1,1.26E2,1E0,1.23E2,9.8E1,9.2E1,1E2,5.5E1,1.19E2,3E1,1.4E1,5.1E1,4.7E1,2E0,5E1,2.6E1,1E0,7.6E1,1E0,1.22E2,1E0,9.9E1,1E0,1E0,5.4E1,1.08E2,1.1E1,6E0,2.4E1,3E0,1.1E1,4.6E1,5E0,8E0,3.9E1,1E0,4.9E1],"tree_param":{"num_deleted":"0","num_feature":"87","num_nodes":"79","size_leaf_vector":"1"}},{"base_weights":[6.1376628E-2,-7.905665E0,1.5548614E1,-2.0354542E1,-3.909983E0,1.0346987E1,3.4297333E1,-6.836956E-1,-1.6983063E1,-6.1757236E0,-1.1059915E0,8.347167E0,1.4837829E1,8.7758815E-1,1.2889662E0,-5.482809E-1,-4.2850134E-1,-9.76233E0,-5.196815E0,-2.480525E0,2.02165E0,8.454254E0,-4.370018E-1,3.808506E-1,5.751143E-1,-3.3760804E-1,-2.5725135E-1,-6.045776E0,-4.3633866E0,-2.947216E0,-1.8039554E0,1.1127739E0,3.0005343E0,6.8631854E0,1.0137061E1,-1.9536227E-1,-5.505029E0,-7.733002E-1,-4.3938956E0,-3.0586073E0,-1.9421437E0,-1.9031962E0,4.4843927E-1,-3.9324444E-2,1.3319534E0,3.0817115E0,-2.926918E-2,4.7365313E0,7.522337E0,8.0775715E-2,3.0496547E-1,-3.5089646E-2,-1.6611019E-1,-4.9243696E-2,1.444519E-2,-1.3374534E-1,-8.477023E-2,-9.323819E-2,-2.900743E-2,-7.215001E-2,-1.383934E-2,-4.840199E-2,-7.715133E-2,-2.6926268E-2,4.037447E-2,5.219215E-3,-2.2116316E-2,3.2940727E-2,7.450694E-2,9.714279E-2,3.325592E-2,1.4760889E-1,-5.2993696E-2,8.432029E-2,2.2712877E-1],"categories":[],"categories_nodes":[],"categories_segments":[],"categories_sizes":[],"default_left":[0,0,0,0,0,0,0,0,0,0,0,0,0,0,0,0,0,0,0,0,0,0,0,0,0,0,0,0,0,0,0,0,0,0,0,0,0,0,0,0,0,0,0,0,0,0,0,0,0,0,0,0,0,0,0,0,0,0,0,0,0,0,0,0,0,0,0,0,0,0,0,0,0,0,0],"id":16,"left_children":[1,3,5,7,9,11,13,-1,15,17,19,21,23,-1,-1,-1,-1,25,27,29,31,33,-1,-1,-1,-1,-1,35,37,39,41,43,45,47,49,-1,51,53,55,57,59,61,63,65,67,69,-1,71,73,-1,-1,-1,-1,-1,-1,-1,-1,-1,-1,-1,-1,-1,-1,-1,-1,-1,-1,-1,-1,-1,-1,-1,-1,-1,-1],"loss_changes":[2.3320184E5,6.1998125E4,6.2255438E4,2.1007734E3,6.0032197E3,4.402508E3,4.8210312E3,0E0,1.9622656E2,1.785498E3,1.8278115E3,9.844297E2,1.1863711E3,0E0,0E0,0E0,0E0,1.000332E2,2.658379E2,8.78291E1,1.1232007E2,8.67541E2,0E0,0E0,0E0,0E0,0E0,1.5084961E1,1.9822266E1,1.3428223E1,2.8347565E1,1.7475998E1,2.3018677E1,2.2089746E2,8.21875E0,0E0,7.386963E0,4.0584764E0,8.572754E0,1.2885864E1,1.2598808E1,1.8711365E1,8.455039E0,1.9145504E0,1.2897911E1,1.5233215E1,0E0,6.3662598E1,1.0334961E1,0E0,0E0,0E0,0E0,0E0,0E0,0E0,0E0,0E0,0E0,0E0,0E0,0E0,0E0,0E0,0E0,0E0,0E0,0E0,0E0,0E0,0E0,0E0,0E0,0E0,0E0],"parents":[2147483647,0,0,1,1,2,2,3,3,4,4,5,5,6,6,8,8,9,9,10,10,11,11,12,12,17,17,18,18,19,19,20,20,21,21,27,27,28,28,29,29,30,30,31,31,32,32,33,33,34,34,36,36,37,37,38,38,39,39,40,40,41,41,42,42,43,43,44,44,45,45,47,47,48,48],"right_children":[2,4,6,8,10,12,14,-1,16,18,20,22,24,-1,-1,-1,-1,26,28,30,32,34,-1,-1,-1,-1,-1,36,38,40,42,44,46,48,50,-1,52,54,56,58,60,62,64,66,68,70,-1,72,74,-1,-1,-1,-1,-1,-1,-1,-1,-1,-1,-1,-1,-1,-1,-1,-1,-1,-1,-1,-1,-1,-1,-1,-1,-1,-1],"split_conditions":[1.04E2,7.71E1,1.3501E2,6.4E1,9.2E1,1.17E2,1.5491E2,-6.836956E-1,7.09E1,8.6E1,9.711E1,1.182E2,1.221E2,8.7758815E-1,1.2889662E0,-5.482809E-1,-4.2850134E-1,8.05E1,8.97E1,9.4E1,1.0131E2,1.12E2,-4.370018E-1,3.808506E-1,5.751143E-1,-3.3760804E-1,-2.5725135E-1,7.58383E1,-1.5219565E-1,7.874016E-3,9.934E1,9.2619E1,1.066E2,1.07E2,-9.848637E-1,-1.9536227E-1,-1.4901756E0,9.01E1,9.54E1,2.2445662E0,-2.9576272E-2,9.438083E1,1.229E3,9.08828E1,1.3518518E0,2.2955E3,-2.926918E-2,4.6E1,-9.114223E5,8.0775715E-2,3.0496547E-1,-3.5089646E-2,-1.6611019E-1,-4.9243696E-2,1.444519E-2,-1.3374534E-1,-8.477023E-2,-9.323819E-2,-2.900743E-2,-7.215001E-2,-1.383934E-2,-4.840199E-2,-7.715133E-2,-2.6926268E-2,4.037447E-2,5.219215E-3,-2.2116316E-2,3.2940727E-2,7.450694E-2,9.714279E-2,3.325592E-2,1.4760889E-1,-5.2993696E-2,8.432029E-2,2.2712877E-1],"split_indices":[3,3,3,3,3,1,61,0,3,1,3,3,3,0,0,0,0,1,3,3,1,3,0,0,0,0,0,25,81,68,59,24,1,3,31,0,31,1,65,86,82,53,5,24,86,52,0,11,55,0,0,0,0,0,0,0,0,0,0,0,0,0,0,0,0,0,0,0,0,0,0,0,0,0,0],"split_type":[0,0,0,0,0,0,0,0,0,0,0,0,0,0,0,0,0,0,0,0,0,0,0,0,0,0,0,0,0,0,0,0,0,0,0,0,0,0,0,0,0,0,0,0,0,0,0,0,0,0,0,0,0,0,0,0,0,0,0,0,0,0,0,0,0,0,0,0,0,0,0,0,0,0,0],"sum_hessian":[1.888E3,1.247E3,6.41E2,3.02E2,9.45E2,5.03E2,1.38E2,1.72E2,1.3E2,5.22E2,4.23E2,3.5E2,1.53E2,9E1,4.8E1,8.4E1,4.6E1,1.1E2,4.12E2,2.94E2,1.29E2,3.49E2,1E0,1.05E2,4.8E1,4.5E1,6.5E1,2.01E2,2.11E2,1.72E2,1.22E2,6.8E1,6.1E1,1.82E2,1.67E2,1.02E2,9.9E1,2E0,2.09E2,1.53E2,1.9E1,1.17E2,5E0,1.1E1,5.7E1,6E1,1E0,4.5E1,1.37E2,1E0,1.66E2,1E0,9.8E1,1E0,1E0,1.99E2,1E1,1.49E2,4E0,1.4E1,5E0,8.4E1,3.3E1,2E0,3E0,9E0,2E0,4.9E1,8E0,5.5E1,5E0,4.4E1,1E0,2E0,1.35E2],"tree_param":{"num_deleted":"0","num_feature":"87","num_nodes":"75","size_leaf_vector":"1"}},{"base_weights":[2.0797068E-1,-7.4352784E0,1.5101268E1,-1.9091803E1,-3.5086615E0,1.0005367E1,3.28135E1,-2.114657E1,-1.3719919E1,-4.6522455E0,1.5685077E0,8.300237E0,1.4896055E1,8.572371E-1,1.2698029E0,-7.336109E-1,-5.981961E-1,-4.553663E-1,-3.4550247E-1,-7.2931256E0,-3.6398525E0,5.1335627E-1,2.8470466E0,8.399691E0,-4.3044674E-1,3.8803726E-1,5.7121783E-1,-9.304728E0,-6.313329E0,-4.522151E0,-2.6849844E0,-7.585602E-1,9.96619E-1,-3.0266572E-2,2.9617932E0,6.627572E0,1.0008923E1,-2.808893E-1,-8.190399E-2,-7.0401325E0,-1.7607066E-1,-5.0196095E0,-4.0959206E0,-3.0014734E0,-1.9884046E0,-1.4114227E0,-5.1514763E-2,1.1390545E0,-9.5339455E-2,3.0476828E0,-5.219879E-2,5.009179E0,7.3559127E0,2.77636E-1,3.3291E-1,-5.4549865E-2,-2.1328773E-1,-1.5114442E-1,-3.9979476E-2,-4.557289E-2,-1.2356772E-1,-9.904403E-2,-8.257221E-2,-4.4600252E-2,-6.9402486E-2,1.3295631E-2,-4.7645293E-2,2.5376769E-2,-1.4852004E-2,4.035073E-2,2.406401E-2,-1.6024612E-2,1.0876281E-2,7.253687E-2,1.0988365E-1,1.2865385E-1,1.7276984E-1,4.5631714E-2,2.217469E-1],"categories":[],"categories_nodes":[],"categories_segments":[],"categories_sizes":[],"default_left":[0,0,0,0,0,0,0,0,0,0,0,0,0,0,0,0,0,0,0,0,0,0,0,0,0,0,0,0,0,0,0,0,0,0,0,0,0,0,0,0,0,0,0,0,0,0,0,0,0,0,0,0,0,0,0,0,0,0,0,0,0,0,0,0,0,0,0,0,0,0,0,0,0,0,0,0,0,0,0],"id":17,"left_children":[1,3,5,7,9,11,13,15,17,19,21,23,25,-1,-1,-1,-1,-1,-1,27,29,31,33,35,-1,-1,-1,37,39,41,43,45,47,-1,49,51,53,-1,-1,55,-1,57,59,61,63,65,67,69,71,73,-1,75,77,-1,-1,-1,-1,-1,-1,-1,-1,-1,-1,-1,-1,-1,-1,-1,-1,-1,-1,-1,-1,-1,-1,-1,-1,-1,-1],"loss_changes":[2.1548467E5,5.7192164E4,5.761847E4,3.1868281E3,5.4476777E3,4.0459883E3,4.5571562E3,4.1429688E2,1.14478516E2,2.0187637E3,2.3192447E2,9.606914E2,7.942832E2,0E0,0E0,0E0,0E0,0E0,0E0,3.571289E2,4.554331E2,5.976429E1,3.7499573E1,9.945156E2,0E0,0E0,0E0,9.667969E-2,5.5058594E0,4.029297E1,5.3335693E1,1.2390587E1,1.0995964E1,0E0,3.599402E1,1.7532715E2,5.5722656E1,0E0,0E0,5.2072754E0,0E0,2.034668E0,3.2270508E0,4.586426E0,1.0747589E1,5.293186E0,5.991428E0,3.2236328E0,2.001981E0,2.0197693E1,0E0,7.1866455E0,1.4135254E1,0E0,0E0,0E0,0E0,0E0,0E0,0E0,0E0,0E0,0E0,0E0,0E0,0E0,0E0,0E0,0E0,0E0,0E0,0E0,0E0,0E0,0E0,0E0,0E0,0E0,0E0],"parents":[2147483647,0,0,1,1,2,2,3,3,4,4,5,5,6,6,7,7,8,8,9,9,10,10,11,11,12,12,19,19,20,20,21,21,22,22,23,23,27,27,28,28,29,29,30,30,31,31,32,32,34,34,35,35,36,36,39,39,41,41,42,42,43,43,44,44,45,45,46,46,47,47,48,48,49,49,51,51,52,52],"right_children":[2,4,6,8,10,12,14,16,18,20,22,24,26,-1,-1,-1,-1,-1,-1,28,30,32,34,36,-1,-1,-1,38,40,42,44,46,48,-1,50,52,54,-1,-1,56,-1,58,60,62,64,66,68,70,72,74,-1,76,78,-1,-1,-1,-1,-1,-1,-1,-1,-1,-1,-1,-1,-1,-1,-1,-1,-1,-1,-1,-1,-1,-1,-1,-1,-1,-1],"split_conditions":[1.0506E2,7.999E1,1.37E2,6.956E1,9.61E1,1.18E2,1.601E2,6.17E1,7.599E1,8.899E1,1.016E2,1.202E2,1.261E2,8.572371E-1,1.2698029E0,-7.336109E-1,-5.981961E-1,-4.553663E-1,-3.4550247E-1,8.441E1,9.23E1,9.84E1,1.7118622E1,1.123E2,-4.3044674E-1,3.8803726E-1,5.7121783E-1,3.01E2,8.74E1,9.052E1,9.449E1,1.356E3,1.2609184E0,-3.0266572E-2,3.33E2,1.09E2,1.1525E2,-2.808893E-1,-8.190399E-2,4.3E1,-1.7607066E-1,9.3E1,3.028E2,9.31E1,9.34743E1,2E0,1.8328242E-2,4.5669E3,4.375E3,2.2132516E-1,-5.219879E-2,8.107378E-4,-1.0537583E0,2.77636E-1,3.3291E-1,-5.4549865E-2,-2.1328773E-1,-1.5114442E-1,-3.9979476E-2,-4.557289E-2,-1.2356772E-1,-9.904403E-2,-8.257221E-2,-4.4600252E-2,-6.9402486E-2,1.3295631E-2,-4.7645293E-2,2.5376769E-2,-1.4852004E-2,4.035073E-2,2.406401E-2,-1.6024612E-2,1.0876281E-2,7.253687E-2,1.0988365E-1,1.2865385E-1,1.7276984E-1,4.5631714E-2,2.217469E-1],"split_indices":[2,4,2,3,2,1,3,4,2,2,4,2,2,0,0,0,0,0,0,1,2,2,56,2,0,0,0,12,2,2,2,5,77,0,12,2,2,0,0,12,0,1,48,2,53,9,44,49,5,77,0,58,31,0,0,0,0,0,0,0,0,0,0,0,0,0,0,0,0,0,0,0,0,0,0,0,0,0,0],"split_type":[0,0,0,0,0,0,0,0,0,0,0,0,0,0,0,0,0,0,0,0,0,0,0,0,0,0,0,0,0,0,0,0,0,0,0,0,0,0,0,0,0,0,0,0,0,0,0,0,0,0,0,0,0,0,0,0,0,0,0,0,0,0,0,0,0,0,0,0,0,0,0,0,0,0,0,0,0,0,0],"sum_hessian":[1.891E3,1.25E3,6.41E2,3.14E2,9.36E2,4.99E2,1.42E2,2.25E2,8.9E1,7.64E2,1.72E2,3.72E2,1.27E2,1.01E2,4.1E1,5.5E1,1.7E2,5E1,3.9E1,2.1E2,5.54E2,9.5E1,7.7E1,3.71E2,1E0,8.9E1,3.8E1,6.6E1,1.44E2,2.86E2,2.68E2,2.6E1,6.9E1,2E0,7.5E1,1.79E2,1.92E2,6.5E1,1E0,4.9E1,9.5E1,1.27E2,1.59E2,1.82E2,8.6E1,1.3E1,1.3E1,6.1E1,8E0,7.4E1,1E0,5.8E1,1.21E2,1.19E2,7.3E1,1E0,4.8E1,1.26E2,1E0,2E0,1.57E2,7.7E1,1.05E2,3.6E1,5E1,1E0,1.2E1,4E0,9E0,3.6E1,2.5E1,4E0,4E0,3.9E1,3.5E1,3.3E1,2.5E1,1E0,1.2E2],"tree_param":{"num_deleted":"0","num_feature":"87","num_nodes":"79","size_leaf_vector":"1"}},{"base_weights":[9.737167E-2,-7.681987E0,1.3919685E1,-1.90417E1,-3.9648888E0,9.307891E0,3.2299416E1,-2.1503563E1,-1.5960187E1,-6.498271E0,-1.9705701E0,7.6226335E0,1.4224951E1,8.387073E-1,1.2467848E0,-7.1341187E-1,-6.034694E-1,-5.17638E-1,-4.1270033E-1,-9.604063E0,-5.414387E0,-2.909252E0,1.1078396E0,4.1484685E0,8.574876E0,1.4555107E1,-5.7038627E0,-3.2037783E-1,-2.4831907E-1,-6.0893426E0,-4.7851715E0,-3.625919E0,-2.237172E0,1.1986228E-2,1.5140325E0,4.2326484E0,-5.1415786E-2,7.4351716E0,2.917568E-1,3.8036585E-1,5.562536E-1,1.6731617E-1,-4.2398998E-1,-1.8364555E-1,-7.6418914E-2,-1.439576E-1,-3.9379805E-2,-3.869299E0,-3.1888278E0,-2.399738E0,-1.2315605E0,-4.40094E-1,6.892504E-1,1.9029136E0,8.886545E-1,3.3656507E0,4.675548E0,8.942062E-2,2.2413301E-1,-1.1657724E-1,-2.889038E-2,1.5714226E-2,-9.7405836E-2,-7.326456E-2,-2.3305321E-2,-2.4882888E-3,-4.6893537E-2,4.2349654E-3,-3.692375E-2,-1.9980162E-2,2.9118804E-2,9.717995E-3,6.280612E-2,2.8415047E-2,-2.121582E-3,1.0231059E-1,2.8356971E-2,3.225071E-2,1.4161938E-1],"categories":[],"categories_nodes":[],"categories_segments":[],"categories_sizes":[],"default_left":[0,0,0,0,0,0,0,0,0,0,0,0,0,0,0,0,0,0,0,0,0,0,0,0,0,0,0,0,0,0,0,0,0,0,0,0,0,0,0,0,0,0,0,0,0,0,0,0,0,0,0,0,0,0,0,0,0,0,0,0,0,0,0,0,0,0,0,0,0,0,0,0,0,0,0,0,0,0,0],"id":18,"left_children":[1,3,5,7,9,11,13,15,17,19,21,23,25,-1,-1,-1,-1,-1,-1,27,29,31,33,35,37,39,41,-1,-1,43,45,47,49,51,53,55,-1,57,-1,-1,-1,-1,-1,-1,-1,-1,-1,59,61,63,65,67,69,71,73,75,77,-1,-1,-1,-1,-1,-1,-1,-1,-1,-1,-1,-1,-1,-1,-1,-1,-1,-1,-1,-1,-1,-1],"loss_changes":[2.0602445E5,5.1692562E4,5.8186203E4,1.9478516E3,4.6606396E3,4.474008E3,4.3873594E3,4.3054688E1,1.562461E2,1.3180918E3,1.5029501E3,1.334043E3,1.004166E3,0E0,0E0,0E0,0E0,0E0,0E0,5.9964844E1,9.996777E1,1.8358789E2,5.4287445E1,5.2161865E1,3.524746E2,7.9714844E2,3.6409164E2,0E0,0E0,7.0410156E-1,1.2475586E0,7.9799805E0,3.1047974E1,1.0713378E1,1.9953552E1,1.882312E1,0E0,4.4589844E0,0E0,0E0,0E0,0E0,0E0,0E0,0E0,0E0,0E0,1.9537354E0,1.7644592E1,1.0355225E1,1.1676163E1,9.825357E0,5.985161E0,1.5575378E1,2.0878983E0,4.552002E-1,4.180664E0,0E0,0E0,0E0,0E0,0E0,0E0,0E0,0E0,0E0,0E0,0E0,0E0,0E0,0E0,0E0,0E0,0E0,0E0,0E0,0E0,0E0,0E0],"parents":[2147483647,0,0,1,1,2,2,3,3,4,4,5,5,6,6,7,7,8,8,9,9,10,10,11,11,12,12,19,19,20,20,21,21,22,22,23,23,24,24,25,25,26,26,29,29,30,30,31,31,32,32,33,33,34,34,35,35,37,37,47,47,48,48,49,49,50,50,51,51,52,52,53,53,54,54,55,55,56,56],"right_children":[2,4,6,8,10,12,14,16,18,20,22,24,26,-1,-1,-1,-1,-1,-1,28,30,32,34,36,38,40,42,-1,-1,44,46,48,50,52,54,56,-1,58,-1,-1,-1,-1,-1,-1,-1,-1,-1,60,62,64,66,68,70,72,74,76,78,-1,-1,-1,-1,-1,-1,-1,-1,-1,-1,-1,-1,-1,-1,-1,-1,-1,-1,-1,-1,-1,-1],"split_conditions":[1.0322E2,7.71E1,1.37E2,6.4E1,9.091E1,1.18E2,1.62E2,6.13E1,7.062E1,8.5E1,9.692E1,1.0821E2,3.5738096E0,8.387073E-1,1.2467848E0,-7.1341187E-1,-6.034694E-1,-5.17638E-1,-4.1270033E-1,7.955542E1,8.9E1,9.31E1,9.933E1,3.33E2,1.135E2,1.2513E2,1.181E2,-3.2037783E-1,-2.4831907E-1,1.31E2,9.38225E1,9.23E1,9.598E1,9.344E1,6.41205E3,1.047E2,-5.1415786E-2,-1.0537583E0,2.917568E-1,3.8036585E-1,5.562536E-1,1.6731617E-1,-4.2398998E-1,-1.8364555E-1,-7.6418914E-2,-1.439576E-1,-3.9379805E-2,9.6E1,-1.5219565E-1,3.808166E-2,8.094E2,3.2E1,-1.3392857E-2,-9.1923404E-1,1.0087267E2,8.676845E1,5.45E2,8.942062E-2,2.2413301E-1,-1.1657724E-1,-2.889038E-2,1.5714226E-2,-9.7405836E-2,-7.326456E-2,-2.3305321E-2,-2.4882888E-3,-4.6893537E-2,4.2349654E-3,-3.692375E-2,-1.9980162E-2,2.9118804E-2,9.717995E-3,6.280612E-2,2.8415047E-2,-2.121582E-3,1.0231059E-1,2.8356971E-2,3.225071E-2,1.4161938E-1],"split_indices":[2,3,2,3,2,2,2,2,2,3,2,2,29,0,0,0,0,0,0,27,2,2,2,12,2,3,2,0,0,6,23,2,2,67,50,2,0,31,0,0,0,0,0,0,0,0,0,61,81,44,49,12,64,71,27,28,49,0,0,0,0,0,0,0,0,0,0,0,0,0,0,0,0,0,0,0,0,0,0],"split_type":[0,0,0,0,0,0,0,0,0,0,0,0,0,0,0,0,0,0,0,0,0,0,0,0,0,0,0,0,0,0,0,0,0,0,0,0,0,0,0,0,0,0,0,0,0,0,0,0,0,0,0,0,0,0,0,0,0,0,0,0,0,0,0,0,0,0,0,0,0,0,0,0,0,0,0,0,0,0,0],"sum_hessian":[1.914E3,1.225E3,6.89E2,3.01E2,9.24E2,5.52E2,1.37E2,1.64E2,1.37E2,4.06E2,5.18E2,4.13E2,1.39E2,9.6E1,4.1E1,5.6E1,1.08E2,8.2E1,5.5E1,1.03E2,3.03E2,3.97E2,1.21E2,9E1,3.23E2,1.37E2,2E0,5.3E1,5E1,1.42E2,1.61E2,1.9E2,2.07E2,3.3E1,8.8E1,8.9E1,1E0,1.66E2,1.57E2,9.6E1,4.1E1,1E0,1E0,1.4E2,2E0,1.6E2,1E0,1.17E2,7.3E1,1.77E2,3E1,2E1,1.3E1,5.3E1,3.5E1,3.3E1,5.6E1,2E0,1.64E2,1.16E2,1E0,1E0,7.2E1,1.72E2,5E0,7E0,2.3E1,1.2E1,8E0,2E0,1.1E1,6E0,4.7E1,3.3E1,2E0,3.2E1,1E0,1E0,5.5E1],"tree_param":{"num_deleted":"0","num_feature":"87","num_nodes":"79","size_leaf_vector":"1"}},{"base_weights":[-7.755996E-2,-7.450636E0,1.323324E1,-1.8595823E1,-3.8756673E0,8.550848E0,2.9943493E1,-2.078687E1,-1.5499249E1,-6.022469E0,-1.7978292E0,6.170184E0,1.1046006E1,2.5763367E1,1.2175726E0,-6.9149095E-1,-5.863644E-1,-5.037092E-1,-4.0139532E-1,-9.236569E0,-5.1052914E0,-2.6627104E0,1.2217379E0,6.294771E0,-4.1763014E-1,2.8798532E-1,1.3639469E1,6.3300174E-1,8.3600193E-1,-3.107019E-1,-2.4395306E-1,-5.8747935E0,-4.544997E0,-3.2726398E0,-2.0613277E0,7.454454E-1,1.8759353E0,4.118169E0,7.5489492E0,3.7070748E-1,4.7733453E-1,-1.7752238E-1,-5.5697706E-2,-1.4722104E-1,-4.1808715E0,-3.441029E0,-2.81289E0,-2.222335E0,-1.1742156E0,9.4590956E-1,-5.6244063E-1,2.0376143E0,-3.0386506E-2,3.0588362E0,4.7253933E0,7.2894926E0,3.120275E-1,-3.3720016E-2,-1.2594855E-1,-1.0369209E-1,-2.2327652E-2,-8.753414E-2,-3.603497E-2,-6.4441234E-2,-1.1239322E-1,-5.3203322E-2,2.2953935E-3,3.3244643E-2,5.885613E-3,-2.1111565E-2,-6.2973974E-3,3.968273E-2,7.4124195E-2,9.671519E-2,-5.064457E-2,1.4308701E-1,2.979927E-2,4.360588E-2,2.1950647E-1],"categories":[],"categories_nodes":[],"categories_segments":[],"categories_sizes":[],"default_left":[0,0,0,0,0,0,0,0,0,0,0,0,0,0,0,0,0,0,0,0,0,0,0,0,0,0,0,0,0,0,0,0,0,0,0,0,0,0,0,0,0,0,0,0,0,0,0,0,0,0,0,0,0,0,0,0,0,0,0,0,0,0,0,0,0,0,0,0,0,0,0,0,0,0,0,0,0,0,0],"id":19,"left_children":[1,3,5,7,9,11,13,15,17,19,21,23,25,27,-1,-1,-1,-1,-1,29,31,33,35,37,-1,-1,39,-1,-1,-1,-1,41,43,45,47,49,51,53,55,-1,-1,-1,-1,-1,57,59,61,63,65,67,69,71,-1,73,75,77,-1,-1,-1,-1,-1,-1,-1,-1,-1,-1,-1,-1,-1,-1,-1,-1,-1,-1,-1,-1,-1,-1,-1],"loss_changes":[1.8666567E5,4.8696617E4,5.279336E4,1.6928828E3,4.128708E3,3.0860586E3,5.5383125E3,2.9828125E1,1.2285547E2,1.2970879E3,1.2385242E3,7.7347754E2,8.369375E2,4.8115625E2,0E0,0E0,0E0,0E0,0E0,3.9536133E1,1.2721875E2,1.2823657E2,3.1630066E1,7.1416016E2,0E0,0E0,6.560742E1,0E0,0E0,0E0,0E0,1.4187988E1,7.3242188E0,4.333374E0,2.4242859E1,1.704963E1,2.2614578E1,5.1157715E1,5.145703E1,0E0,0E0,0E0,0E0,0E0,1.2429199E0,2.734375E0,5.6262817E0,9.843079E0,2.3369339E1,6.4727325E0,3.0051994E-1,9.7378845E0,0E0,3.6773132E1,5.6484375E0,1.5100586E1,0E0,0E0,0E0,0E0,0E0,0E0,0E0,0E0,0E0,0E0,0E0,0E0,0E0,0E0,0E0,0E0,0E0,0E0,0E0,0E0,0E0,0E0,0E0],"parents":[2147483647,0,0,1,1,2,2,3,3,4,4,5,5,6,6,7,7,8,8,9,9,10,10,11,11,12,12,13,13,19,19,20,20,21,21,22,22,23,23,26,26,31,31,32,32,33,33,34,34,35,35,36,36,37,37,38,38,44,44,45,45,46,46,47,47,48,48,49,49,50,50,51,51,53,53,54,54,55,55],"right_children":[2,4,6,8,10,12,14,16,18,20,22,24,26,28,-1,-1,-1,-1,-1,30,32,34,36,38,-1,-1,40,-1,-1,-1,-1,42,44,46,48,50,52,54,56,-1,-1,-1,-1,-1,58,60,62,64,66,68,70,72,-1,74,76,78,-1,-1,-1,-1,-1,-1,-1,-1,-1,-1,-1,-1,-1,-1,-1,-1,-1,-1,-1,-1,-1,-1,-1],"split_conditions":[1.024E2,7.71E1,1.32E2,6.4E1,9.1E1,1.1385E2,1.601E2,6.15E1,7.1E1,8.5E1,9.61E1,1.182E2,1.2E2,1.42E2,1.2175726E0,-6.9149095E-1,-5.863644E-1,-5.037092E-1,-4.0139532E-1,8.05E1,8.85E1,9.4E1,1.012E2,1.1E2,-4.1763014E-1,2.8798532E-1,1.25E2,6.3300174E-1,8.3600193E-1,-3.107019E-1,-2.4395306E-1,1.02592766E2,9E1,9.335E1,1E0,4.1758243E-2,1.0053614E2,1.06E2,1.155E2,3.7070748E-1,4.7733453E-1,-1.7752238E-1,-5.5697706E-2,-1.4722104E-1,-2.721999E-2,1.4127078E6,1.9342203E-2,1E2,9.5192E1,9.783519E-2,1.801E3,-1.732266E-1,-3.0386506E-2,1.37E2,3.2685714E0,-1.0537583E0,3.120275E-1,-3.3720016E-2,-1.2594855E-1,-1.0369209E-1,-2.2327652E-2,-8.753414E-2,-3.603497E-2,-6.4441234E-2,-1.1239322E-1,-5.3203322E-2,2.2953935E-3,3.3244643E-2,5.885613E-3,-2.1111565E-2,-6.2973974E-3,3.968273E-2,7.4124195E-2,9.671519E-2,-5.064457E-2,1.4308701E-1,2.979927E-2,4.360588E-2,2.1950647E-1],"split_indices":[3,3,57,3,3,1,3,1,4,3,3,3,4,3,0,0,0,0,0,1,3,4,4,4,0,0,4,0,0,0,0,32,3,4,20,38,33,4,4,0,0,0,0,0,64,55,38,6,21,46,5,31,0,6,35,31,0,0,0,0,0,0,0,0,0,0,0,0,0,0,0,0,0,0,0,0,0,0,0],"split_type":[0,0,0,0,0,0,0,0,0,0,0,0,0,0,0,0,0,0,0,0,0,0,0,0,0,0,0,0,0,0,0,0,0,0,0,0,0,0,0,0,0,0,0,0,0,0,0,0,0,0,0,0,0,0,0,0,0,0,0,0,0,0,0,0,0,0,0,0,0,0,0,0,0,0,0,0,0,0,0],"sum_hessian":[1.9E3,1.223E3,6.77E2,2.96E2,9.27E2,5.3E2,1.47E2,1.7E2,1.26E2,4.55E2,4.72E2,2.73E2,2.57E2,1.08E2,3.9E1,5.4E1,1.16E2,7.4E1,5.2E1,9.9E1,3.56E2,3.67E2,1.05E2,2.72E2,1E0,1.68E2,8.9E1,3.7E1,7.1E1,4.5E1,5.4E1,1.46E2,2.1E2,1.8E2,1.87E2,6.2E1,4.3E1,1.01E2,1.71E2,6.1E1,2.8E1,1.44E2,2E0,9.9E1,1.11E2,1.27E2,5.3E1,1.57E2,3E1,5.4E1,8E0,4.1E1,2E0,3.9E1,6.2E1,1.6E2,1.1E1,1E0,1.1E2,1.26E2,1E0,4.9E1,4E0,1.52E2,5E0,2E1,1E1,4.4E1,1E1,5E0,3E0,1.7E1,2.4E1,3.8E1,1E0,6.1E1,1E0,1E0,1.59E2],"tree_param":{"num_deleted":"0","num_feature":"87","num_nodes":"79","size_leaf_vector":"1"}},{"base_weights":[8.172232E-2,-7.077167E0,1.3145269E1,-1.7968813E1,-3.6338747E0,8.740853E0,3.0383184E1,-1.9907354E1,-1.4677183E1,-5.865144E0,-1.634921E0,7.186356E0,1.3671925E1,7.6778895E-1,1.1444051E0,-6.729017E-1,-5.6444883E-1,-4.5871216E-1,-3.2322118E-1,-9.071977E0,-5.0019207E0,-2.5182781E0,1.5073696E0,4.895707E0,8.504024E0,3.5178658E-1,5.0254625E-1,-2.958634E-1,-2.3276219E-1,-5.7661185E0,-4.4108963E0,-3.2696018E0,-2.0308473E0,1.9858594E0,7.3362696E-1,3.7220929E0,5.9776387E0,2.2607855E-1,2.792289E-1,-5.4583814E-2,-5.806611E0,-1.4130957E-1,-4.055943E0,-3.3161135E0,-1.825773E0,-2.3534431E0,-1.5013255E0,2.4933245E0,1.5196152E0,9.517222E-1,1.9829996E-1,3.8148265E0,-4.9884908E-2,1.8052693E-1,4.2951737E-2,-1.9761467E-1,-1.6419064E-1,-3.3214185E-2,-1.2223079E-1,-1.00581475E-1,-4.8181687E-2,-8.5336305E-3,-6.105751E-2,-7.1634516E-2,4.049286E-2,1.1543838E-2,-4.7682855E-2,3.59007E-2,8.676893E-2,-2.5095062E-2,4.8177063E-2,2.3918757E-2,3.7218906E-2,1.0359358E-2,-7.66674E-3,4.1170232E-2,1.168921E-1],"categories":[],"categories_nodes":[],"categories_segments":[],"categories_sizes":[],"default_left":[0,0,0,0,0,0,0,0,0,0,0,0,0,0,0,0,0,0,0,0,0,0,0,0,0,0,0,0,0,0,0,0,0,0,0,0,0,0,0,0,0,0,0,0,0,0,0,0,0,0,0,0,0,0,0,0,0,0,0,0,0,0,0,0,0,0,0,0,0,0,0,0,0,0,0,0,0],"id":20,"left_children":[1,3,5,7,9,11,13,15,17,19,21,23,25,-1,-1,-1,-1,-1,-1,27,29,31,33,35,37,-1,-1,-1,-1,39,41,43,45,47,49,51,53,-1,-1,-1,55,-1,57,59,61,63,65,67,69,71,73,75,-1,-1,-1,-1,-1,-1,-1,-1,-1,-1,-1,-1,-1,-1,-1,-1,-1,-1,-1,-1,-1,-1,-1,-1,-1],"loss_changes":[1.8096164E5,4.681361E4,5.174164E4,1.6221016E3,4.2320645E3,4.0946914E3,4.1930625E3,9.055469E1,1.1051172E2,1.1975488E3,1.4000057E3,1.2200215E3,5.825293E2,0E0,0E0,0E0,0E0,0E0,0E0,2.1020508E1,1.3535742E2,1.3728369E2,3.9638412E1,1.7456494E2,1.3523438E2,0E0,0E0,0E0,0E0,1.3726074E1,2.6826172E0,4.220093E0,3.7634827E1,1.230011E1,4.948374E0,4.4794434E1,5.7229004E0,0E0,0E0,0E0,3.0048828E0,0E0,9.7424316E-1,3.8165283E0,1.6811657E0,2.20625E1,1.6231857E1,1.2575821E1,9.068825E0,3.9395523E-1,1.0223632E0,9.795898E0,0E0,0E0,0E0,0E0,0E0,0E0,0E0,0E0,0E0,0E0,0E0,0E0,0E0,0E0,0E0,0E0,0E0,0E0,0E0,0E0,0E0,0E0,0E0,0E0,0E0],"parents":[2147483647,0,0,1,1,2,2,3,3,4,4,5,5,6,6,7,7,8,8,9,9,10,10,11,11,12,12,19,19,20,20,21,21,22,22,23,23,24,24,29,29,30,30,31,31,32,32,33,33,34,34,35,35,36,36,40,40,42,42,43,43,44,44,45,45,46,46,47,47,48,48,49,49,50,50,51,51],"right_children":[2,4,6,8,10,12,14,16,18,20,22,24,26,-1,-1,-1,-1,-1,-1,28,30,32,34,36,38,-1,-1,-1,-1,40,42,44,46,48,50,52,54,-1,-1,-1,56,-1,58,60,62,64,66,68,70,72,74,76,-1,-1,-1,-1,-1,-1,-1,-1,-1,-1,-1,-1,-1,-1,-1,-1,-1,-1,-1,-1,-1,-1,-1,-1,-1],"split_conditions":[1.0301E2,7.71E1,1.3501E2,6.64E1,9.09E1,1.17E2,1.5491E2,6.1E1,7.5E1,8.42E1,9.711E1,1.1002E2,1.221E2,7.6778895E-1,1.1444051E0,-6.729017E-1,-5.6444883E-1,-4.5871216E-1,-3.2322118E-1,7.955542E1,8.85E1,9.255E1,6.52325E3,1.065E2,1.135E2,3.5178658E-1,5.0254625E-1,-2.958634E-1,-2.3276219E-1,-9.566532E-2,9E1,8.3714E3,1.4876716E-2,-6.67E1,1.8150269E-3,3.33E2,1.15042E2,2.2607855E-1,2.792289E-1,-5.4583814E-2,8.63E1,-1.4130957E-1,-2.721999E-2,8.8017006E1,4E0,1.04714E2,7.75695E1,1.011E2,9.2718E1,8.873874E-2,7.311129E-3,-2.107105E0,-4.9884908E-2,1.8052693E-1,4.2951737E-2,-1.9761467E-1,-1.6419064E-1,-3.3214185E-2,-1.2223079E-1,-1.00581475E-1,-4.8181687E-2,-8.5336305E-3,-6.105751E-2,-7.1634516E-2,4.049286E-2,1.1543838E-2,-4.7682855E-2,3.59007E-2,8.676893E-2,-2.5095062E-2,4.8177063E-2,2.3918757E-2,3.7218906E-2,1.0359358E-2,-7.66674E-3,4.1170232E-2,1.168921E-1],"split_indices":[3,3,3,3,3,3,61,3,1,3,3,3,3,0,0,0,0,0,0,27,3,3,50,3,3,0,0,0,0,39,3,49,45,52,75,12,23,0,0,0,3,0,64,56,9,21,25,1,21,81,64,30,0,0,0,0,0,0,0,0,0,0,0,0,0,0,0,0,0,0,0,0,0,0,0,0,0],"split_type":[0,0,0,0,0,0,0,0,0,0,0,0,0,0,0,0,0,0,0,0,0,0,0,0,0,0,0,0,0,0,0,0,0,0,0,0,0,0,0,0,0,0,0,0,0,0,0,0,0,0,0,0,0,0,0,0,0,0,0,0,0,0,0,0,0,0,0,0,0,0,0,0,0,0,0,0,0],"sum_hessian":[1.933E3,1.249E3,6.84E2,2.99E2,9.5E2,5.46E2,1.38E2,1.85E2,1.14E2,4.48E2,5.02E2,4.17E2,1.29E2,8.8E1,5E1,5E1,1.35E2,9.6E1,1.8E1,9.3E1,3.55E2,3.92E2,1.1E2,1.54E2,2.63E2,8.2E1,4.7E1,5.4E1,3.9E1,1.51E2,2.04E2,1.52E2,2.4E2,6.7E1,4.3E1,7.6E1,7.8E1,1.24E2,1.39E2,2E0,1.49E2,1.04E2,1E2,1.46E2,6E0,1.47E2,9.3E1,3E1,3.7E1,3E1,1.3E1,7.5E1,1E0,7.7E1,1E0,3.9E1,1.1E2,1E0,9.9E1,1.42E2,4E0,1E0,5E0,1.46E2,1E0,4E0,8.9E1,8E0,2.2E1,1E0,3.6E1,2.2E1,8E0,1E1,3E0,3E0,7.2E1],"tree_param":{"num_deleted":"0","num_feature":"87","num_nodes":"77","size_leaf_vector":"1"}},{"base_weights":[2.0035309E-1,-6.591655E0,1.3409042E1,-1.6958288E1,-3.05982E0,8.882534E0,2.9458763E1,-1.9184504E1,-1.2946996E1,-4.185269E0,1.2461287E0,7.5672917E0,1.3596442E1,2.5843885E1,1.1845529E0,-6.5248287E-1,-5.4223603E-1,-4.2977896E-1,-3.1431517E-1,-6.119228E0,-3.0932477E0,-5.2053225E-1,1.9870414E0,7.65565E0,-4.166424E-1,3.508411E-1,1.6758717E1,6.9352514E-1,8.828262E-1,-2.4743013E-1,-5.4315968E0,-3.8578036E0,-2.3562965E0,-9.731417E-1,1.3394226E-1,1.4359984E0,3.0351255E0,5.937097E0,9.020736E0,5.084979E-1,1.4238922E-1,-6.312315E0,-1.526251E-1,-4.167659E0,-3.5040066E0,-2.6035159E0,-1.7398145E0,-1.8919417E0,-4.7319412E-1,6.228098E-1,-5.448719E-1,1.8138773E0,8.413347E-1,3.2009459E0,4.523201E-1,4.4108396E0,6.573364E0,2.468536E-1,3.0068132E-1,-5.093124E-2,-1.9102053E-1,-1.2549108E-1,-3.5066415E-2,-3.8637083E-2,-1.0594764E-1,1.8542519E-2,-7.8767486E-2,-5.4915812E-2,-1.2199555E-2,-6.8935275E-2,2.7512359E-3,7.570745E-3,-3.0284138E-2,3.545368E-2,6.754234E-3,-3.125227E-2,-6.8498324E-3,5.738082E-2,-1.708351E-2,2.6870765E-2,-2.7420043E-3,4.7414243E-2,9.970443E-2,5.085052E-2,-4.913658E-2,1.05144314E-1,1.4808324E-1,4.2307433E-2,1.9810885E-1],"categories":[],"categories_nodes":[],"categories_segments":[],"categories_sizes":[],"default_left":[0,0,0,0,0,0,0,0,0,0,0,0,0,0,0,0,0,0,0,0,0,0,0,0,0,0,0,0,0,0,0,0,0,0,0,0,0,0,0,0,0,0,0,0,0,0,0,0,0,0,0,0,0,0,0,0,0,0,0,0,0,0,0,0,0,0,0,0,0,0,0,0,0,0,0,0,0,0,0,0,0,0,0,0,0,0,0,0,0],"id":21,"left_children":[1,3,5,7,9,11,13,15,17,19,21,23,25,27,-1,-1,-1,-1,-1,29,31,33,35,37,-1,-1,39,-1,-1,-1,41,43,45,47,49,51,53,55,57,-1,-1,59,-1,61,63,65,67,69,71,73,75,77,79,81,83,85,87,-1,-1,-1,-1,-1,-1,-1,-1,-1,-1,-1,-1,-1,-1,-1,-1,-1,-1,-1,-1,-1,-1,-1,-1,-1,-1,-1,-1,-1,-1,-1,-1],"loss_changes":[1.7224862E5,4.6373695E4,4.71056E4,2.6270938E3,4.594495E3,3.0590781E3,4.1624453E3,1.9051562E2,2.5178906E2,1.567127E3,2.588958E2,8.6652344E2,4.6553125E2,3.7491406E2,0E0,0E0,0E0,0E0,0E0,3.5037012E2,2.6248828E2,1.7607403E1,7.5919556E1,8.8483203E2,0E0,0E0,9.130859E0,0E0,0E0,0E0,3.0617676E1,1.1158447E1,3.326709E1,1.5182064E1,8.635609E0,1.9372025E1,1.8681427E1,1.4580518E2,9.296875E1,0E0,0E0,2.9042969E0,0E0,6.4404297E-1,2.5421143E0,1.4063721E1,8.204758E0,9.872707E0,9.5930805E0,3.0682607E0,1.4922369E0,1.4277908E1,2.0085087E0,3.4841614E0,1.3166221E1,9.350708E0,1.0219727E1,0E0,0E0,0E0,0E0,0E0,0E0,0E0,0E0,0E0,0E0,0E0,0E0,0E0,0E0,0E0,0E0,0E0,0E0,0E0,0E0,0E0,0E0,0E0,0E0,0E0,0E0,0E0,0E0,0E0,0E0,0E0,0E0],"parents":[2147483647,0,0,1,1,2,2,3,3,4,4,5,5,6,6,7,7,8,8,9,9,10,10,11,11,12,12,13,13,19,19,20,20,21,21,22,22,23,23,26,26,30,30,31,31,32,32,33,33,34,34,35,35,36,36,37,37,38,38,41,41,43,43,44,44,45,45,46,46,47,47,48,48,49,49,50,50,51,51,52,52,53,53,54,54,55,55,56,56],"right_children":[2,4,6,8,10,12,14,16,18,20,22,24,26,28,-1,-1,-1,-1,-1,30,32,34,36,38,-1,-1,40,-1,-1,-1,42,44,46,48,50,52,54,56,58,-1,-1,60,-1,62,64,66,68,70,72,74,76,78,80,82,84,86,88,-1,-1,-1,-1,-1,-1,-1,-1,-1,-1,-1,-1,-1,-1,-1,-1,-1,-1,-1,-1,-1,-1,-1,-1,-1,-1,-1,-1,-1,-1,-1,-1],"split_conditions":[1.0506E2,8E1,1.37E2,6.83E1,9.598E1,1.19E2,1.6377E2,6.13E1,7.2840965E1,8.985E1,9.933E1,1.202E2,1.261E2,1.485E2,1.1845529E0,-6.5248287E-1,-5.4223603E-1,-4.2977896E-1,-3.1431517E-1,8.49E1,9.23E1,9.61E1,1.0322E2,1.123E2,-4.166424E-1,3.508411E-1,7.461213E1,6.9352514E-1,8.828262E-1,-2.4743013E-1,8.74E1,9.1E1,9.45E1,-5.1546394E-4,8.529642E-3,6.41205E3,1.6035E4,1.09E2,1.1551E2,5.084979E-1,1.4238922E-1,7E0,-1.526251E-1,9.4184494E1,3.028E2,-1.5219565E-1,2.6363838E-3,9.58E1,2.1688875E-2,4.99025E3,9.5312E1,1.07326E2,1.0087267E2,-1.6950433E0,1.047E2,-3.773585E-4,-1.0537583E0,2.468536E-1,3.0068132E-1,-5.093124E-2,-1.9102053E-1,-1.2549108E-1,-3.5066415E-2,-3.8637083E-2,-1.0594764E-1,1.8542519E-2,-7.8767486E-2,-5.4915812E-2,-1.2199555E-2,-6.8935275E-2,2.7512359E-3,7.570745E-3,-3.0284138E-2,3.545368E-2,6.754234E-3,-3.125227E-2,-6.8498324E-3,5.738082E-2,-1.708351E-2,2.6870765E-2,-2.7420043E-3,4.7414243E-2,9.970443E-2,5.085052E-2,-4.913658E-2,1.05144314E-1,1.4808324E-1,4.2307433E-2,1.9810885E-1],"split_indices":[2,2,2,3,2,57,2,2,27,2,2,2,2,2,0,0,0,0,0,2,2,3,2,2,0,0,28,0,0,0,2,2,2,68,42,50,5,2,2,0,0,11,0,27,48,81,75,67,54,50,21,21,27,30,2,58,31,0,0,0,0,0,0,0,0,0,0,0,0,0,0,0,0,0,0,0,0,0,0,0,0,0,0,0,0,0,0,0,0],"split_type":[0,0,0,0,0,0,0,0,0,0,0,0,0,0,0,0,0,0,0,0,0,0,0,0,0,0,0,0,0,0,0,0,0,0,0,0,0,0,0,0,0,0,0,0,0,0,0,0,0,0,0,0,0,0,0,0,0,0,0,0,0,0,0,0,0,0,0,0,0,0,0,0,0,0,0,0,0,0,0,0,0,0,0,0,0,0,0,0,0],"sum_hessian":[1.918E3,1.267E3,6.51E2,3.21E2,9.46E2,5.09E2,1.42E2,2.04E2,1.17E2,7.5E2,1.96E2,4E2,1.09E2,1.07E2,3.5E1,5.6E1,1.48E2,7.2E1,4.5E1,2.69E2,4.81E2,5.8E1,1.38E2,3.99E2,1E0,7.1E1,3.8E1,6.5E1,4.2E1,6.3E1,2.06E2,2.34E2,2.47E2,3.4E1,2.4E1,9.2E1,4.6E1,1.79E2,2.2E2,3.7E1,1E0,5.3E1,1.53E2,1.19E2,1.15E2,1.74E2,7.3E1,1.1E1,2.3E1,1.4E1,1E1,5.5E1,3.7E1,4.3E1,3E0,5.5E1,1.24E2,1.28E2,9.2E1,1E0,5.2E1,1.18E2,1E0,2E0,1.13E2,1E0,1.73E2,6.8E1,5E0,9E0,2E0,1E1,1.3E1,5E0,9E0,3E0,7E0,5.3E1,2E0,3.5E1,2E0,4E0,3.9E1,2E0,1E0,2.3E1,3.2E1,1E0,1.23E2],"tree_param":{"num_deleted":"0","num_feature":"87","num_nodes":"89","size_leaf_vector":"1"}},{"base_weights":[-1.1405854E-1,-6.468111E0,1.3128012E1,-1.6117159E1,-2.9423287E0,8.36178E0,2.7465256E1,-1.8147247E1,-1.1731821E1,-3.9921567E0,1.1476861E0,6.8855395E0,1.1518483E1,6.768983E-1,3.4006115E1,-6.3500047E-1,-5.1371473E-1,-3.949568E-1,-2.9663226E-1,-5.7658377E0,-3.0171747E0,-4.8802555E-1,1.8661678E0,6.992891E0,-4.103928E-1,1.0148475E1,4.291778E-1,8.856318E-1,1.1946586E0,-2.1573365E-1,-1.5240304E-1,-3.7573996E0,-2.3204424E0,-9.977472E-1,9.12544E-2,1.3566785E0,2.8549979E0,5.610003E0,2.509959E-1,8.227718E-2,3.058394E-1,-4.0586863E0,-3.45006E0,-2.6449547E0,-1.8785484E0,-6.3438725E-1,-1.6337627E0,-9.530382E-1,4.6684924E-1,9.438155E-1,1.7577425E0,2.993217E0,-4.8399583E-2,3.8591006E0,6.044937E0,-1.2223094E-1,-3.454044E-2,-1.0395995E-1,-2.3803711E-2,-7.96747E-2,-1.6361045E-2,3.5807036E-3,-5.7489064E-2,1.2856501E-3,-3.6069814E-2,-1.1556014E-2,-5.1602963E-2,-1.2896289E-2,-3.54288E-2,3.4567337E-2,5.9244987E-3,2.3262493E-2,7.6807536E-2,5.7203293E-2,2.0289132E-2,9.167583E-2,3.355377E-2,3.5631865E-2,1.195503E-1,1.5844135E-1,1.926836E-1],"categories":[],"categories_nodes":[],"categories_segments":[],"categories_sizes":[],"default_left":[0,0,0,0,0,0,0,0,0,0,0,0,0,0,0,0,0,0,0,0,0,0,0,0,0,0,0,0,0,0,0,0,0,0,0,0,0,0,0,0,0,0,0,0,0,0,0,0,0,0,0,0,0,0,0,0,0,0,0,0,0,0,0,0,0,0,0,0,0,0,0,0,0,0,0,0,0,0,0,0,0],"id":22,"left_children":[1,3,5,7,9,11,13,15,17,19,21,23,25,-1,27,-1,-1,-1,-1,29,31,33,35,37,-1,39,-1,-1,-1,-1,-1,41,43,45,47,49,51,53,-1,-1,-1,55,57,59,61,63,65,67,69,71,73,75,-1,77,79,-1,-1,-1,-1,-1,-1,-1,-1,-1,-1,-1,-1,-1,-1,-1,-1,-1,-1,-1,-1,-1,-1,-1,-1,-1,-1],"loss_changes":[1.6062558E5,4.3838953E4,4.2069477E4,2.8585E3,4.0665273E3,2.0922734E3,4.1704375E3,3.6064062E2,1.6587695E2,1.2847705E3,2.2890512E2,8.021279E2,4.161836E2,0E0,4.938125E2,0E0,0E0,0E0,0E0,2.2344922E2,2.4296191E2,1.7807343E1,6.4139435E1,5.590322E2,0E0,6.9179688E0,0E0,0E0,0E0,0E0,0E0,7.7578125E0,3.1454956E1,6.358843E0,1.1819622E1,1.3409195E1,3.2621338E1,1.0003955E2,0E0,0E0,0E0,4.5983887E-1,2.2406006E0,1.8375244E0,8.601288E0,8.51345E0,5.231743E-1,4.462533E-1,3.8341389E0,1.080843E1,5.963135E0,1.7496033E0,0E0,7.0391235E0,3.0078125E0,0E0,0E0,0E0,0E0,0E0,0E0,0E0,0E0,0E0,0E0,0E0,0E0,0E0,0E0,0E0,0E0,0E0,0E0,0E0,0E0,0E0,0E0,0E0,0E0,0E0,0E0],"parents":[2147483647,0,0,1,1,2,2,3,3,4,4,5,5,6,6,7,7,8,8,9,9,10,10,11,11,12,12,14,14,19,19,20,20,21,21,22,22,23,23,25,25,31,31,32,32,33,33,34,34,35,35,36,36,37,37,41,41,42,42,43,43,44,44,45,45,46,46,47,47,48,48,49,49,50,50,51,51,53,53,54,54],