{"learner":{"attributes":{"scikit_learn":"{\"_estimator_type\": \"classifier\"}"},"feature_names":[],"feature_types":[],"gradient_booster":{"model":{"cats":{"enc":[],"feature_segments":[],"sorted_idx":[]},"gbtree_model_param":{"num_parallel_tree":"1","num_trees":"750"},"iteration_indptr":[0,3,6,9,12,15,18,21,24,27,30,33,36,39,42,45,48,51,54,57,60,63,66,69,72,75,78,81,84,87,90,93,96,99,102,105,108,111,114,117,120,123,126,129,132,135,138,141,144,147,150,153,156,159,162,165,168,171,174,177,180,183,186,189,192,195,198,201,204,207,210,213,216,219,222,225,228,231,234,237,240,243,246,249,252,255,258,261,264,267,270,273,276,279,282,285,288,291,294,297,300,303,306,309,312,315,318,321,324,327,330,333,336,339,342,345,348,351,354,357,360,363,366,369,372,375,378,381,384,387,390,393,396,399,402,405,408,411,414,417,420,423,426,429,432,435,438,441,444,447,450,453,456,459,462,465,468,471,474,477,480,483,486,489,492,495,498,501,504,507,510,513,516,519,522,525,528,531,534,537,540,543,546,549,552,555,558,561,564,567,570,573,576,579,582,585,588,591,594,597,600,603,606,609,612,615,618,621,624,627,630,633,636,639,642,645,648,651,654,657,660,663,666,669,672,675,678,681,684,687,690,693,696,699,702,705,708,711,714,717,720,723,726,729,732,735,738,741,744,747,750],"tree_info":[0,1,2,0,1,2,0,1,2,0,1,2,0,1,2,0,1,2,0,1,2,0,1,2,0,1,2,0,1,2,0,1,2,0,1,2,0,1,2,0,1,2,0,1,2,0,1,2,0,1,2,0,1,2,0,1,2,0,1,2,0,1,2,0,1,2,0,1,2,0,1,2,0,1,2,0,1,2,0,1,2,0,1,2,0,1,2,0,1,2,0,1,2,0,1,2,0,1,2,0,1,2,0,1,2,0,1,2,0,1,2,0,1,2,0,1,2,0,1,2,0,1,2,0,1,2,0,1,2,0,1,2,0,1,2,0,1,2,0,1,2,0,1,2,0,1,2,0,1,2,0,1,2,0,1,2,0,1,2,0,1,2,0,1,2,0,1,2,0,1,2,0,1,2,0,1,2,0,1,2,0,1,2,0,1,2,0,1,2,0,1,2,0,1,2,0,1,2,0,1,2,0,1,2,0,1,2,0,1,2,0,1,2,0,1,2,0,1,2,0,1,2,0,1,2,0,1,2,0,1,2,0,1,2,0,1,2,0,1,2,0,1,2,0,1,2,0,1,2,0,1,2,0,1,2,0,1,2,0,1,2,0,1,2,0,1,2,0,1,2,0,1,2,0,1,2,0,1,2,0,1,2,0,1,2,0,1,2,0,1,2,0,1,2,0,1,2,0,1,2,0,1,2,0,1,2,0,1,2,0,1,2,0,1,2,0,1,2,0,1,2,0,1,2,0,1,2,0,1,2,0,1,2,0,1,2,0,1,2,0,1,2,0,1,2,0,1,2,0,1,2,0,1,2,0,1,2,0,1,2,0,1,2,0,1,2,0,1,2,0,1,2,0,1,2,0,1,2,0,1,2,0,1,2,0,1,2,0,1,2,0,1,2,0,1,2,0,1,2,0,1,2,0,1,2,0,1,2,0,1,2,0,1,2,0,1,2,0,1,2,0,1,2,0,1,2,0,1,2,0,1,2,0,1,2,0,1,2,0,1,2,0,1,2,0,1,2,0,1,2,0,1,2,0,1,2,0,1,2,0,1,2,0,1,2,0,1,2,0,1,2,0,1,2,0,1,2,0,1,2,0,1,2,0,1,2,0,1,2,0,1,2,0,1,2,0,1,2,0,1,2,0,1,2,0,1,2,0,1,2,0,1,2,0,1,2,0,1,2,0,1,2,0,1,2,0,1,2,0,1,2,0,1,2,0,1,2,0,1,2,0,1,2,0,1,2,0,1,2,0,1,2,0,1,2,0,1,2,0,1,2,0,1,2,0,1,2,0,1,2,0,1,2,0,1,2,0,1,2,0,1,2,0,1,2,0,1,2,0,1,2,0,1,2,0,1,2,0,1,2,0,1,2,0,1,2,0,1,2,0,1,2,0,1,2,0,1,2,0,1,2,0,1,2,0,1,2,0,1,2,0,1,2,0,1,2,0,1,2,0,1,2,0,1,2,0,1,2,0,1,2,0,1,2,0,1,2,0,1,2,0,1,2,0,1,2,0,1,2,0,1,2,0,1,2,0,1,2,0,1,2,0,1,2,0,1,2,0,1,2,0,1,2,0,1,2,0,1,2,0,1,2,0,1,2,0,1,2,0,1,2,0,1,2,0,1,2,0,1,2,0,1,2,0,1,2,0,1,2,0,1,2,0,1,2,0,1,2,0,1,2,0,1,2,0,1,2,0,1,2],"trees":[{"base_weights":[7.715934E-1,8.891378E-1,6.2444516E-2,6.6754866E-1,4.5255605E-2,-4.3186423E-1,4.1796058E-1,6.9566965E-1,-3.3269256E-2,-4.5319986E-2,-7.6170945E-1,2.8240657E-1,6.9812536E-1,7.2271776E-1,-1.0868206E-2,-4.9463972E-1,2.034028E-1,-8.226411E-1,1.7483075E-1,3.4855223E-1,-2.9460266E-1,7.543784E-1,1.1935733E-1,-1.3143509E-2,3.709403E-2,7.285313E-3,-4.139397E-2,-2.6034359E-2,2.0312998E-2,1.6000497E-3,-4.4453904E-2,2.7107984E-2,-1.3143509E-2,1.9374926E-2,-2.0803628E-2,1.6051874E-2,-3.7914272E-2,1.2801888E-2,3.9810497E-2,-3.3269256E-2,3.2310106E-2],"categories":[],"categories_nodes":[],"categories_segments":[],"categories_sizes":[],"default_left":[0,0,0,0,0,0,0,0,0,0,0,0,0,0,0,0,0,0,0,0,0,0,0,0,0,0,0,0,0,0,0,0,0,0,0,0,0,0,0,0,0],"id":0,"left_children":[1,3,5,7,-1,9,11,13,-1,15,17,19,21,23,-1,25,27,29,31,33,35,37,39,-1,-1,-1,-1,-1,-1,-1,-1,-1,-1,-1,-1,-1,-1,-1,-1,-1,-1],"loss_changes":[1.3246301E2,4.2227783E0,4.009346E1,4.0427513E0,0E0,1.2142406E1,4.8392277E0,2.479023E0,0E0,5.1337247E0,3.0808945E0,3.5778499E0,1.2956886E0,1.9240417E0,0E0,3.6070974E0,4.573781E0,2.7822838E0,7.806157E-1,2.607479E0,3.071302E0,6.0090065E-1,2.4799392E0,0E0,0E0,0E0,0E0,0E0,0E0,0E0,0E0,0E0,0E0,0E0,0E0,0E0,0E0,0E0,0E0,0E0,0E0],"parents":[2147483647,0,0,1,1,2,2,3,3,5,5,6,6,7,7,9,9,10,10,11,11,12,12,13,13,15,15,16,16,17,17,18,18,19,19,20,20,21,21,22,22],"right_children":[2,4,6,8,-1,10,12,14,-1,16,18,20,22,24,-1,26,28,30,32,34,36,38,40,-1,-1,-1,-1,-1,-1,-1,-1,-1,-1,-1,-1,-1,-1,-1,-1,-1,-1],"split_conditions":[2.9E2,2.1E1,1.2E1,9.0277776E-2,4.5255605E-2,2.5905622E-2,9.88764E1,4.450262E-2,-3.3269256E-2,4.03E0,2.741828E-1,9.116413E1,1.3097888E-2,3.7E0,-1.0868206E-2,-3.48E1,-1.8223235E-2,-2.5568182E-2,1.6E1,4.1322313E-2,-9.194947E-1,4.0602894E0,-5.9753954E-2,-1.3143509E-2,3.709403E-2,7.285313E-3,-4.139397E-2,-2.6034359E-2,2.0312998E-2,1.6000497E-3,-4.4453904E-2,2.7107984E-2,-1.3143509E-2,1.9374926E-2,-2.0803628E-2,1.6051874E-2,-3.7914272E-2,1.2801888E-2,3.9810497E-2,-3.3269256E-2,3.2310106E-2],"split_indices":[48,0,0,39,0,30,36,60,0,67,46,56,69,61,0,52,58,62,9,68,74,32,81,0,0,0,0,0,0,0,0,0,0,0,0,0,0,0,0,0,0],"split_type":[0,0,0,0,0,0,0,0,0,0,0,0,0,0,0,0,0,0,0,0,0,0,0,0,0,0,0,0,0,0,0,0,0,0,0,0,0,0,0,0,0],"sum_hessian":[1.5887812E3,1.3626608E3,2.2612053E2,9.4505516E1,1.2681553E3,9.4505516E1,1.3161502E2,9.302114E1,1.4843799E0,4.4036602E1,5.0468918E1,9.005238E1,4.1562637E1,9.054717E1,2.4739666E0,1.5338593E1,2.8698011E1,4.7500156E1,2.9687598E0,8.11461E1,8.90628E0,3.760429E1,3.9583464E0,1.4843799E0,8.906279E1,5.442726E0,9.895866E0,5.9375196E0,2.2760492E1,3.463553E0,4.4036602E1,1.4843799E0,1.4843799E0,7.768255E1,3.463553E0,3.9583464E0,4.947933E0,3.463553E0,3.4140736E1,1.4843799E0,2.4739666E0],"tree_param":{"num_deleted":"0","num_feature":"87","num_nodes":"41","size_leaf_vector":"1"}},{"base_weights":[-4.984203E-1,1.00418195E-1,-3.2227352E-2,5.01363E-1,-1.0588974E-1,8.483868E-1,1.17971756E-1,-2.0781033E-1,2.656633E-1,3.1826842E-1,1.1619108E0,-1.8287201E-1,6.724077E-1,5.480816E-1,-2.61268E-1,4.780802E-2,1.1029828E0,-6.488669E-3,5.2120604E-2,1.7174477E-2,7.243444E-2,2.507632E-2,-2.0424044E-2,6.0538568E-2,-1.0148646E-2,5.9097346E-2,-5.3165965E-3,-1.6225686E-2,5.8116983E-3,2.38309E-2,-1.2327312E-2,-1.6681692E-2,7.174433E-2],"categories":[],"categories_nodes":[],"categories_segments":[],"categories_sizes":[],"default_left":[0,0,0,0,0,0,0,0,0,0,0,0,0,0,0,0,0,0,0,0,0,0,0,0,0,0,0,0,0,0,0,0,0],"id":1,"left_children":[1,3,-1,5,7,9,11,13,15,17,19,21,23,25,27,29,31,-1,-1,-1,-1,-1,-1,-1,-1,-1,-1,-1,-1,-1,-1,-1,-1],"loss_changes":[9.9537994E1,1.8568916E1,0E0,1.0041016E1,5.6832814E0,6.253027E0,6.3571033E0,4.8785896E0,5.863159E0,5.386699E0,5.2905846E0,4.0672965E0,6.5422077E0,3.4703555E0,2.667016E0,3.4977992E0,3.6498194E0,0E0,0E0,0E0,0E0,0E0,0E0,0E0,0E0,0E0,0E0,0E0,0E0,0E0,0E0,0E0,0E0],"parents":[2147483647,0,0,1,1,3,3,4,4,5,5,6,6,7,7,8,8,9,9,10,10,11,11,12,12,13,13,14,14,15,15,16,16],"right_children":[2,4,-1,6,8,10,12,14,16,18,20,22,24,26,28,30,32,-1,-1,-1,-1,-1,-1,-1,-1,-1,-1,-1,-1,-1,-1,-1,-1],"split_conditions":[2.1E1,1.2E1,-3.2227352E-2,-5.851064E-2,9.66E2,1.4512619E-2,2.017E2,3.72E0,9.113485E1,2.2E1,-8.130081E-3,7E0,1.7600993E-2,7.559E2,6E0,1.4E2,-2.77E2,-6.488669E-3,5.2120604E-2,1.7174477E-2,7.243444E-2,2.507632E-2,-2.0424044E-2,6.0538568E-2,-1.0148646E-2,5.9097346E-2,-5.3165965E-3,-1.6225686E-2,5.8116983E-3,2.38309E-2,-1.2327312E-2,-1.6681692E-2,7.174433E-2],"split_indices":[0,0,0,82,5,30,52,2,56,9,62,11,47,49,63,12,52,0,0,0,0,0,0,0,0,0,0,0,0,0,0,0,0],"split_type":[0,0,0,0,0,0,0,0,0,0,0,0,0,0,0,0,0,0,0,0,0,0,0,0,0,0,0,0,0,0,0,0,0],"sum_hessian":[1.1357552E3,2.2284253E2,9.129127E2,7.5222595E1,1.4761993E2,3.884735E1,3.6375248E1,1.16188896E2,3.1431038E1,1.5185782E1,2.3661568E1,2.4014725E1,1.236052E1,7.0631547E0,1.0912574E2,2.5780514E1,5.6505237E0,9.888416E0,5.297366E0,6.7099967E0,1.695157E1,5.6505237E0,1.8364202E1,7.416312E0,4.944208E0,3.1784196E0,3.884735E0,9.35868E1,1.553894E1,1.0241574E1,1.553894E1,1.0594732E0,4.5910506E0],"tree_param":{"num_deleted":"0","num_feature":"87","num_nodes":"33","size_leaf_vector":"1"}},{"base_weights":[-5.99846E-1,-6.19459E-1,1.2488809E0,-6.3104314E-1,-1.615154E-1,4.3938488E-1,8.9715704E-2,-4.5799035E-1,-6.346329E-1,-3.4283057E-1,4.2376104E-1,-4.4998247E-2,5.3399425E-2,2.6588997E-1,-3.0540282E-2,-3.1778075E-2,-3.7402064E-1,-4.2252466E-1,3.301912E-2,6.016021E-2,-1.2491851E-1,3.301912E-2,-2.2628052E-2,5.7656955E-2,-1.1979142E-2,-2.578635E-2,8.381284E-3,-2.5360638E-3,-2.9820457E-2,-2.4209471E-2,3.301912E-2],"categories":[],"categories_nodes":[],"categories_segments":[],"categories_sizes":[],"default_left":[0,0,0,0,0,0,0,0,0,0,0,0,0,0,0,0,0,0,0,0,0,0,0,0,0,0,0,0,0,0,0],"id":2,"left_children":[1,3,5,7,9,11,-1,13,15,17,19,21,-1,23,-1,-1,25,27,-1,-1,29,-1,-1,-1,-1,-1,-1,-1,-1,-1,-1],"loss_changes":[4.100879E1,5.726471E0,4.5011997E0,3.748474E-1,3.164446E0,1.9197254E0,0E0,2.9679995E0,1.5594482E-2,2.0598574E0,3.2193918E0,1.5728127E0,0E0,2.5714135E0,0E0,0E0,5.5825996E-1,1.3432467E0,0E0,0E0,1.7636071E0,0E0,0E0,0E0,0E0,0E0,0E0,0E0,0E0,0E0,0E0],"parents":[2147483647,0,0,1,1,2,2,3,3,4,4,5,5,7,7,8,8,9,9,10,10,11,11,13,13,16,16,17,17,20,20],"right_children":[2,4,6,8,10,12,-1,14,16,18,20,22,-1,24,-1,-1,26,28,-1,-1,30,-1,-1,-1,-1,-1,-1,-1,-1,-1,-1],"split_conditions":[1.75476E4,1.1E1,5.603322E0,1.3571429E-1,6.9488645E-2,7.1E1,8.9715704E-2,-1.104E2,1.6495E3,4.4E1,2.3041608E-2,1.8901254E-1,5.3399425E-2,1.4642E3,-3.0540282E-2,-3.1778075E-2,6.03E0,4.4214284E-1,3.301912E-2,6.016021E-2,3.3940922E-2,3.301912E-2,-2.2628052E-2,5.7656955E-2,-1.1979142E-2,-2.578635E-2,8.381284E-3,-2.5360638E-3,-2.9820457E-2,-2.4209471E-2,3.301912E-2],"split_indices":[48,6,53,35,29,6,0,52,52,6,73,51,0,48,0,0,1,35,0,0,73,0,0,0,0,0,0,0,0,0,0],"split_type":[0,0,0,0,0,0,0,0,0,0,0,0,0,0,0,0,0,0,0,0,0,0,0,0,0,0,0,0,0,0,0],"sum_hessian":[1.1086628E3,1.0976826E3,1.0980257E1,1.0702319E3,2.7450642E1,5.1469955E0,5.8332615E0,2.4362446E1,1.0458695E3,2.1274248E1,6.1763945E0,3.4313302E0,1.7156651E0,4.1175966E0,2.0244848E1,1.0407225E3,5.1469955E0,2.0244848E1,1.0293992E0,2.0587983E0,4.1175966E0,1.0293992E0,2.4019313E0,1.0293992E0,3.0881972E0,4.1175966E0,1.0293992E0,6.8626604E0,1.3382188E1,3.0881972E0,1.0293992E0],"tree_param":{"num_deleted":"0","num_feature":"87","num_nodes":"31","size_leaf_vector":"1"}},{"base_weights":[7.3793507E-1,8.556227E-1,4.762014E-2,8.726064E-1,5.8792704E-1,2.3276965E-1,-6.510753E-1,4.3668836E-2,1.2486446E-2,-3.3562895E-2,6.188234E-1,3.810527E-1,-1.3080591E-1,7.393755E-2,-8.044711E-1,6.813804E-1,9.15764E-2,2.1453393E-1,6.235146E-1,1.222691E-1,-4.449526E-1,4.8921868E-1,-3.8701575E-2,-8.8483715E-1,3.7878476E-2,-4.2245435E-3,3.5185754E-2,-4.3545987E-2,3.734551E-2,-1.1476491E-2,1.6036397E-2,-1.1577654E-2,3.350519E-2,2.3485612E-2,-7.7103935E-3,4.804487E-3,-4.124134E-2,3.7176337E-2,-1.3333713E-2,-2.4843145E-2,-5.146305E-2,-3.2460537E-2,2.9998133E-2],"categories":[],"categories_nodes":[],"categories_segments":[],"categories_sizes":[],"default_left":[0,0,0,0,0,0,0,0,0,0,0,0,0,0,0,0,0,0,0,0,0,0,0,0,0,0,0,0,0,0,0,0,0,0,0,0,0,0,0,0,0,0,0],"id":3,"left_children":[1,3,5,7,9,11,13,-1,-1,-1,15,17,19,21,23,25,27,29,31,33,35,37,-1,39,41,-1,-1,-1,-1,-1,-1,-1,-1,-1,-1,-1,-1,-1,-1,-1,-1,-1,-1],"loss_changes":[1.2831964E2,5.6237183E0,3.0058725E1,3.8989258E-1,3.6674976E0,9.942431E0,5.474821E0,0E0,0E0,0E0,2.645872E0,5.1388454E0,4.3397593E0,3.695547E0,2.7599144E0,1.3123779E0,6.8724627E0,3.796453E0,2.2524586E0,3.0154457E0,5.0663543E0,1.531461E0,0E0,1.5510082E0,2.1145515E0,0E0,0E0,0E0,0E0,0E0,0E0,0E0,0E0,0E0,0E0,0E0,0E0,0E0,0E0,0E0,0E0,0E0,0E0],"parents":[2147483647,0,0,1,1,2,2,3,3,4,4,5,5,6,6,10,10,11,11,12,12,13,13,14,14,15,15,16,16,17,17,18,18,19,19,20,20,21,21,23,23,24,24],"right_children":[2,4,6,8,10,12,14,-1,-1,-1,16,18,20,22,24,26,28,30,32,34,36,38,-1,40,42,-1,-1,-1,-1,-1,-1,-1,-1,-1,-1,-1,-1,-1,-1,-1,-1,-1,-1],"split_conditions":[2.9E2,9.879157E5,1.0352941E-1,4.248529E0,3.72E0,5.7483E3,5.0149906E-2,4.3668836E-2,1.2486446E-2,-3.3562895E-2,1.8985382E-1,9.8039215E1,2.017E2,7.209512E1,6.03E0,3.86E0,1.6855864E-1,1.1963654E-2,-1.1583012E-2,5.6154243E1,3.09017E-1,3.2553613E-2,-3.8701575E-2,-7.0634145E-1,7.5907975E-1,-4.2245435E-3,3.5185754E-2,-4.3545987E-2,3.734551E-2,-1.1476491E-2,1.6036397E-2,-1.1577654E-2,3.350519E-2,2.3485612E-2,-7.7103935E-3,4.804487E-3,-4.124134E-2,3.7176337E-2,-1.3333713E-2,-2.4843145E-2,-5.146305E-2,-3.2460537E-2,2.9998133E-2],"split_indices":[48,55,81,86,2,7,51,0,0,0,34,36,52,56,4,21,74,73,39,56,18,70,0,71,51,0,0,0,0,0,0,0,0,0,0,0,0,0,0,0,0,0,0],"split_type":[0,0,0,0,0,0,0,0,0,0,0,0,0,0,0,0,0,0,0,0,0,0,0,0,0,0,0,0,0,0,0,0,0,0,0,0,0,0,0,0,0,0,0],"sum_hessian":[1.5789846E3,1.3487969E3,2.3018779E2,1.2662042E3,8.259269E1,1.8249477E2,4.7693016E1,1.2642385E3,1.9657106E0,1.4816537E0,8.111104E1,1.2959274E2,5.2902027E1,8.419051E0,3.9273968E1,7.224674E1,8.864293E0,7.794573E1,5.1647015E1,2.963722E1,2.3264807E1,5.9353604E0,2.4836907E0,3.5807262E1,3.4667027E0,1.9683323E0,7.027841E1,3.4573994E0,5.4068933E0,1.481857E1,6.312716E1,2.463497E0,4.9183517E1,1.2823395E1,1.6813826E1,9.904788E0,1.3360018E1,4.453434E0,1.4819264E0,1.0917975E1,2.4889288E1,1.4901472E0,1.9765553E0],"tree_param":{"num_deleted":"0","num_feature":"87","num_nodes":"43","size_leaf_vector":"1"}},{"base_weights":[-4.846009E-1,-6.270611E-1,2.3348778E-1,-6.3229364E-1,-7.057731E-2,6.192701E-1,-2.9118603E-2,-6.344099E-1,-2.3961441E-1,4.3201864E-2,-3.3127737E-1,7.795995E-1,-4.845976E-1,-1.2267172E-1,7.818751E-1,-3.177357E-2,-2.7554682E-1,3.2620646E-2,-2.6330704E-2,-2.7892737E-2,3.1294093E-2,4.8023406E-1,1.2533207E0,-2.8792864E-2,7.7351364E-3,4.067137E-2,-3.7628233E-1,1.4563776E0,-3.302985E-1,-2.2786187E-2,8.108835E-3,1.4955148E-2,6.2736236E-2,3.4773905E-2,7.855629E-2,-6.333064E-3,4.7040455E-2,-8.123258E-4,-2.7310854E-2,1.5783468E-2,8.764031E-2,-2.4599561E-2,8.063979E-3],"categories":[],"categories_nodes":[],"categories_segments":[],"categories_sizes":[],"default_left":[0,0,0,0,0,0,0,0,0,0,0,0,0,0,0,0,0,0,0,0,0,0,0,0,0,0,0,0,0,0,0,0,0,0,0,0,0,0,0,0,0,0,0],"id":4,"left_children":[1,3,5,7,9,11,13,15,17,-1,19,21,23,25,27,-1,29,-1,-1,-1,-1,31,33,-1,-1,35,37,39,41,-1,-1,-1,-1,-1,-1,-1,-1,-1,-1,-1,-1,-1,-1],"loss_changes":[1.14125854E2,2.6633606E0,1.8778034E1,6.135559E-1,2.6713266E0,1.3659229E1,8.5276375E0,1.7370605E-1,2.0191576E0,0E0,2.165818E0,8.745174E0,6.803262E-1,4.17869E0,9.205091E0,0E0,4.2613947E-1,0E0,0E0,0E0,0E0,5.517845E0,3.3219604E0,0E0,0E0,9.462719E0,2.4059954E0,1.9570475E0,4.931044E-1,0E0,0E0,0E0,0E0,0E0,0E0,0E0,0E0,0E0,0E0,0E0,0E0,0E0,0E0],"parents":[2147483647,0,0,1,1,2,2,3,3,4,4,5,5,6,6,7,7,8,8,10,10,11,11,12,12,13,13,14,14,16,16,21,21,22,22,25,25,26,26,27,27,28,28],"right_children":[2,4,6,8,10,12,14,16,18,-1,20,22,24,26,28,-1,30,-1,-1,-1,-1,32,34,-1,-1,36,38,40,42,-1,-1,-1,-1,-1,-1,-1,-1,-1,-1,-1,-1,-1,-1],"split_conditions":[1.144E2,2.1932E3,1.2E1,1.0231E3,2.992E3,3.1119918E-2,1.7455882E-1,1.0683698E6,-6.1653994E-2,4.3201864E-2,6.927145E1,2.5783878E-2,2.89E2,2.220446E-16,5.04662E1,-3.177357E-2,2.1E1,3.2620646E-2,-2.6330704E-2,-2.7892737E-2,3.1294093E-2,5.99E0,4.12245E3,-2.8792864E-2,7.7351364E-3,1.0018955E-2,9.8368675E1,2.1428572E1,9.5105654E-1,-2.2786187E-2,8.108835E-3,1.4955148E-2,6.2736236E-2,3.4773905E-2,7.855629E-2,-6.333064E-3,4.7040455E-2,-8.123258E-4,-2.7310854E-2,1.5783468E-2,8.764031E-2,-2.4599561E-2,8.063979E-3],"split_indices":[48,7,0,49,7,47,34,55,29,0,56,47,12,78,28,0,12,0,0,0,0,63,50,0,0,45,36,28,17,0,0,0,0,0,0,0,0,0,0,0,0,0,0],"split_type":[0,0,0,0,0,0,0,0,0,0,0,0,0,0,0,0,0,0,0,0,0,0,0,0,0,0,0,0,0,0,0,0,0,0,0,0,0,0,0,0,0,0,0],"sum_hessian":[1.1131786E3,9.290024E2,1.8417622E2,9.2021356E2,8.78884E0,7.404384E1,1.10132385E2,9.146686E2,5.544969E0,1.4121083E0,7.3767314E0,6.4909874E1,9.133968E0,9.950285E1,1.0629529E1,9.1120245E2,3.4661098E0,1.0398328E0,4.5051365E0,6.3020873E0,1.0746443E0,4.1008522E1,2.3901352E1,8.079818E0,1.0541501E0,6.103296E1,3.8469894E1,6.4240394E0,4.20549E0,2.4262767E0,1.0398328E0,3.4359108E1,6.649413E0,9.831867E0,1.4069484E1,5.219025E1,8.84271E0,1.2686651E1,2.5783243E1,1.7509584E0,4.673081E0,3.1639462E0,1.0415437E0],"tree_param":{"num_deleted":"0","num_feature":"87","num_nodes":"43","size_leaf_vector":"1"}},{"base_weights":[-5.927676E-1,-6.1001396E-1,1.4655589E0,-6.145842E-1,5.5389196E-2,1.5779216E-2,8.4563725E-2,-3.983675E-1,-6.2896E-1,-4.5769465E-1,3.3118334E-1,-3.154592E-2,-4.1522983E-1,3.3018988E-2,-2.4308547E-2,5.0505906E-2,-2.2539986E-2,3.3663947E-2,-2.8826663E-2],"categories":[],"categories_nodes":[],"categories_segments":[],"categories_sizes":[],"default_left":[0,0,0,0,0,0,0,0,0,0,0,0,0,0,0,0,0,0,0],"id":5,"left_children":[1,3,5,7,-1,-1,-1,9,11,13,15,-1,17,-1,-1,-1,-1,-1,-1],"loss_changes":[3.9252136E1,9.098999E0,1.8730793E0,3.0755615E0,0E0,0E0,0E0,3.157055E0,1.5722656E-1,2.3790035E0,3.5358987E0,0E0,2.4985735E0,0E0,0E0,0E0,0E0,0E0,0E0],"parents":[2147483647,0,0,1,1,2,2,3,3,7,7,8,8,9,9,10,10,12,12],"right_children":[2,4,6,8,-1,-1,-1,10,12,14,16,-1,18,-1,-1,-1,-1,-1,-1],"split_conditions":[1.809E4,4.71761E4,-6.4102565E-3,1.2E1,5.5389196E-2,1.5779216E-2,8.4563725E-2,1.8929399E0,1.9318E3,-1.4048128E-1,3.1E3,-3.154592E-2,-5.9973173E-2,3.3018988E-2,-2.4308547E-2,5.0505906E-2,-2.2539986E-2,3.3663947E-2,-2.8826663E-2],"split_indices":[5,50,68,0,0,0,0,86,49,29,5,0,29,0,0,0,0,0,0],"split_type":[0,0,0,0,0,0,0,0,0,0,0,0,0,0,0,0,0,0,0],"sum_hessian":[1.0795492E3,1.0712767E3,8.27243E0,1.0690747E3,2.2020628E0,1.7507697E0,6.521661E0,6.843908E1,1.0006356E3,6.3636765E1,4.802313E0,9.89616E2,1.10196085E1,1.0293795E0,6.2607384E1,2.4143672E0,2.3879457E0,1.0125726E0,1.0007036E1],"tree_param":{"num_deleted":"0","num_feature":"87","num_nodes":"19","size_leaf_vector":"1"}},{"base_weights":[7.161555E-1,8.3614236E-1,9.111374E-2,8.375953E-1,-1.3493103E-2,-3.9514503E-1,3.94595E-1,8.3906907E-1,1.6662426E-3,-5.4883737E-2,-7.2856253E-1,4.1827208E-1,-3.821088E-2,6.9622344E-1,4.233261E-2,-2.2535717E-1,6.1187196E-1,-7.7483076E-1,1.2724339E-2,2.7285135E-1,5.888472E-1,3.603838E-2,-1.4071837E-2,2.6251927E-2,-1.6093548E-2,-3.767507E-3,3.9129954E-2,-1.2971373E-2,-4.3212842E-2,1.9482573E-2,-5.385266E-3,-1.1833188E-2,3.1119956E-2],"categories":[],"categories_nodes":[],"categories_segments":[],"categories_sizes":[],"default_left":[0,0,0,0,0,0,0,0,0,0,0,0,0,0,0,0,0,0,0,0,0,0,0,0,0,0,0,0,0,0,0,0,0],"id":6,"left_children":[1,3,5,7,-1,9,11,13,-1,15,17,19,-1,21,-1,23,25,27,-1,29,31,-1,-1,-1,-1,-1,-1,-1,-1,-1,-1,-1,-1],"loss_changes":[1.1731842E2,2.3361816E0,3.7523457E1,1.5266724E0,0E0,1.1056056E1,4.6111717E0,8.287964E-1,0E0,5.7628846E0,2.4403877E0,3.6575012E0,0E0,1.9215393E0,0E0,3.0762315E0,1.2728033E0,1.9581203E0,0E0,3.8180575E0,2.0853806E0,0E0,0E0,0E0,0E0,0E0,0E0,0E0,0E0,0E0,0E0,0E0,0E0],"parents":[2147483647,0,0,1,1,2,2,3,3,5,5,6,6,7,7,9,9,10,10,11,11,13,13,15,15,16,16,17,17,19,19,20,20],"right_children":[2,4,6,8,-1,10,12,14,-1,16,18,20,-1,22,-1,24,26,28,-1,30,32,-1,-1,-1,-1,-1,-1,-1,-1,-1,-1,-1,-1],"split_conditions":[1.144E2,7.999E3,1.2E1,1.116012E6,-1.3493103E-2,1.2987013E-2,9.865459E1,2.1E1,1.6662426E-3,4.0125132E-1,6.2E0,9.7485634E1,-3.821088E-2,4.450262E-2,4.233261E-2,-1.5099E3,1E0,7.079646E-2,1.2724339E-2,4.64535E3,1.868E2,3.603838E-2,-1.4071837E-2,2.6251927E-2,-1.6093548E-2,-3.767507E-3,3.9129954E-2,-1.2971373E-2,-4.3212842E-2,1.9482573E-2,-5.385266E-3,-1.1833188E-2,3.1119956E-2],"split_indices":[48,5,0,41,0,85,56,0,0,86,4,37,0,58,0,52,8,81,0,7,48,0,0,0,0,0,0,0,0,0,0,0,0],"split_type":[0,0,0,0,0,0,0,0,0,0,0,0,0,0,0,0,0,0,0,0,0,0,0,0,0,0,0,0,0,0,0,0,0],"sum_hessian":[1.5643282E3,1.31211E3,2.5221832E2,1.3106309E3,1.4790695E0,9.680637E1,1.5541194E2,1.3081904E3,2.4404616E0,4.848786E1,4.8318516E1,1.5292638E2,2.485571E0,7.062424E1,1.2375662E3,3.914216E1,9.345702E0,4.6348866E1,1.9696482E0,8.3953186E1,6.897318E1,6.915096E1,1.4732758E0,3.9546528E0,3.5187508E1,1.970911E0,7.3747907E0,7.4296165E0,3.891925E1,6.421919E1,1.9734E1,2.4574118E0,6.651577E1],"tree_param":{"num_deleted":"0","num_feature":"87","num_nodes":"33","size_leaf_vector":"1"}},{"base_weights":[-4.7248822E-1,-6.147818E-1,2.2741666E-1,-6.275356E-1,-3.1643084E-1,5.9802985E-1,-8.508268E-3,-3.143336E-2,-1.620455E-3,-1.04129255E-1,-5.080846E-1,7.0821023E-1,-4.276885E-1,-4.1738953E-2,6.35087E-2,8.306103E-2,-2.6793841E-2,-5.5285066E-1,8.397206E-3,1.638106E-1,8.424795E-1,-2.7248507E-2,7.6506766E-3,1.6517773E-1,-2.2019127E-1,-5.5611003E-3,4.191813E-2,-3.0054137E-2,-1.9016386E-3,6.0066026E-2,-2.6913814E-3,3.0096743E-2,5.861208E-2,-4.107975E-3,3.081209E-2,2.3688547E-2,-1.5767863E-2],"categories":[],"categories_nodes":[],"categories_segments":[],"categories_sizes":[],"default_left":[0,0,0,0,0,0,0,0,0,0,0,0,0,0,0,0,0,0,0,0,0,0,0,0,0,0,0,0,0,0,0,0,0,0,0,0,0],"id":7,"left_children":[1,3,5,7,9,11,13,-1,-1,15,17,19,21,23,-1,25,-1,27,-1,29,31,-1,-1,33,35,-1,-1,-1,-1,-1,-1,-1,-1,-1,-1,-1,-1],"loss_changes":[1.0864119E2,3.247589E0,1.6163374E1,5.6378174E-1,1.5398364E0,8.4280815E0,4.892966E0,0E0,0E0,1.647133E0,7.0764637E-1,4.6350403E0,6.008016E-1,4.171464E0,0E0,2.2501075E0,0E0,4.5603466E-1,0E0,3.2620397E0,3.430107E0,0E0,0E0,5.8998747E0,4.148752E0,0E0,0E0,0E0,0E0,0E0,0E0,0E0,0E0,0E0,0E0,0E0,0E0],"parents":[2147483647,0,0,1,1,2,2,3,3,4,4,5,5,6,6,9,9,10,10,11,11,12,12,13,13,15,15,17,17,19,19,20,20,23,23,24,24],"right_children":[2,4,6,8,10,12,14,-1,-1,16,18,20,22,24,-1,26,-1,28,-1,30,32,-1,-1,34,36,-1,-1,-1,-1,-1,-1,-1,-1,-1,-1,-1,-1],"split_conditions":[1.144E2,9.879157E5,1.2E1,5E0,1.0649738E6,3.1119918E-2,9.865459E1,-3.143336E-2,-1.620455E-3,4E-1,3.4942612E-2,1.4642E3,5.596E0,-1.6416687E-3,6.35087E-2,3E0,-2.6793841E-2,5.17E0,8.397206E-3,4E0,2.5783878E-2,-2.7248507E-2,7.6506766E-3,-1.6393442E-2,-6.9658324E-2,-5.5611003E-3,4.191813E-2,-3.0054137E-2,-1.9016386E-3,6.0066026E-2,-2.6913814E-3,3.0096743E-2,5.861208E-2,-4.107975E-3,3.081209E-2,2.3688547E-2,-1.5767863E-2],"split_indices":[48,55,0,6,55,47,56,0,0,52,47,48,22,31,0,6,0,67,0,59,47,0,0,39,29,0,0,0,0,0,0,0,0,0,0,0,0],"split_type":[0,0,0,0,0,0,0,0,0,0,0,0,0,0,0,0,0,0,0,0,0,0,0,0,0,0,0,0,0,0,0,0,0,0,0,0,0],"sum_hessian":[1.088459E3,9.046596E2,1.8379941E2,8.665147E2,3.8144882E1,7.089539E1,1.1290401E2,8.648141E2,1.700664E0,1.8829786E1,1.9315094E1,6.429817E1,6.597221E0,1.1098701E2,1.9169981E0,1.3698308E1,5.1314793E0,1.8286392E1,1.0287015E0,1.3160097E1,5.1138077E1,5.5398884E0,1.0573326E0,5.1429058E1,5.9557953E1,1.1573937E1,2.1243703E0,1.656673E1,1.7196624E0,1.4981958E0,1.1661901E1,3.1202677E1,1.9935402E1,3.3743786E1,1.768527E1,6.702697E0,5.2855255E1],"tree_param":{"num_deleted":"0","num_feature":"87","num_nodes":"37","size_leaf_vector":"1"}},{"base_weights":[-5.852276E-1,-6.063779E-1,1.1123538E0,-6.092049E-1,4.2752277E-2,1.4484282E0,2.685715E-1,-6.1738724E-1,-2.937096E-1,7.993094E-2,7.4413116E-3,-2.3117455E-2,5.797884E-2,-3.100861E-2,-4.15884E-1,3.3492488E-1,-4.3658566E-1,-2.6394153E-2,3.311204E-2,-2.1198913E-2,4.255922E-2,-2.5438834E-2,7.032826E-3],"categories":[],"categories_nodes":[],"categories_segments":[],"categories_sizes":[],"default_left":[0,0,0,0,0,0,0,0,0,0,0,0,0,0,0,0,0,0,0,0,0,0,0],"id":8,"left_children":[1,3,5,7,-1,9,11,13,15,-1,-1,-1,-1,-1,17,19,21,-1,-1,-1,-1,-1,-1],"loss_changes":[3.8461273E1,4.8180847E0,3.383585E0,2.500061E0,0E0,1.5747223E0,3.8035452E0,3.097229E-1,2.6759079E0,0E0,0E0,0E0,0E0,0E0,2.3812666E0,2.626121E0,1.0459795E0,0E0,0E0,0E0,0E0,0E0,0E0],"parents":[2147483647,0,0,1,1,2,2,3,3,5,5,6,6,7,7,8,8,14,14,15,15,16,16],"right_children":[2,4,6,8,-1,10,12,14,16,-1,-1,-1,-1,-1,18,20,22,-1,-1,-1,-1,-1,-1],"split_conditions":[1.75476E4,4.2E1,9.433962E-3,1.1E1,4.2752277E-2,5.8E0,2.5224E4,6E0,-2.6331905E-2,7.993094E-2,7.4413116E-3,-2.3117455E-2,5.797884E-2,-3.100861E-2,1.2857E3,-3.846154E-2,1E0,-2.6394153E-2,3.311204E-2,-2.1198913E-2,4.255922E-2,-2.5438834E-2,7.032826E-3],"split_indices":[48,6,64,6,0,3,5,3,42,0,0,0,0,0,52,58,20,0,0,0,0,0,0],"split_type":[0,0,0,0,0,0,0,0,0,0,0,0,0,0,0,0,0,0,0,0,0,0,0],"sum_hessian":[1.051427E3,1.0391233E3,1.2303743E1,1.0376991E3,1.4241848E0,8.286629E0,4.017114E0,1.0105341E3,2.7164932E1,7.221931E0,1.0646979E0,2.4710908E0,1.5460234E0,9.947085E2,1.58256645E1,4.781749E0,2.2383184E1,1.4798698E1,1.0269665E0,2.0082967E0,2.7734523E0,2.0000492E1,2.382691E0],"tree_param":{"num_deleted":"0","num_feature":"87","num_nodes":"23","size_leaf_vector":"1"}},{"base_weights":[6.995888E-1,8.078818E-1,6.026509E-2,8.227019E-1,6.151193E-1,2.4937402E-1,-6.076738E-1,4.117342E-2,1.5424432E-2,-3.3800464E-2,6.41862E-1,8.650153E-2,4.8006067E-1,4.3409646E-2,-7.3192143E-1,6.690671E-1,-3.2874823E-2,3.2403296E-1,-1.0361016E-1,5.354176E-1,-3.881122E-2,3.5604563E-1,-3.4779154E-2,1.4701809E-1,-8.278811E-1,7.958646E-3,3.5941385E-2,2.5581626E-2,2.6576694E-3,-2.4448577E-2,4.533022E-3,3.2463424E-2,7.741629E-6,2.8112957E-2,-1.1910905E-2,3.26692E-2,-3.0823875E-2,-4.465723E-2,-7.076242E-3],"categories":[],"categories_nodes":[],"categories_segments":[],"categories_sizes":[],"default_left":[0,0,0,0,0,0,0,0,0,0,0,0,0,0,0,0,0,0,0,0,0,0,0,0,0,0,0,0,0,0,0,0,0,0,0,0,0,0,0],"id":9,"left_children":[1,3,5,7,9,11,13,-1,-1,-1,15,17,19,21,23,25,-1,27,29,31,-1,33,-1,35,37,-1,-1,-1,-1,-1,-1,-1,-1,-1,-1,-1,-1,-1,-1],"loss_changes":[1.0679724E2,3.263733E0,2.8524275E1,2.2790527E-1,3.8237686E0,6.5625143E0,4.0647545E0,0E0,0E0,0E0,3.8580742E0,4.741108E0,5.4590015E0,2.3115463E0,3.657444E0,2.3013E0,0E0,2.3401618E0,4.4359508E0,4.268875E0,0E0,9.842695E-1,0E0,2.326363E0,1.5733299E0,0E0,0E0,0E0,0E0,0E0,0E0,0E0,0E0,0E0,0E0,0E0,0E0,0E0,0E0],"parents":[2147483647,0,0,1,1,2,2,3,3,4,4,5,5,6,6,10,10,11,11,12,12,13,13,14,14,15,15,17,17,18,18,19,19,21,21,23,23,24,24],"right_children":[2,4,6,8,10,12,14,-1,-1,-1,16,18,20,22,24,26,-1,28,30,32,-1,34,-1,36,38,-1,-1,-1,-1,-1,-1,-1,-1,-1,-1,-1,-1,-1,-1],"split_conditions":[3.25E2,1.07462E5,1.0071942E-1,3.21E2,3.796E0,9.7485634E1,3.3939146E-2,4.117342E-2,1.5424432E-2,-3.3800464E-2,9.0277776E-2,-3.38334E-2,4.6879116E-2,5.1842326E-1,-3.4246575E-2,-8.495227E-2,-3.2874823E-2,2.6427329E-2,3.8953986E0,5.81E0,-3.881122E-2,7.0654945E1,-3.4779154E-2,8.8008E3,-5.0925925E-2,7.958646E-3,3.5941385E-2,2.5581626E-2,2.6576694E-3,-2.4448577E-2,4.533022E-3,3.2463424E-2,7.741629E-6,2.8112957E-2,-1.1910905E-2,3.26692E-2,-3.0823875E-2,-4.465723E-2,-7.076242E-3],"split_indices":[48,41,81,5,21,37,51,0,0,0,39,45,45,71,62,30,0,47,33,3,0,56,0,49,82,0,0,0,0,0,0,0,0,0,0,0,0,0,0],"split_type":[0,0,0,0,0,0,0,0,0,0,0,0,0,0,0,0,0,0,0,0,0,0,0,0,0,0,0,0,0,0,0,0,0,0,0,0,0,0,0],"sum_hessian":[1.5422515E3,1.3186294E3,2.2362209E2,1.221453E3,9.717638E1,1.7476791E2,4.885418E1,1.2190343E3,2.4186537E0,1.479275E0,9.56971E1,1.0324703E2,7.152088E1,7.933196E0,4.0920982E1,9.420968E1,1.4874203E0,4.5586018E1,5.7661015E1,6.905198E1,2.4688966E0,5.9389033E0,1.9942927E0,3.975494E0,3.6945488E1,8.749792E0,8.5459885E1,2.6408112E1,1.9177906E1,1.8817352E1,3.8843662E1,5.6765022E1,1.2286961E1,4.4489455E0,1.489958E0,2.4769502E0,1.4985437E0,3.346237E1,3.4831161E0],"tree_param":{"num_deleted":"0","num_feature":"87","num_nodes":"39","size_leaf_vector":"1"}},{"base_weights":[-4.5964798E-1,-6.081782E-1,2.2561885E-1,-6.2015116E-1,-3.4939608E-1,5.6219035E-1,-8.5842265E-3,-3.1065842E-2,-4.777807E-3,-3.8973165E-1,2.2999795E-2,7.03673E-1,-4.754743E-1,1.6759995E-1,-3.587412E-1,-4.2979896E-1,1.1654775E-2,4.7255018E-1,1.0840359E0,7.8211455E-3,-2.83999E-2,-6.114065E-3,5.822059E-1,4.25682E-2,-4.293215E-1,-6.1970796E-3,-2.548318E-2,5.3198457E-2,1.5039787E-2,1.6484218E-2,6.1898317E-2,-4.3937797E-3,5.5084515E-2,3.284558E-4,4.379816E-2,-2.626541E-2,1.2892306E-2],"categories":[],"categories_nodes":[],"categories_segments":[],"categories_sizes":[],"default_left":[0,0,0,0,0,0,0,0,0,0,0,0,0,0,0,0,0,0,0,0,0,0,0,0,0,0,0,0,0,0,0,0,0,0,0,0,0],"id":10,"left_children":[1,3,5,7,9,11,13,-1,-1,15,-1,17,19,21,23,25,-1,27,29,-1,-1,31,33,-1,35,-1,-1,-1,-1,-1,-1,-1,-1,-1,-1,-1,-1],"loss_changes":[1.0782724E2,2.4783936E0,1.4919129E1,4.482422E-1,1.5098128E0,1.1734594E1,7.003852E0,0E0,0E0,1.0824547E0,0E0,5.530426E0,6.6846585E-1,5.445629E0,3.6105795E0,8.487997E-1,0E0,4.203185E0,2.5189114E0,0E0,0E0,5.009562E0,3.7687025E0,0E0,2.547245E0,0E0,0E0,0E0,0E0,0E0,0E0,0E0,0E0,0E0,0E0,0E0,0E0],"parents":[2147483647,0,0,1,1,2,2,3,3,4,4,5,5,6,6,9,9,11,11,12,12,13,13,14,14,15,15,17,17,18,18,21,21,22,22,24,24],"right_children":[2,4,6,8,10,12,14,-1,-1,16,-1,18,20,22,24,26,-1,28,30,-1,-1,32,34,-1,36,-1,-1,-1,-1,-1,-1,-1,-1,-1,-1,-1,-1],"split_conditions":[1.144E2,9.879157E5,1.2E1,6.1E2,5.9E0,3.1119918E-2,9.88764E1,-3.1065842E-2,-4.777807E-3,4.347826E-2,2.2999795E-2,2.5619427E-2,1.6229026E-1,9.66E2,1.744E2,2.173913E0,1.1654775E-2,7.501456E3,1.4642E3,7.8211455E-3,-2.83999E-2,3.46E2,-1.0191083E-1,4.25682E-2,5.98E0,-6.1970796E-3,-2.548318E-2,5.3198457E-2,1.5039787E-2,1.6484218E-2,6.1898317E-2,-4.3937797E-3,5.5084515E-2,3.284558E-4,4.379816E-2,-2.626541E-2,1.2892306E-2],"split_indices":[48,55,0,5,4,47,36,0,0,66,0,47,34,5,48,28,0,55,48,0,0,12,82,0,3,0,0,0,0,0,0,0,0,0,0,0,0],"split_type":[0,0,0,0,0,0,0,0,0,0,0,0,0,0,0,0,0,0,0,0,0,0,0,0,0,0,0,0,0,0,0,0,0,0,0,0,0],"sum_hessian":[1.0570375E3,8.6883234E2,1.8820518E2,8.2907745E2,3.9754917E1,7.665066E1,1.1155453E2,8.2705524E2,2.022182E0,3.836167E1,1.3932433E0,6.77368E1,8.913852E0,7.45603E1,3.699423E1,3.633417E1,2.027503E0,4.352919E1,2.4207613E1,1.050278E0,7.863574E0,5.3239117E1,2.1321182E1,1.4291406E0,3.556509E1,8.05145E0,2.828272E1,8.627288E0,3.4901905E1,4.6350183E0,1.9572594E1,5.043727E1,2.801848E0,7.5496025E0,1.377158E1,3.1412758E1,4.152331E0],"tree_param":{"num_deleted":"0","num_feature":"87","num_nodes":"37","size_leaf_vector":"1"}},{"base_weights":[-5.752748E-1,-5.989312E-1,7.7898055E-1,-6.0833985E-1,-2.4820234E-1,1.3428276E0,2.6579073E-1,-6.093424E-1,-3.583029E-3,-3.6085504E-1,4.7814083E-1,1.8593026E-2,7.562342E-2,-3.51861E-1,8.3046407E-1,-6.150217E-1,-4.8241824E-1,-4.3316412E-1,3.1562056E-2,4.980963E-2,-1.792161E-2,8.696026E-3,-2.5107557E-2,-1.6185043E-2,1.145834E0,-1.0752447E-2,-3.08035E-2,-2.7974147E-2,-8.9709036E-4,1.7213289E-2,-2.5475746E-2,6.9852464E-2,7.2121E-3],"categories":[],"categories_nodes":[],"categories_segments":[],"categories_sizes":[],"default_left":[0,0,0,0,0,0,0,0,0,0,0,0,0,0,0,0,0,0,0,0,0,0,0,0,0,0,0,0,0,0,0,0,0],"id":11,"left_children":[1,3,5,7,9,11,13,15,-1,17,19,-1,-1,21,23,25,27,29,-1,-1,-1,-1,-1,-1,31,-1,-1,-1,-1,-1,-1,-1,-1],"loss_changes":[3.2732635E1,3.1173096E0,4.7722445E0,4.7494507E-1,2.4279814E0,7.881222E-1,3.9635682E0,3.96698E-1,0E0,2.0262072E0,2.147479E0,0E0,0E0,5.4010457E-1,2.4808478E0,2.5201416E-1,1.6306887E0,1.5623765E0,0E0,0E0,0E0,0E0,0E0,0E0,9.994421E-1,0E0,0E0,0E0,0E0,0E0,0E0,0E0,0E0],"parents":[2147483647,0,0,1,1,2,2,3,3,4,4,5,5,6,6,7,7,9,9,10,10,13,13,14,14,15,15,16,16,17,17,24,24],"right_children":[2,4,6,8,10,12,14,16,-1,18,20,-1,-1,22,24,26,28,30,-1,-1,-1,-1,-1,-1,32,-1,-1,-1,-1,-1,-1,-1,-1],"split_conditions":[8.8008E3,1.1E1,1.0857887E-2,4.248529E0,1.1780644E-1,-5.2083335E-3,4.6004843E-2,1.6153E3,-3.583029E-3,1.6126341E0,5.181347E-3,1.8593026E-2,7.562342E-2,4.54E0,8.431373E1,-7.1E1,1.8064077E0,-7.275277E-1,3.1562056E-2,4.980963E-2,-1.792161E-2,8.696026E-3,-2.5107557E-2,-1.6185043E-2,9.8951164E1,-1.0752447E-2,-3.08035E-2,-2.7974147E-2,-8.9709036E-4,1.7213289E-2,-2.5475746E-2,6.9852464E-2,7.2121E-3],"split_indices":[49,6,54,86,30,58,38,49,0,77,68,0,0,61,36,41,51,77,0,0,0,0,0,0,37,0,0,0,0,0,0,0,0],"split_type":[0,0,0,0,0,0,0,0,0,0,0,0,0,0,0,0,0,0,0,0,0,0,0,0,0,0,0,0,0,0,0,0,0],"sum_hessian":[1.00615796E3,9.894321E2,1.6725828E1,9.6286774E2,2.6564377E1,7.1992774E0,9.526551E0,9.6093726E2,1.9305141E0,2.343318E1,3.1311958E0,1.5454855E0,5.653792E0,4.729834E0,4.796717E0,9.1610016E2,4.4837112E1,2.2366388E1,1.0667926E0,1.8158934E0,1.3153024E0,1.0164853E0,3.7133489E0,1.0237317E0,3.7729852E0,2.93345E0,9.131667E2,3.8281075E1,6.5560384E0,1.6863542E0,2.0680033E1,2.7007625E0,1.072223E0],"tree_param":{"num_deleted":"0","num_feature":"87","num_nodes":"33","size_leaf_vector":"1"}},{"base_weights":[6.774853E-1,7.8140414E-1,3.6801927E-2,7.979849E-1,5.4243636E-1,-3.7115848E-1,3.3559427E-1,3.993664E-2,1.047863E-2,-3.3380385E-2,5.7066894E-1,-1.598669E-1,-7.3305655E-1,1.5429369E-1,6.4134455E-1,6.2351865E-1,1.5453233E-1,-2.997514E-1,3.2192343E-1,1.2824327E-2,-8.029956E-1,3.753191E-1,-1.2746032E-1,7.5501597E-1,1.0493362E-1,1.6521884E-2,3.5578486E-2,-3.2229632E-2,2.9818488E-2,-1.7255612E-3,-2.844185E-2,2.7303716E-2,-3.3227902E-2,-2.2114526E-2,-4.5343004E-2,3.0335232E-3,3.1290397E-2,-1.6154127E-2,1.9548992E-2,4.003125E-3,3.8973417E-2,-1.5451095E-2,3.1946227E-2],"categories":[],"categories_nodes":[],"categories_segments":[],"categories_sizes":[],"default_left":[0,0,0,0,0,0,0,0,0,0,0,0,0,0,0,0,0,0,0,0,0,0,0,0,0,0,0,0,0,0,0,0,0,0,0,0,0,0,0,0,0,0,0],"id":12,"left_children":[1,3,5,7,9,11,13,-1,-1,-1,15,17,19,21,23,25,27,29,31,-1,33,35,37,39,41,-1,-1,-1,-1,-1,-1,-1,-1,-1,-1,-1,-1,-1,-1,-1,-1,-1,-1],"loss_changes":[1.020387E2,4.793457E0,2.6332449E1,3.7445068E-1,3.4113827E0,6.8695993E0,6.809723E0,0E0,0E0,0E0,1.8218803E0,4.070678E0,2.517685E0,5.002139E0,2.7302608E0,1.7535706E0,4.32427E0,3.2790308E0,3.4034853E0,0E0,7.76783E-1,3.4958115E0,3.7489476E0,5.6241226E-1,2.2351081E0,0E0,0E0,0E0,0E0,0E0,0E0,0E0,0E0,0E0,0E0,0E0,0E0,0E0,0E0,0E0,0E0,0E0,0E0],"parents":[2147483647,0,0,1,1,2,2,3,3,4,4,5,5,6,6,10,10,11,11,12,12,13,13,14,14,15,15,16,16,17,17,18,18,20,20,21,21,22,22,23,23,24,24],"right_children":[2,4,6,8,10,12,14,-1,-1,-1,16,18,20,22,24,26,28,30,32,-1,34,36,38,40,42,-1,-1,-1,-1,-1,-1,-1,-1,-1,-1,-1,-1,-1,-1,-1,-1,-1,-1],"split_conditions":[3.566E2,9.879157E5,1.2E1,4.248529E0,3.796E0,7.260777E1,9.8807495E1,3.993664E-2,1.047863E-2,-3.3380385E-2,1.8343982E-1,2.1464797E-3,4.038E0,-1.6393442E-2,6.631123E-2,5.5743497E-2,1.6855864E-1,6E1,1.09862E4,1.2824327E-2,-1.7305315E-2,9.154E2,5.2272728E1,-1.3966557E-1,6.6480446E1,1.6521884E-2,3.5578486E-2,-3.2229632E-2,2.9818488E-2,-1.7255612E-3,-2.844185E-2,2.7303716E-2,-3.3227902E-2,-2.2114526E-2,-4.5343004E-2,3.0335232E-3,3.1290397E-2,-1.6154127E-2,1.9548992E-2,4.003125E-3,3.8973417E-2,-1.5451095E-2,3.1946227E-2],"split_indices":[48,55,0,86,21,56,36,0,0,0,34,31,22,39,46,56,74,36,48,0,42,48,28,46,28,0,0,0,0,0,0,0,0,0,0,0,0,0,0,0,0,0,0],"split_type":[0,0,0,0,0,0,0,0,0,0,0,0,0,0,0,0,0,0,0,0,0,0,0,0,0,0,0,0,0,0,0,0,0,0,0,0,0,0,0,0,0,0,0],"sum_hessian":[1.532027E3,1.3180239E3,2.1400305E2,1.2303191E3,8.770488E1,9.0371216E1,1.23631836E2,1.2284003E3,1.9187922E0,1.483321E0,8.622156E1,5.796848E1,3.2402737E1,7.855548E1,4.507636E1,7.606313E1,1.0158425E1,4.5217678E1,1.2750802E1,1.9629111E0,3.0439823E1,4.3835835E1,3.4719643E1,3.685817E1,8.218188E0,1.8670517E1,5.7392616E1,3.4534626E0,6.704963E0,2.3339735E1,2.1877943E1,1.075375E1,1.9970526E0,7.9810886E0,2.2458735E1,1.9980179E1,2.3855658E1,2.5481546E1,9.238094E0,1.4380541E0,3.5420116E1,4.8667383E0,3.3514504E0],"tree_param":{"num_deleted":"0","num_feature":"87","num_nodes":"43","size_leaf_vector":"1"}},{"base_weights":[-4.5796108E-1,-6.0132474E-1,2.1890451E-1,-6.133869E-1,-3.3972394E-1,5.0352496E-1,2.1832453E-2,-3.0727057E-2,-1.5274015E-1,-3.8013718E-1,2.2285867E-2,3.5966516E-1,8.898566E-1,1.5395099E-1,-3.4041977E-1,8.649002E-3,-1.8350676E-2,-4.2398039E-1,2.3034144E-2,1.24712266E-1,6.3674915E-1,-1.6766688E-2,9.78391E-1,3.888041E-1,-8.890235E-2,-5.5128735E-1,1.443828E-1,-1.3565518E-3,-2.6847636E-2,3.807283E-2,-2.3353898E-3,3.9889675E-2,-1.4185539E-2,5.456533E-2,6.5981573E-3,8.4463125E-3,4.576578E-2,-1.2113444E-2,4.9673047E-2,-2.9884083E-2,3.8252387E-3,5.1278908E-2,-9.151438E-3],"categories":[],"categories_nodes":[],"categories_segments":[],"categories_sizes":[],"default_left":[0,0,0,0,0,0,0,0,0,0,0,0,0,0,0,0,0,0,0,0,0,0,0,0,0,0,0,0,0,0,0,0,0,0,0,0,0,0,0,0,0,0,0],"id":13,"left_children":[1,3,5,7,9,11,13,-1,15,17,-1,19,21,23,25,-1,-1,27,-1,29,31,-1,33,35,37,39,41,-1,-1,-1,-1,-1,-1,-1,-1,-1,-1,-1,-1,-1,-1,-1,-1],"loss_changes":[1.0078807E2,2.4934692E0,1.0199515E1,3.4069824E-1,1.4385605E0,3.8165836E0,5.250305E0,0E0,2.9892516E-1,1.6170073E0,0E0,3.5606055E0,2.445135E0,4.612749E0,3.078575E0,0E0,0E0,1.6520958E0,0E0,3.4738393E0,3.9933643E0,0E0,1.620018E0,4.591088E0,6.926548E0,6.4721394E-1,2.9818397E0,0E0,0E0,0E0,0E0,0E0,0E0,0E0,0E0,0E0,0E0,0E0,0E0,0E0,0E0,0E0,0E0],"parents":[2147483647,0,0,1,1,2,2,3,3,4,4,5,5,6,6,8,8,9,9,11,11,12,12,13,13,14,14,17,17,19,19,20,20,22,22,23,23,24,24,25,25,26,26],"right_children":[2,4,6,8,10,12,14,-1,16,18,-1,20,22,24,26,-1,-1,28,-1,30,32,-1,34,36,38,40,42,-1,-1,-1,-1,-1,-1,-1,-1,-1,-1,-1,-1,-1,-1,-1,-1],"split_conditions":[1.5E2,1.0126478E6,7.0285714E-1,5E0,4.450262E-2,1.7E1,9.85654E1,-3.0727057E-2,5.6E0,3.3264562E-2,2.2285867E-2,1.0071942E-1,-4.310345E-2,4.460166E-1,4.0983606E-2,8.649002E-3,-1.8350676E-2,2.173913E0,2.3034144E-2,7.501456E3,2.18329E4,-1.6766688E-2,2.9126214E-2,6.42E1,9.17211E1,1E0,2.1477663E-5,-1.3565518E-3,-2.6847636E-2,3.807283E-2,-2.3353898E-3,3.9889675E-2,-1.4185539E-2,5.456533E-2,6.5981573E-3,8.4463125E-3,4.576578E-2,-1.2113444E-2,4.9673047E-2,-2.9884083E-2,3.8252387E-3,5.1278908E-2,-9.151438E-3],"split_indices":[48,55,35,6,60,19,37,0,1,47,0,81,68,51,81,0,0,28,0,55,50,0,39,52,56,20,69,0,0,0,0,0,0,0,0,0,0,0,0,0,0,0,0],"split_type":[0,0,0,0,0,0,0,0,0,0,0,0,0,0,0,0,0,0,0,0,0,0,0,0,0,0,0,0,0,0,0,0,0,0,0,0,0,0,0,0,0,0,0],"sum_hessian":[1.0362894E3,8.552538E2,1.8103561E2,8.162715E2,3.8982296E1,7.3429855E1,1.0760576E2,8.138981E2,2.3733845E0,3.7565464E1,1.4168317E0,5.4912758E1,1.8517096E1,7.9269905E1,2.8335848E1,1.0182462E0,1.3551383E0,3.6174934E1,1.3905302E0,3.0500229E1,2.4412529E1,1.0600406E0,1.7457056E1,3.9993202E1,3.9276707E1,1.9651278E1,8.68457E0,8.290881E0,2.7884054E1,5.739321E0,2.4760908E1,2.0890738E1,3.5217905E0,1.5147088E1,2.309967E0,2.9143394E1,1.084981E1,3.5081905E1,4.1947985E0,1.8343632E1,1.3076451E0,1.7749877E0,6.9095826E0],"tree_param":{"num_deleted":"0","num_feature":"87","num_nodes":"43","size_leaf_vector":"1"}},{"base_weights":[-5.685883E-1,-5.915998E-1,1.0571469E0,-5.94593E-1,4.1573662E-2,-3.1027414E-3,1.2247119E0,-3.816727E-1,-6.0778373E-1,1.3834666E0,9.860222E-4,5.0660305E-2,-4.419375E-1,-3.0494764E-2,-2.6194414E-1,7.6163694E-2,1.735667E-2,-1.7794568E-2,3.9095953E-2,-2.3719452E-2,1.2766938E-2,-2.5455346E-2,1.8335152E-2],"categories":[],"categories_nodes":[],"categories_segments":[],"categories_sizes":[],"default_left":[0,0,0,0,0,0,0,0,0,0,0,0,0,0,0,0,0,0,0,0,0,0,0],"id":14,"left_children":[1,3,5,7,-1,-1,9,11,13,15,-1,17,19,-1,21,-1,-1,-1,-1,-1,-1,-1,-1],"loss_changes":[3.7453094E1,4.631714E0,2.719983E0,2.4919434E0,0E0,0E0,2.327715E0,1.5665665E0,5.059204E-1,1.0451374E0,0E0,2.7006242E0,1.3004713E0,0E0,1.3185886E0,0E0,0E0,0E0,0E0,0E0,0E0,0E0,0E0],"parents":[2147483647,0,0,1,1,2,2,3,3,6,6,7,7,8,8,9,9,11,11,12,12,14,14],"right_children":[2,4,6,8,-1,-1,10,12,14,16,-1,18,20,-1,22,-1,-1,-1,-1,-1,-1,-1,-1],"split_conditions":[1.62616E4,4.4E1,4.54E0,1.2E1,4.1573662E-2,-3.1027414E-3,4.3E1,-2.6331905E-2,3.187E3,9.433962E-3,9.860222E-4,9.2864E3,1.5117781E0,-3.0494764E-2,1.8500515E0,7.6163694E-2,1.735667E-2,-1.7794568E-2,3.9095953E-2,-2.3719452E-2,1.2766938E-2,-2.5455346E-2,1.8335152E-2],"split_indices":[48,6,59,0,0,0,11,42,48,66,0,50,71,0,51,0,0,0,0,0,0,0,0],"split_type":[0,0,0,0,0,0,0,0,0,0,0,0,0,0,0,0,0,0,0,0,0,0,0],"sum_hessian":[9.8341693E2,9.703186E2,1.3098303E1,9.68863E2,1.4556419E0,1.7876801E0,1.1310622E1,5.8267315E1,9.1059564E2,9.863073E0,1.4475491E0,7.1479683E0,5.1119347E1,9.0431085E2,6.28479E0,8.27664E0,1.5864335E0,4.923827E0,2.2241411E0,4.915147E1,1.9678768E0,4.647647E0,1.6371428E0],"tree_param":{"num_deleted":"0","num_feature":"87","num_nodes":"23","size_leaf_vector":"1"}},{"base_weights":[6.550059E-1,7.6260847E-1,3.8366158E-2,7.7013534E-1,2.607963E-1,2.0212479E-1,-5.965503E-1,7.780738E-1,6.0093707E-1,4.3870717E-1,-3.009916E-2,6.9426626E-2,4.6943974E-1,-8.6771256E-1,-1.6800973E-1,3.894104E-2,9.951114E-3,-1.589968E-2,6.28408E-1,-2.691218E-1,6.2425464E-1,1.9278227E-1,-1.1099163E-1,5.817952E-1,-3.9927382E-2,-4.4979487E-2,-1.48414625E-2,-4.312735E-1,5.8013093E-1,1.2975228E-2,3.4626316E-2,-3.5472643E-2,9.81016E-3,-1.3942505E-2,3.74591E-2,-5.020822E-4,2.1873722E-2,-1.357991E-2,2.9009089E-2,-1.3880697E-2,3.1613763E-2,2.4008716E-2,-1.7898303E-2,-2.843151E-2,2.4966333E-2,3.5398833E-2,6.997008E-3],"categories":[],"categories_nodes":[],"categories_segments":[],"categories_sizes":[],"default_left":[0,0,0,0,0,0,0,0,0,0,0,0,0,0,0,0,0,0,0,0,0,0,0,0,0,0,0,0,0,0,0,0,0,0,0,0,0,0,0,0,0,0,0,0,0,0,0],"id":15,"left_children":[1,3,5,7,9,11,13,15,17,19,-1,21,23,25,27,-1,-1,-1,29,31,33,35,37,39,41,-1,-1,43,45,-1,-1,-1,-1,-1,-1,-1,-1,-1,-1,-1,-1,-1,-1,-1,-1,-1,-1],"loss_changes":[1.0061853E2,4.677063E0,2.3662079E1,1.2407837E0,3.4256585E0,6.378714E0,5.2783413E0,3.690796E-1,1.7495899E0,2.486621E0,0E0,2.7356243E0,3.4447174E0,2.488575E-1,4.0573044E0,0E0,0E0,0E0,1.238203E0,1.0336518E0,1.821002E0,3.617337E0,5.725528E0,2.3032436E0,2.1138036E0,0E0,0E0,2.1848981E0,2.08071E-1,0E0,0E0,0E0,0E0,0E0,0E0,0E0,0E0,0E0,0E0,0E0,0E0,0E0,0E0,0E0,0E0,0E0,0E0],"parents":[2147483647,0,0,1,1,2,2,3,3,4,4,5,5,6,6,7,7,8,8,9,9,11,11,12,12,13,13,14,14,18,18,19,19,20,20,21,21,22,22,23,23,24,24,27,27,28,28],"right_children":[2,4,6,8,10,12,14,16,18,20,-1,22,24,26,28,-1,-1,-1,30,32,34,36,38,40,42,-1,-1,44,46,-1,-1,-1,-1,-1,-1,-1,-1,-1,-1,-1,-1,-1,-1,-1,-1,-1,-1],"split_conditions":[2.9E2,2.1932E3,4.614999E-2,1.017023E6,7.6412796E-3,9.82E1,5.636E0,4.248529E0,1.096E2,3.00251E3,-3.009916E-2,-1.6393442E-2,6.8599E3,2.1E1,3.716E3,3.894104E-2,9.951114E-3,-1.589968E-2,2.173913E0,4.4642857E1,-9.6969694E-2,4.607623E0,1.1111111E-2,-1.1583012E-2,4.1649694E-4,-4.4979487E-2,-1.48414625E-2,6.1212E0,1.03942655E-1,1.2975228E-2,3.4626316E-2,-3.5472643E-2,9.81016E-3,-1.3942505E-2,3.74591E-2,-5.020822E-4,2.1873722E-2,-1.357991E-2,2.9009089E-2,-1.3880697E-2,3.1613763E-2,2.4008716E-2,-1.7898303E-2,-2.843151E-2,2.4966333E-2,3.5398833E-2,6.997008E-3],"split_indices":[48,7,30,41,44,36,23,86,50,7,0,39,7,19,48,0,0,0,28,28,40,27,64,39,75,0,0,24,45,0,0,0,0,0,0,0,0,0,0,0,0,0,0,0,0,0,0],"split_type":[0,0,0,0,0,0,0,0,0,0,0,0,0,0,0,0,0,0,0,0,0,0,0,0,0,0,0,0,0,0,0,0,0,0,0,0,0,0,0,0,0,0,0,0,0,0,0],"sum_hessian":[1.515876E3,1.2904567E3,2.2541928E2,1.2708599E3,1.9596804E1,1.7974168E2,4.56776E1,1.2104684E3,6.0391495E1,1.665413E1,2.9426732E0,1.2095699E2,5.878469E1,2.7348085E1,1.8329517E1,1.2085642E3,1.9041406E0,1.445992E0,5.8945503E1,3.365387E0,1.3288743E1,7.179842E1,4.915857E1,4.8044838E1,1.0739854E1,2.5356438E1,1.9916475E0,1.3871725E1,4.4577913E0,9.475516E0,4.9469986E1,1.4595724E0,1.9058144E0,1.4651345E0,1.1823608E1,3.9782173E1,3.2016247E1,4.038211E1,8.776461E0,2.415869E0,4.5628967E1,3.8818715E0,6.8579826E0,1.2426531E1,1.445194E0,2.9830706E0,1.4747207E0],"tree_param":{"num_deleted":"0","num_feature":"87","num_nodes":"47","size_leaf_vector":"1"}},{"base_weights":[-4.469858E-1,-5.940392E-1,2.197706E-1,-6.0669583E-1,-3.1145316E-1,5.253414E-1,9.405207E-3,-3.0396014E-2,-1.3114391E-1,3.636625E-2,-4.0082517E-1,2.5805157E-1,8.182796E-1,-1.6438551E-1,4.3452334E-1,8.759859E-3,-1.7317785E-2,-2.3204355E-2,3.7751836E-1,-4.562964E-1,1.1910632E-2,5.16163E-2,6.694533E-1,4.7856584E-1,1.1680236E0,1.775663E-1,-3.72952E-1,7.1284115E-1,-2.7742311E-2,5.754715E-2,-2.5171912E-3,-2.5849735E-2,3.8770458E-4,3.612354E-2,-8.169326E-3,5.0558407E-2,4.8475133E-5,4.0333334E-2,-8.811348E-3,7.105919E-2,2.9620096E-2,-1.0607297E-2,2.7745677E-2,2.5726035E-3,-2.2405677E-2,1.5715292E-3,4.5773514E-2],"categories":[],"categories_nodes":[],"categories_segments":[],"categories_sizes":[],"default_left":[0,0,0,0,0,0,0,0,0,0,0,0,0,0,0,0,0,0,0,0,0,0,0,0,0,0,0,0,0,0,0,0,0,0,0,0,0,0,0,0,0,0,0,0,0,0,0],"id":16,"left_children":[1,3,5,7,9,11,13,-1,15,17,19,21,23,25,27,-1,-1,-1,29,31,-1,33,35,37,39,41,43,45,-1,-1,-1,-1,-1,-1,-1,-1,-1,-1,-1,-1,-1,-1,-1,-1,-1,-1,-1],"loss_changes":[9.745351E1,2.720642E0,1.1571505E1,3.730774E-1,1.1625211E0,5.5368557E0,8.026928E0,0E0,2.76401E-1,1.6205946E0,1.1531034E0,3.3495166E0,3.5477066E0,5.5691366E0,9.075022E0,0E0,0E0,0E0,1.9063311E0,7.7726984E-1,0E0,4.10129E0,3.0212002E0,4.272995E0,1.5387363E0,4.516086E0,1.5621476E0,3.4283218E0,0E0,0E0,0E0,0E0,0E0,0E0,0E0,0E0,0E0,0E0,0E0,0E0,0E0,0E0,0E0,0E0,0E0,0E0,0E0],"parents":[2147483647,0,0,1,1,2,2,3,3,4,4,5,5,6,6,8,8,9,9,10,10,11,11,12,12,13,13,14,14,18,18,19,19,21,21,22,22,23,23,24,24,25,25,26,26,27,27],"right_children":[2,4,6,8,10,12,14,-1,16,18,20,22,24,26,28,-1,-1,-1,30,32,-1,34,36,38,40,42,44,46,-1,-1,-1,-1,-1,-1,-1,-1,-1,-1,-1,-1,-1,-1,-1,-1,-1,-1,-1],"split_conditions":[1.144E2,9.879157E5,7.0285714E-1,4.34E2,6.2535934E-2,1.0071942E-1,9.66E2,-3.0396014E-2,4.68E0,2.8892858E0,4.347826E-2,1.5E1,5.5555557E1,-1.0471204E-2,3.718748E4,8.759859E-3,-1.7317785E-2,-2.3204355E-2,-4E-1,9.287E2,1.1910632E-2,7.501456E3,4.31E3,2.97701E-1,1.6638935E-3,-4.1420117E-2,-4.6452367E-1,-1.4712716E0,-2.7742311E-2,5.754715E-2,-2.5171912E-3,-2.5849735E-2,3.8770458E-4,3.612354E-2,-8.169326E-3,5.0558407E-2,4.8475133E-5,4.0333334E-2,-8.811348E-3,7.105919E-2,2.9620096E-2,-1.0607297E-2,2.7745677E-2,2.5726035E-3,-2.2405677E-2,1.5715292E-3,4.5773514E-2],"split_indices":[48,55,35,5,34,81,5,0,1,35,66,19,28,78,7,0,0,0,52,49,0,55,7,86,68,78,77,86,0,0,0,0,0,0,0,0,0,0,0,0,0,0,0,0,0,0,0],"split_type":[0,0,0,0,0,0,0,0,0,0,0,0,0,0,0,0,0,0,0,0,0,0,0,0,0,0,0,0,0,0,0,0,0,0,0,0,0,0,0,0,0,0,0,0,0,0,0],"sum_hessian":[9.915974E2,8.125076E2,1.7908978E2,7.765788E2,3.5928833E1,7.2410736E1,1.0667905E2,7.743067E2,2.2720518E0,7.4659243E0,2.846291E1,3.884644E1,3.3564297E1,7.615839E1,3.0520666E1,1.0142536E0,1.2577981E0,2.8803055E0,4.5856185E0,2.6452667E1,2.0102422E0,2.661626E1,1.223018E1,1.8227684E1,1.5336612E1,2.8909279E1,4.7249104E1,2.403806E1,6.4826055E0,1.0313374E0,3.5542812E0,2.3291964E1,3.160705E0,5.887069E0,2.072919E1,7.753914E0,4.476266E0,1.1988563E1,6.239121E0,9.631633E0,5.7049785E0,1.4436999E1,1.4472279E1,7.1562653E0,4.009284E1,5.77448E0,1.826358E1],"tree_param":{"num_deleted":"0","num_feature":"87","num_nodes":"47","size_leaf_vector":"1"}},{"base_weights":[-5.675007E-1,-5.8814985E-1,9.017412E-1,-6.018048E-1,-3.630943E-1,1.1609627E0,-4.4992636E-3,-6.029051E-1,2.9253025E-4,3.189182E-2,-3.9402536E-1,1.7488357E-1,6.9932304E-2,2.7172117E-2,-2.128392E-2,-3.0197686E-2,-3.4856805E-1,7.6335624E-2,-4.6459436E-1,2.908337E-2,-1.660685E-2,-2.4450315E-2,5.184851E-3,2.2411702E-2,-2.281196E-2,4.700954E-3,-2.5871111E-2],"categories":[],"categories_nodes":[],"categories_segments":[],"categories_sizes":[],"default_left":[0,0,0,0,0,0,0,0,0,0,0,0,0,0,0,0,0,0,0,0,0,0,0,0,0,0,0],"id":17,"left_children":[1,3,5,7,9,11,13,15,-1,-1,17,19,-1,-1,-1,-1,21,23,25,-1,-1,-1,-1,-1,-1,-1,-1],"loss_changes":[2.9231812E1,2.65036E0,3.1781034E0,5.909729E-1,1.9826584E0,2.2177734E0,1.1545092E0,2.3376465E-2,0E0,0E0,1.8565512E0,8.497723E-1,0E0,0E0,0E0,0E0,4.2964178E-1,1.7922463E0,1.46064E0,0E0,0E0,0E0,0E0,0E0,0E0,0E0,0E0],"parents":[2147483647,0,0,1,1,2,2,3,3,4,4,5,5,6,6,7,7,10,10,11,11,16,16,17,17,18,18],"right_children":[2,4,6,8,10,12,14,16,-1,-1,18,20,-1,-1,-1,-1,22,24,26,-1,-1,-1,-1,-1,-1,-1,-1],"split_conditions":[1.62616E4,1.884E3,9.433962E-3,4.248529E0,-1.4048128E-1,5.507E3,-1.0256411E-2,4.989E3,2.9253025E-4,3.189182E-2,2.0805E3,1.6420361E-3,6.9932304E-2,2.7172117E-2,-2.128392E-2,-3.0197686E-2,6.6600065E-4,1.7541192E-2,-2.6548672E-2,2.908337E-2,-1.660685E-2,-2.4450315E-2,5.184851E-3,2.2411702E-2,-2.281196E-2,4.700954E-3,-2.5871111E-2],"split_indices":[48,49,64,86,29,5,60,5,0,0,49,66,0,0,0,0,42,73,58,0,0,0,0,0,0,0,0],"split_type":[0,0,0,0,0,0,0,0,0,0,0,0,0,0,0,0,0,0,0,0,0,0,0,0,0,0,0],"sum_hessian":[9.4503894E2,9.325326E2,1.250638E1,8.7761066E2,5.492192E1,9.506158E0,3.0002222E0,8.760322E2,1.578411E0,1.0581725E0,5.3863747E1,2.183448E0,7.32271E0,1.1777354E0,1.8224868E0,8.710662E2,4.966013E0,7.016331E0,4.6847416E1,1.1297891E0,1.0536588E0,3.7273502E0,1.2386626E0,4.224627E0,2.7917042E0,3.9801943E0,4.286722E1],"tree_param":{"num_deleted":"0","num_feature":"87","num_nodes":"27","size_leaf_vector":"1"}},{"base_weights":[6.3927203E-1,7.5015205E-1,9.966629E-2,7.5160736E-1,-1.3881849E-2,-3.0327085E-1,3.4326205E-1,6.0222685E-1,3.7985355E-2,-5.109552E-2,-5.6911945E-1,4.339147E-1,5.0579242E-2,6.2406254E-1,5.503652E-5,-4.3571234E-2,6.882543E-2,1.1293233E-1,-6.7158115E-1,-7.552721E-2,4.960487E-1,2.340413E-1,-4.1080898E-1,3.7143116E-3,3.238396E-2,8.810114E-3,-4.1155525E-2,-3.1567972E-2,2.6958285E-2,1.2918099E-2,-3.76154E-2,9.388222E-3,-3.448134E-2,-5.916764E-4,2.6610656E-2,-3.220955E-2,1.9113613E-2,1.37538435E-2,-4.0321242E-2],"categories":[],"categories_nodes":[],"categories_segments":[],"categories_sizes":[],"default_left":[0,0,0,0,0,0,0,0,0,0,0,0,0,0,0,0,0,0,0,0,0,0,0,0,0,0,0,0,0,0,0,0,0,0,0,0,0,0,0],"id":18,"left_children":[1,3,5,7,-1,9,11,13,-1,15,17,19,21,23,-1,-1,25,27,29,31,33,35,37,-1,-1,-1,-1,-1,-1,-1,-1,-1,-1,-1,-1,-1,-1,-1,-1],"loss_changes":[8.837439E1,2.0427246E0,2.4950834E1,1.024292E0,0E0,6.4005995E0,4.17638E0,8.894386E-1,0E0,5.0100017E0,3.3316994E0,3.8574867E0,3.3594334E0,8.014946E-1,0E0,0E0,4.4382863E0,2.542341E0,3.245905E0,2.3909678E0,1.9843636E0,3.9200501E0,3.296465E0,0E0,0E0,0E0,0E0,0E0,0E0,0E0,0E0,0E0,0E0,0E0,0E0,0E0,0E0,0E0,0E0],"parents":[2147483647,0,0,1,1,2,2,3,3,5,5,6,6,7,7,9,9,10,10,11,11,12,12,13,13,16,16,17,17,18,18,19,19,20,20,21,21,22,22],"right_children":[2,4,6,8,-1,10,12,14,-1,16,18,20,22,24,-1,-1,26,28,30,32,34,36,38,-1,-1,-1,-1,-1,-1,-1,-1,-1,-1,-1,-1,-1,-1,-1,-1],"split_conditions":[1.144E2,7.999E3,1.2E1,2.1E1,-1.3881849E-2,3.016698E-2,9.55E2,8.241485E-3,3.7985355E-2,1.4085E3,3.3939146E-2,3.99E0,1.8500515E0,3.85E0,5.503652E-5,-4.3571234E-2,1.02E0,1.4285715E-1,-2.5568182E-2,2.4E1,1.84E2,-3.5947714E-2,-5.935213E-1,3.7143116E-3,3.238396E-2,8.810114E-3,-4.1155525E-2,-3.1567972E-2,2.6958285E-2,1.2918099E-2,-3.76154E-2,9.388222E-3,-3.448134E-2,-5.916764E-4,2.6610656E-2,-3.220955E-2,1.9113613E-2,1.37538435E-2,-4.0321242E-2],"split_indices":[48,5,0,0,0,29,5,72,0,49,51,2,51,59,0,0,35,81,62,9,48,64,74,0,0,0,0,0,0,0,0,0,0,0,0,0,0,0,0],"split_type":[0,0,0,0,0,0,0,0,0,0,0,0,0,0,0,0,0,0,0,0,0,0,0,0,0,0,0,0,0,0,0,0,0,0,0,0,0,0,0],"sum_hessian":[1.4773046E3,1.2251637E3,2.521409E2,1.2236997E3,1.4640325E0,9.490744E1,1.5723347E2,6.6814224E1,1.1568855E3,4.93181E1,4.5589336E1,1.19681854E2,3.755161E1,6.443548E1,2.378749E0,5.490847E0,4.382725E1,5.9408655E0,3.964847E1,1.2986756E1,1.066951E2,2.722061E1,1.0331E1,2.8246853E0,6.1610794E1,3.983421E1,3.9930434E0,1.9880553E0,3.95281E0,2.9911435E0,3.6657326E1,9.575542E0,3.4112144E0,7.137069E0,9.955803E1,3.4477396E0,2.3772871E1,3.890559E0,6.4404416E0],"tree_param":{"num_deleted":"0","num_feature":"87","num_nodes":"39","size_leaf_vector":"1"}},{"base_weights":[-4.4764987E-1,-5.900711E-1,1.6295344E-1,-6.005573E-1,-3.4909305E-1,3.385987E-1,-1.1114698E-1,-3.0090109E-2,-1.3091631E-1,-2.397337E-2,-2.9430026E-2,1.419141E-1,7.0311224E-1,-2.0679817E-1,3.8198808E-1,8.930588E-3,-1.7378382E-2,-2.73435E-1,8.6666805E-1,-2.1753658E-1,3.4213337E-1,2.3951231E-1,9.774301E-1,1.9400959E-1,-4.0170524E-1,1.0845765E0,-1.7256814E-1,-2.3101507E-2,1.4483275E-2,3.9828024E-3,6.2682435E-2,2.6381645E-2,-1.6443757E-2,5.1707733E-2,1.0618069E-2,2.6694534E-2,-2.6306344E-2,-2.0506794E-2,5.5133283E-2,6.6271715E-2,7.0236425E-4,8.627439E-3,-2.5046507E-2,7.491969E-2,-1.6711745E-2,-2.61163E-2,2.0072212E-2],"categories":[],"categories_nodes":[],"categories_segments":[],"categories_sizes":[],"default_left":[0,0,0,0,0,0,0,0,0,0,0,0,0,0,0,0,0,0,0,0,0,0,0,0,0,0,0,0,0,0,0,0,0,0,0,0,0,0,0,0,0,0,0,0,0,0,0],"id":19,"left_children":[1,3,5,7,9,11,13,-1,15,17,-1,19,21,23,25,-1,-1,27,29,31,33,35,37,39,41,43,45,-1,-1,-1,-1,-1,-1,-1,-1,-1,-1,-1,-1,-1,-1,-1,-1,-1,-1,-1,-1],"loss_changes":[8.453201E1,1.780365E0,8.916427E0,3.616333E-1,2.7290778E0,7.9760714E0,3.5118034E0,0E0,2.8132746E-1,3.7887385E0,0E0,5.4301853E0,4.7543373E0,4.8903522E0,4.930526E0,0E0,0E0,1.5407726E0,1.0384712E0,2.433013E0,4.107527E0,3.8660145E0,4.678213E0,4.2225757E0,2.4666772E0,3.7344804E0,1.748871E0,0E0,0E0,0E0,0E0,0E0,0E0,0E0,0E0,0E0,0E0,0E0,0E0,0E0,0E0,0E0,0E0,0E0,0E0,0E0,0E0],"parents":[2147483647,0,0,1,1,2,2,3,3,4,4,5,5,6,6,8,8,9,9,11,11,12,12,13,13,14,14,17,17,18,18,19,19,20,20,21,21,22,22,23,23,24,24,25,25,26,26],"right_children":[2,4,6,8,10,12,14,-1,16,18,-1,20,22,24,26,-1,-1,28,30,32,34,36,38,40,42,44,46,-1,-1,-1,-1,-1,-1,-1,-1,-1,-1,-1,-1,-1,-1,-1,-1,-1,-1,-1,-1],"split_conditions":[1.144E2,9.951592E5,1.4621428E0,5E0,9.5945946E1,2.2E1,5.98E0,-3.0090109E-2,3.775668E-9,-1.336074E-2,-2.9430026E-2,4.25E0,3.09017E-1,-5.9973173E-2,-2.2421526E-3,8.930588E-3,-1.7378382E-2,-2.2698613E-2,-9.728567E-4,-1.253406E-1,4.5E0,3.8749673E-3,-2.1849551E0,-3.5714287E-2,1.77E0,1.6420361E-3,2.7731532E-1,-2.3101507E-2,1.4483275E-2,3.9828024E-3,6.2682435E-2,2.6381645E-2,-1.6443757E-2,5.1707733E-2,1.0618069E-2,2.6694534E-2,-2.6306344E-2,-2.0506794E-2,5.5133283E-2,6.6271715E-2,7.0236425E-4,8.627439E-3,-2.5046507E-2,7.491969E-2,-1.6711745E-2,-2.61163E-2,2.0072212E-2],"split_indices":[48,55,35,6,36,9,4,0,29,44,0,1,18,29,81,0,0,43,75,29,61,31,71,68,35,64,74,0,0,0,0,0,0,0,0,0,0,0,0,0,0,0,0,0,0,0,0],"split_type":[0,0,0,0,0,0,0,0,0,0,0,0,0,0,0,0,0,0,0,0,0,0,0,0,0,0,0,0,0,0,0,0,0,0,0,0,0,0,0,0,0,0,0,0,0,0,0],"sum_hessian":[9.6994116E2,7.8652124E2,1.834199E2,7.5229285E2,3.4228436E1,1.1164304E2,7.177686E1,7.500234E2,2.2694428E0,1.4985901E1,1.9242533E1,7.341762E1,3.8225426E1,6.0602676E1,1.1174183E1,1.006724E0,1.2627189E0,1.2248253E1,2.7376478E0,2.6233864E1,4.7183754E1,1.49064665E1,2.3318958E1,1.9829601E1,4.0773075E1,4.5075903E0,6.6665926E0,9.309709E0,2.9385443E0,1.299883E0,1.4377646E0,2.9241366E0,2.3309727E1,6.350438E0,4.0833317E1,1.0985406E1,3.9210606E0,1.7421076E0,2.157685E1,1.8477448E0,1.7981857E1,5.8983E0,3.4874775E1,3.4463267E0,1.0612634E0,4.198439E0,2.4681532E0],"tree_param":{"num_deleted":"0","num_feature":"87","num_nodes":"47","size_leaf_vector":"1"}},{"base_weights":[-5.5732673E-1,-5.791189E-1,8.996222E-1,-5.822574E-1,3.1737495E-2,-1.6922463E-2,1.0290589E0,-3.7579966E-1,-5.960402E-1,1.123109E-4,1.1624086E0,-4.1801393E-1,4.7193527E-1,-2.9971918E-2,-2.5889015E-1,6.310144E-2,6.220508E-3,8.673388E-4,-2.4271987E-2,5.6689113E-2,-1.7165046E-2,1.62288E-2,-2.627103E-2],"categories":[],"categories_nodes":[],"categories_segments":[],"categories_sizes":[],"default_left":[0,0,0,0,0,0,0,0,0,0,0,0,0,0,0,0,0,0,0,0,0,0,0],"id":20,"left_children":[1,3,5,7,-1,-1,9,11,13,-1,15,17,19,-1,21,-1,-1,-1,-1,-1,-1,-1,-1],"loss_changes":[2.9782166E1,3.8312683E0,2.5875444E0,2.3564148E0,0E0,0E0,1.7634878E0,2.3249817E0,8.1677246E-1,0E0,1.023243E0,1.686491E0,2.1643577E0,0E0,1.7607456E0,0E0,0E0,0E0,0E0,0E0,0E0,0E0,0E0],"parents":[2147483647,0,0,1,1,2,2,3,3,6,6,7,7,8,8,10,10,11,11,12,12,14,14],"right_children":[2,4,6,8,-1,-1,10,12,14,-1,16,18,20,-1,22,-1,-1,-1,-1,-1,-1,-1,-1],"split_conditions":[1.75476E4,2.212E4,-2.5189433E-1,1.2E1,3.1737495E-2,-1.6922463E-2,4.54E0,2.1709862E0,1.9318E3,1.123109E-4,4.3E1,-1.5995154E-2,2.1947347E-1,-2.9971918E-2,9.7485634E1,6.310144E-2,6.220508E-3,8.673388E-4,-2.4271987E-2,5.6689113E-2,-1.7165046E-2,1.62288E-2,-2.627103E-2],"split_indices":[48,5,77,0,0,0,59,86,49,0,11,31,46,0,37,0,0,0,0,0,0,0,0],"split_type":[0,0,0,0,0,0,0,0,0,0,0,0,0,0,0,0,0,0,0,0,0,0,0],"sum_hessian":[9.2061285E2,9.0763947E2,1.2973383E1,9.0581775E2,1.821706E0,1.0751079E0,1.1898275E1,5.845554E1,8.4736224E2,1.484471E0,1.0413804E1,5.6165592E1,2.2899468E0,8.381366E2,9.225654E0,9.304947E0,1.1088573E0,7.631647E0,4.8533943E1,1.0482155E0,1.2417313E0,2.8245668E0,6.401087E0],"tree_param":{"num_deleted":"0","num_feature":"87","num_nodes":"23","size_leaf_vector":"1"}},{"base_weights":[6.1852074E-1,7.244823E-1,4.8330374E-2,7.402645E-1,4.8767677E-1,2.8622374E-1,-3.276175E-1,7.4178654E-1,1.6432332E-1,-3.3117574E-2,5.182318E-1,1.3401803E-1,5.051653E-1,1.6205288E-1,-4.462615E-1,3.7127897E-2,8.912848E-3,-6.007863E-3,2.2301018E-2,5.670861E-1,1.07999206E-1,-2.1778089E-1,2.4427097E-1,5.476585E-1,-3.2466237E-2,4.7603607E-1,-4.8507085E-1,-5.214176E-1,5.101116E-2,3.2142475E-2,1.8017717E-2,-4.149746E-2,3.305865E-2,-2.1978281E-2,2.4832932E-2,2.5978396E-2,5.1428573E-3,-1.6342077E-2,2.8850941E-2,3.330749E-2,-1.0923169E-2,2.362349E-2,-4.2632658E-2,-8.822492E-3,-3.130613E-2,1.5301379E-2,-3.39825E-2],"categories":[],"categories_nodes":[],"categories_segments":[],"categories_sizes":[],"default_left":[0,0,0,0,0,0,0,0,0,0,0,0,0,0,0,0,0,0,0,0,0,0,0,0,0,0,0,0,0,0,0,0,0,0,0,0,0,0,0,0,0,0,0,0,0,0,0],"id":21,"left_children":[1,3,5,7,9,11,13,15,17,-1,19,21,23,25,27,-1,-1,-1,-1,29,31,33,35,37,-1,39,41,43,45,-1,-1,-1,-1,-1,-1,-1,-1,-1,-1,-1,-1,-1,-1,-1,-1,-1,-1],"loss_changes":[8.721399E1,4.1898804E0,2.042939E1,8.7719727E-1,3.1197834E0,4.590727E0,5.2188587E0,3.6157227E-1,3.9726913E-1,0E0,1.4926109E0,3.3044944E0,3.150278E0,3.8905358E0,2.7015734E0,0E0,0E0,0E0,0E0,8.4978676E-1,5.470457E0,3.4714198E0,2.44958E0,1.6132526E0,0E0,1.8133597E0,2.64823E0,2.1385841E0,2.1287255E0,0E0,0E0,0E0,0E0,0E0,0E0,0E0,0E0,0E0,0E0,0E0,0E0,0E0,0E0,0E0,0E0,0E0,0E0],"parents":[2147483647,0,0,1,1,2,2,3,3,4,4,5,5,6,6,7,7,8,8,10,10,11,11,12,12,13,13,14,14,19,19,20,20,21,21,22,22,23,23,25,25,26,26,27,27,28,28],"right_children":[2,4,6,8,10,12,14,16,18,-1,20,22,24,26,28,-1,-1,-1,-1,30,32,34,36,38,-1,40,42,44,46,-1,-1,-1,-1,-1,-1,-1,-1,-1,-1,-1,-1,-1,-1,-1,-1,-1,-1],"split_conditions":[2.9E2,9.879157E5,5.4E3,6.2E2,3.796E0,9.7485634E1,-4.054906E-2,4.248529E0,5.87E0,-3.3117574E-2,1.8985382E-1,4.12E0,4.2557742E-2,1.6666667E-3,6.03E0,3.7127897E-2,8.912848E-3,-6.007863E-3,2.2301018E-2,1.5E1,1.6855864E-1,2.2791734E0,2.631579E1,-6.504065E-2,-3.2466237E-2,9.5105654E-1,1.08277276E-1,4.51E0,4.0358415E-1,3.2142475E-2,1.8017717E-2,-4.149746E-2,3.305865E-2,-2.1978281E-2,2.4832932E-2,2.5978396E-2,5.1428573E-3,-1.6342077E-2,2.8850941E-2,3.330749E-2,-1.0923169E-2,2.362349E-2,-4.2632658E-2,-8.822492E-3,-3.130613E-2,1.5301379E-2,-3.39825E-2],"split_indices":[48,55,7,5,21,37,46,86,2,0,34,67,45,58,57,0,0,0,0,19,74,51,28,80,0,17,34,2,74,0,0,0,0,0,0,0,0,0,0,0,0,0,0,0,0,0,0],"split_type":[0,0,0,0,0,0,0,0,0,0,0,0,0,0,0,0,0,0,0,0,0,0,0,0,0,0,0,0,0,0,0,0,0,0,0,0,0,0,0,0,0,0,0,0,0,0,0],"sum_hessian":[1.4430826E3,1.2167051E3,2.2637749E2,1.1386898E3,7.801536E1,1.3879135E2,8.758613E1,1.1354011E3,3.2885938E0,1.4839834E0,7.653137E1,8.2824684E1,5.596667E1,1.7011206E1,7.057492E1,1.133532E3,1.8692485E0,1.9215295E0,1.3670644E0,6.8045525E1,8.4858465E0,1.9530573E1,6.3294113E1,5.4486805E1,1.4798636E0,1.1631841E1,5.379365E0,6.126672E1,9.308203E0,4.825235E1,1.9793177E1,2.9624484E0,5.5233984E0,1.5197519E1,4.3330526E0,2.0571842E1,4.272227E1,1.4407862E0,5.304602E1,9.16407E0,2.4677708E0,1.4130554E0,3.9663098E0,1.4891008E1,4.637571E1,7.33077E0,1.9774327E0],"tree_param":{"num_deleted":"0","num_feature":"87","num_nodes":"47","size_leaf_vector":"1"}},{"base_weights":[-4.299415E-1,1.0116328E-1,-2.98661E-2,4.2180273E-1,-8.314162E-2,8.531339E-1,2.5553492E-1,-2.4087594E-1,3.1199026E-1,1.0567919E0,-2.9352903E-1,5.3270895E-2,6.2648374E-1,5.959608E-2,-3.6271927E-1,1.1046952E0,1.4598587E-1,5.8788437E-2,-3.4772921E-3,-2.3342384E-2,4.0747644E-3,2.727665E-2,-3.873563E-3,1.5704298E-2,5.09646E-2,-5.5144965E-3,6.0360856E-2,-6.749847E-3,-2.4996484E-2,6.2686324E-2,6.8735327E-3,-2.0003488E-2,1.8577605E-2],"categories":[],"categories_nodes":[],"categories_segments":[],"categories_sizes":[],"default_left":[0,0,0,0,0,0,0,0,0,0,0,0,0,0,0,0,0,0,0,0,0,0,0,0,0,0,0,0,0,0,0,0,0],"id":22,"left_children":[1,3,-1,5,7,9,11,13,15,17,19,21,23,25,27,29,31,-1,-1,-1,-1,-1,-1,-1,-1,-1,-1,-1,-1,-1,-1,-1,-1],"loss_changes":[8.39792E1,1.3453881E1,0E0,5.7377186E0,9.11395E0,5.606085E0,4.5710115E0,3.836913E0,5.3408365E0,2.6915607E0,3.1123117E-1,2.6685345E0,2.3256874E0,6.1625657E0,2.2536879E0,8.4930134E-1,4.5488462E0,0E0,0E0,0E0,0E0,0E0,0E0,0E0,0E0,0E0,0E0,0E0,0E0,0E0,0E0,0E0,0E0],"parents":[2147483647,0,0,1,1,3,3,4,4,5,5,6,6,7,7,8,8,9,9,10,10,11,11,12,12,13,13,14,14,15,15,16,16],"right_children":[2,4,-1,6,8,10,12,14,16,18,20,22,24,26,28,30,32,-1,-1,-1,-1,-1,-1,-1,-1,-1,-1,-1,-1,-1,-1,-1,-1],"split_conditions":[2.1E1,8.9428574E-1,-2.98661E-2,-1.7271264E-1,1.338E2,1.0416667E-2,1.5E1,-1.0417581E-2,2.147997E-3,9.73545E1,-1.2648058E-3,7E0,6.993007E-3,3.025E3,2.1E1,1.6666667E-3,-4.184354E-1,5.8788437E-2,-3.4772921E-3,-2.3342384E-2,4.0747644E-3,2.727665E-2,-3.873563E-3,1.5704298E-2,5.09646E-2,-5.5144965E-3,6.0360856E-2,-6.749847E-3,-2.4996484E-2,6.2686324E-2,6.8735327E-3,-2.0003488E-2,1.8577605E-2],"split_indices":[0,35,0,77,52,58,19,31,51,37,31,11,43,5,11,60,74,0,0,0,0,0,0,0,0,0,0,0,0,0,0,0,0],"split_type":[0,0,0,0,0,0,0,0,0,0,0,0,0,0,0,0,0,0,0,0,0,0,0,0,0,0,0,0,0,0,0,0,0],"sum_hessian":[9.430043E2,2.2607024E2,7.16934E2,8.204539E1,1.4402486E2,2.1677818E1,6.0367573E1,1.0321316E2,4.0811695E1,1.8474882E1,3.2029355E0,3.9806328E1,2.0561241E1,2.99257E1,7.328746E1,6.08759E0,3.4724106E1,1.6670107E1,1.8047755E0,2.0231051E0,1.1798304E0,7.6878676E0,3.211846E1,1.2455254E1,8.105988E0,2.685427E1,3.0714269E0,2.8301132E1,4.498633E1,5.018173E0,1.0694168E0,9.924657E0,2.4799448E1],"tree_param":{"num_deleted":"0","num_feature":"87","num_nodes":"33","size_leaf_vector":"1"}},{"base_weights":[-5.546564E-1,-5.768327E-1,1.039709E0,-2.9707951E-2,-3.715203E-1,1.1888483E0,-1.2779832E-3,8.746585E-2,-4.4334775E-1,7.681583E-3,6.4069554E-2,-3.757119E-1,6.8631786E-1,1.5220201E-1,-4.8346865E-1,-2.5356492E-2,8.870422E-3,5.538827E-2,-2.6226125E-3,-2.0209841E-2,3.590977E-2,-2.707144E-2,-3.984216E-3],"categories":[],"categories_nodes":[],"categories_segments":[],"categories_sizes":[],"default_left":[0,0,0,0,0,0,0,0,0,0,0,0,0,0,0,0,0,0,0,0,0,0,0],"id":23,"left_children":[1,3,5,-1,7,9,-1,11,13,-1,-1,15,17,19,21,-1,-1,-1,-1,-1,-1,-1,-1],"loss_changes":[3.239795E1,2.9368896E0,2.047182E0,0E0,2.404149E0,8.719425E-1,0E0,3.182456E0,1.5598898E0,0E0,0E0,5.6911504E-1,1.5999868E0,1.7661964E0,1.3263636E0,0E0,0E0,0E0,0E0,0E0,0E0,0E0,0E0],"parents":[2147483647,0,0,1,1,2,2,4,4,5,5,7,7,8,8,11,11,12,12,13,13,14,14],"right_children":[2,4,6,-1,8,10,-1,12,14,-1,-1,16,18,20,22,-1,-1,-1,-1,-1,-1,-1,-1],"split_conditions":[1.62616E4,1.35685E3,3.787879E-2,-2.9707951E-2,-1.5995154E-2,1.75476E4,-1.2779832E-3,6.9488645E-2,-7.275277E-1,7.681583E-3,6.4069554E-2,8.246573E-1,6.66E3,5.0349474E-2,1.8978333E0,-2.5356492E-2,8.870422E-3,5.538827E-2,-2.6226125E-3,-2.0209841E-2,3.590977E-2,-2.707144E-2,-3.984216E-3],"split_indices":[48,50,60,0,31,48,0,29,77,0,0,71,5,34,51,0,0,0,0,0,0,0,0],"split_type":[0,0,0,0,0,0,0,0,0,0,0,0,0,0,0,0,0,0,0,0,0,0,0],"sum_hessian":[8.9834406E2,8.866497E2,1.1694351E1,8.159018E2,7.074791E1,1.0156427E1,1.5379238E0,9.543844E0,6.1204063E1,1.0517123E0,9.104715E0,5.591642E0,3.9522018E0,3.6866293E0,5.7517433E1,4.585341E0,1.006301E0,2.1985302E0,1.7536718E0,2.003225E0,1.6834042E0,4.9999504E1,7.51793E0],"tree_param":{"num_deleted":"0","num_feature":"87","num_nodes":"23","size_leaf_vector":"1"}},{"base_weights":[6.0554487E-1,6.923383E-1,-3.452685E-2,4.1376898E-1,3.6328234E-2,9.152099E-2,-6.8048245E-1,4.6233442E-1,-2.4781735E-1,1.8335037E-1,-5.5543363E-1,-7.8828144E-1,-2.7029866E-1,-1.20060235E-1,5.054543E-1,2.1767592E-1,-3.885852E-2,2.1855693E-1,-5.768277E-1,-6.591077E-1,1.0511262E-2,-8.236717E-1,-8.940372E-3,2.8991966E-2,-5.872419E-1,-3.0867279E-2,3.203552E-2,1.8884849E-2,3.1622536E-2,3.023837E-2,-2.0646578E-2,7.845172E-3,3.4548357E-2,4.7108857E-3,-4.0572617E-2,-4.0370893E-2,6.3217445E-3,-1.3665949E-2,-4.3370944E-2,-8.945097E-3,-3.3926833E-2],"categories":[],"categories_nodes":[],"categories_segments":[],"categories_sizes":[],"default_left":[0,0,0,0,0,0,0,0,0,0,0,0,0,0,0,0,0,0,0,0,0,0,0,0,0,0,0,0,0,0,0,0,0,0,0,0,0,0,0,0,0],"id":24,"left_children":[1,3,5,7,-1,9,11,13,15,17,19,21,23,25,27,29,-1,31,33,35,-1,37,-1,-1,39,-1,-1,-1,-1,-1,-1,-1,-1,-1,-1,-1,-1,-1,-1,-1,-1],"loss_changes":[7.868567E1,1.1588013E1,1.3906197E1,4.5730305E0,0E0,8.606212E0,1.0196953E0,3.315836E0,2.6679206E0,3.501111E0,1.5706582E0,3.17667E-1,2.3139126E0,4.0817065E0,1.7223358E0,1.7575414E0,0E0,3.4230967E0,9.985601E-1,1.9814725E0,0E0,2.4674225E-1,0E0,0E0,9.601498E-2,0E0,0E0,0E0,0E0,0E0,0E0,0E0,0E0,0E0,0E0,0E0,0E0,0E0,0E0,0E0,0E0],"parents":[2147483647,0,0,1,1,2,2,3,3,5,5,6,6,7,7,8,8,9,9,10,10,11,11,12,12,13,13,14,14,15,15,17,17,18,18,19,19,21,21,24,24],"right_children":[2,4,6,8,-1,10,12,14,16,18,20,22,24,26,28,30,-1,32,34,36,-1,38,-1,-1,40,-1,-1,-1,-1,-1,-1,-1,-1,-1,-1,-1,-1,-1,-1,-1,-1],"split_conditions":[5.122E2,2.1E1,1.9E1,9.287926E-2,3.6328234E-2,5.226481E-2,2.2075055E-3,-7.1E1,1E1,9.726294E1,6.712962E-2,4.8543688E-2,-6.7114094E-3,4.18E0,5.9114925E1,6.8674774E1,-3.885852E-2,2.6269399E-2,2.1661162E-1,1.5E1,1.0511262E-2,1.6666666E1,-8.940372E-3,2.8991966E-2,2.342195E-2,-3.0867279E-2,3.203552E-2,1.8884849E-2,3.1622536E-2,3.023837E-2,-2.0646578E-2,7.845172E-3,3.4548357E-2,4.7108857E-3,-4.0572617E-2,-4.0370893E-2,6.3217445E-3,-1.3665949E-2,-4.3370944E-2,-8.945097E-3,-3.3926833E-2],"split_indices":[7,0,6,81,0,40,64,41,19,56,54,60,68,67,56,56,0,54,51,6,0,36,0,0,47,0,0,0,0,0,0,0,0,0,0,0,0,0,0,0,0],"split_type":[0,0,0,0,0,0,0,0,0,0,0,0,0,0,0,0,0,0,0,0,0,0,0,0,0,0,0,0,0,0,0,0,0,0,0,0,0,0,0,0,0],"sum_hessian":[1.4149506E3,1.2459224E3,1.690282E2,1.3776196E2,1.1081604E3,1.4214851E2,2.6879679E1,1.2862135E2,9.140605E0,1.2510726E2,1.7041254E1,2.0555723E1,6.323957E0,8.743515E0,1.19877846E2,5.1769648E0,3.9636402E0,1.2025053E2,4.8567386E0,1.5131532E1,1.9097226E0,1.9095463E1,1.4602594E0,1.492132E0,4.8318253E0,5.4013767E0,3.342138E0,6.1740997E1,5.8136845E1,3.2332475E0,1.943717E0,1.0754688E2,1.2703637E1,1.4132268E0,3.4435115E0,1.2704987E1,2.4265444E0,1.939805E0,1.7155659E1,1.4236745E0,3.4081507E0],"tree_param":{"num_deleted":"0","num_feature":"87","num_nodes":"41","size_leaf_vector":"1"}},{"base_weights":[-4.1535556E-1,1.2312753E-1,-2.9594837E-2,-3.1754635E-2,4.2240697E-1,6.14573E-2,-4.8908916E-1,3.505149E-1,6.234901E-2,-6.9297194E-2,6.402036E-1,-5.233968E-1,8.944071E-3,4.583859E-1,-1.2129498E-1,2.8524455E-3,-1.9789552E-2,-1.8173344E-2,4.4845883E-2,-2.8059026E-2,5.9920815E-3,9.902666E-3,3.9410584E-2,2.7160564E-2,-1.663566E-2],"categories":[],"categories_nodes":[],"categories_segments":[],"categories_sizes":[],"default_left":[0,0,0,0,0,0,0,0,0,0,0,0,0,0,0,0,0,0,0,0,0,0,0,0,0],"id":25,"left_children":[1,3,-1,5,7,9,11,13,-1,15,17,19,-1,21,23,-1,-1,-1,-1,-1,-1,-1,-1,-1,-1],"loss_changes":[8.7920685E1,1.0627663E1,0E0,6.502253E0,4.1963253E0,9.655602E0,6.852603E-1,3.7853584E0,0E0,4.3335276E0,6.382021E0,6.7024565E-1,0E0,4.9833927E0,2.2076964E0,0E0,0E0,0E0,0E0,0E0,0E0,0E0,0E0,0E0,0E0],"parents":[2147483647,0,0,1,1,3,3,4,4,5,5,6,6,7,7,9,9,10,10,11,11,13,13,14,14],"right_children":[2,4,-1,6,8,10,12,14,-1,16,18,20,-1,22,24,-1,-1,-1,-1,-1,-1,-1,-1,-1,-1],"split_conditions":[2.1E1,1.338E2,-2.9594837E-2,8.7412E-1,2.2405161E-1,2.776221E-2,6.22E0,9.895652E1,6.234901E-2,9.7844826E1,-1.07913665E-1,4.5164285E0,8.944071E-3,-7.751938E-3,2.98E2,2.8524455E-3,-1.9789552E-2,-1.8173344E-2,4.4845883E-2,-2.8059026E-2,5.9920815E-3,9.902666E-3,3.9410584E-2,2.7160564E-2,-1.663566E-2],"split_indices":[0,52,0,77,46,30,4,36,0,36,82,35,0,39,52,0,0,0,0,0,0,0,0,0,0],"split_type":[0,0,0,0,0,0,0,0,0,0,0,0,0,0,0,0,0,0,0,0,0,0,0,0,0],"sum_hessian":[9.2308704E2,2.2798706E2,6.951E2,1.5082597E2,7.716109E1,1.26008995E2,2.4816986E1,7.228395E1,4.877136E0,1.0350473E2,2.2504263E1,2.3810493E1,1.0064933E0,5.8856014E1,1.342794E1,7.522106E1,2.8283669E1,4.49895E0,1.8005312E1,2.2609957E1,1.2005353E0,3.3787724E1,2.5068289E1,2.8622537E0,1.0565686E1],"tree_param":{"num_deleted":"0","num_feature":"87","num_nodes":"25","size_leaf_vector":"1"}},{"base_weights":[-5.463033E-1,-5.709398E-1,7.500039E-1,-5.743277E-1,3.976429E-2,9.189487E-1,-1.8914336E-1,-5.8661896E-1,-4.1197526E-1,-4.9298354E-3,1.0838801E0,-1.8241635E-2,3.5452289E-3,-2.939178E-2,-1.9739696E-3,3.344042E-2,-4.4067156E-1,5.4325284E-3,5.8673333E-2,2.4608297E-3,-2.3953607E-2],"categories":[],"categories_nodes":[],"categories_segments":[],"categories_sizes":[],"default_left":[0,0,0,0,0,0,0,0,0,0,0,0,0,0,0,0,0,0,0,0,0],"id":26,"left_children":[1,3,5,7,-1,9,11,13,15,-1,17,-1,-1,-1,-1,-1,19,-1,-1,-1,-1],"loss_changes":[2.7849548E1,4.359497E0,2.7832174E0,1.4378967E0,0E0,2.4747686E0,1.7831679E-1,4.9606323E-1,2.2360687E0,0E0,9.4054985E-1,0E0,0E0,0E0,0E0,0E0,1.1819944E0,0E0,0E0,0E0,0E0],"parents":[2147483647,0,0,1,1,2,2,3,3,5,5,6,6,7,7,8,8,10,10,16,16],"right_children":[2,4,6,8,-1,10,12,14,16,-1,18,-1,-1,-1,-1,-1,20,-1,-1,-1,-1],"split_conditions":[1.62616E4,4.4E1,9.433962E-3,1.49995E3,3.976429E-2,5.4054055E-2,1.5975131E-1,4.248529E0,1.4705371E-2,-4.9298354E-3,4.51E0,-1.8241635E-2,3.5452289E-3,-2.939178E-2,-1.9739696E-3,3.344042E-2,-2.6548672E-2,5.4325284E-3,5.8673333E-2,2.4608297E-3,-2.3953607E-2],"split_indices":[48,6,66,50,0,80,34,86,34,0,59,0,0,0,0,0,58,0,0,0,0],"split_type":[0,0,0,0,0,0,0,0,0,0,0,0,0,0,0,0,0,0,0,0,0],"sum_hessian":[8.576201E2,8.42174E2,1.5446098E1,8.40669E2,1.5050299E0,1.3109344E1,2.3367546E0,7.790742E2,6.1594776E1,1.8845841E0,1.122476E1,1.1540978E0,1.1826568E0,7.772714E2,1.8027717E0,1.0161783E0,6.0578598E1,1.1305482E0,1.0094212E1,4.382902E0,5.6195698E1],"tree_param":{"num_deleted":"0","num_feature":"87","num_nodes":"21","size_leaf_vector":"1"}},{"base_weights":[5.9194475E-1,6.9403136E-1,5.011514E-2,4.770413E-1,3.558781E-2,-2.8940347E-1,3.006407E-1,5.117279E-1,-3.6737207E-2,-4.602895E-2,-5.1638687E-1,3.48532E-1,-1.9867487E-1,5.379587E-1,-2.2751048E-2,-1.988114E-1,3.9263344E-1,-2.2073728E-1,-7.055232E-1,2.5071952E-1,5.3919935E-1,-4.883943E-1,2.8473899E-2,2.7776388E-2,-1.5455757E-2,-3.5859074E-2,1.3726401E-4,-1.9165834E-2,2.864857E-2,2.9194701E-2,-2.3859339E-2,3.210238E-3,-3.9647773E-2,1.6745677E-2,-1.0315635E-2,3.0793106E-2,-8.6487475E-4,1.7041778E-2,-4.5192745E-2],"categories":[],"categories_nodes":[],"categories_segments":[],"categories_sizes":[],"default_left":[0,0,0,0,0,0,0,0,0,0,0,0,0,0,0,0,0,0,0,0,0,0,0,0,0,0,0,0,0,0,0,0,0,0,0,0,0,0,0],"id":27,"left_children":[1,3,5,7,-1,9,11,13,-1,15,17,19,21,23,-1,25,27,29,31,33,35,37,-1,-1,-1,-1,-1,-1,-1,-1,-1,-1,-1,-1,-1,-1,-1,-1,-1],"loss_changes":[7.762848E1,4.2042236E0,1.9112558E1,4.25334E0,0E0,5.2507396E0,3.1587152E0,2.5338535E0,0E0,3.239675E0,2.6013546E0,2.0701876E0,2.936295E0,1.4864521E0,0E0,3.7269263E0,1.9719065E0,4.548306E0,2.0439138E0,3.1484838E0,1.6841297E0,3.4814937E0,0E0,0E0,0E0,0E0,0E0,0E0,0E0,0E0,0E0,0E0,0E0,0E0,0E0,0E0,0E0,0E0,0E0],"parents":[2147483647,0,0,1,1,2,2,3,3,5,5,6,6,7,7,9,9,10,10,11,11,12,12,13,13,15,15,16,16,17,17,18,18,19,19,20,20,21,21],"right_children":[2,4,6,8,-1,10,12,14,-1,16,18,20,22,24,-1,26,28,30,32,34,36,38,-1,-1,-1,-1,-1,-1,-1,-1,-1,-1,-1,-1,-1,-1,-1,-1,-1],"split_conditions":[2.9E2,2.1E1,1.2E1,4.014064E-2,3.558781E-2,2.4333155E-2,9.2448265E1,3.49E2,-3.6737207E-2,2.2421524E-2,2.4964795E-2,8.136664E-3,9.85654E1,4.450262E-2,-2.2751048E-2,4.12E0,4E0,-8.130081E-3,-2.8697573E-2,5.076142E-3,3.6099657E-2,1.1294004E-1,2.8473899E-2,2.7776388E-2,-1.5455757E-2,-3.5859074E-2,1.3726401E-4,-1.9165834E-2,2.864857E-2,2.9194701E-2,-2.3859339E-2,3.210238E-3,-3.9647773E-2,1.6745677E-2,-1.0315635E-2,3.0793106E-2,-8.6487475E-4,1.7041778E-2,-4.5192745E-2],"split_indices":[48,0,0,43,0,29,56,12,0,39,47,54,37,60,0,65,59,62,64,42,70,51,0,0,0,0,0,0,0,0,0,0,0,0,0,0,0,0,0],"split_type":[0,0,0,0,0,0,0,0,0,0,0,0,0,0,0,0,0,0,0,0,0,0,0,0,0,0,0,0,0,0,0,0,0,0,0,0,0,0,0],"sum_hessian":[1.403056E3,1.1803789E3,2.2267715E2,9.124584E1,1.089133E3,9.448012E1,1.2819704E2,8.9268295E1,1.9775457E0,4.6174263E1,4.830586E1,1.17252846E2,1.0944191E1,8.7341995E1,1.9263057E0,3.4652027E1,1.1522234E1,1.969172E1,2.8614138E1,7.902694E1,3.8225906E1,8.21136E0,2.7328308E0,8.590444E1,1.4375508E0,8.985251E0,2.5666777E1,1.9606197E0,9.561614E0,4.4506383E0,1.5241081E1,2.9458032E0,2.5668335E1,6.6959015E1,1.2067924E1,3.350377E1,4.7221403E0,2.8007944E0,5.4105654E0],"tree_param":{"num_deleted":"0","num_feature":"87","num_nodes":"39","size_leaf_vector":"1"}},{"base_weights":[-4.114372E-1,1.18938945E-1,-2.9263664E-2,9.3345396E-4,5.339335E-1,-1.4392522E-1,3.3104342E-1,6.610153E-1,-3.8558328E-1,-2.4188824E-1,2.778666E-1,5.6392825E-1,-7.8045786E-3,7.7769464E-1,-2.4155525E-2,7.6222136E-3,-2.5772542E-2,3.8742237E-2,-1.3666528E-2,-2.0310404E-2,2.7426949E-2,3.943E-2,-6.04939E-3,-1.7490027E-2,1.8828703E-2,4.2524856E-2,-2.5028614E-3],"categories":[],"categories_nodes":[],"categories_segments":[],"categories_sizes":[],"default_left":[0,0,0,0,0,0,0,0,0,0,0,0,0,0,0,0,0,0,0,0,0,0,0,0,0,0,0],"id":28,"left_children":[1,3,-1,5,7,9,11,13,15,17,19,21,23,25,-1,-1,-1,-1,-1,-1,-1,-1,-1,-1,-1,-1,-1],"loss_changes":[8.2611176E1,1.0862755E1,0E0,8.354665E0,5.9936314E0,5.0848117E0,4.209193E0,6.1848907E0,5.39369E-1,3.3792138E0,4.546853E0,4.957062E0,3.1145515E0,2.445343E0,0E0,0E0,0E0,0E0,0E0,0E0,0E0,0E0,0E0,0E0,0E0,0E0,0E0],"parents":[2147483647,0,0,1,1,3,3,4,4,5,5,6,6,7,7,8,8,9,9,10,10,11,11,12,12,13,13],"right_children":[2,4,-1,6,8,10,12,14,16,18,20,22,24,26,-1,-1,-1,-1,-1,-1,-1,-1,-1,-1,-1,-1,-1],"split_conditions":[2.1E1,3.5059E3,-2.9263664E-2,1.338E2,3.1119918E-2,5.78E0,4.84E0,1.0221107E6,1.6666666E1,3.6E0,6E0,3.3726683E-1,-1.4246651E-4,2.0301E4,-2.4155525E-2,7.6222136E-3,-2.5772542E-2,3.8742237E-2,-1.3666528E-2,-2.0310404E-2,2.7426949E-2,3.943E-2,-6.04939E-3,-1.7490027E-2,1.8828703E-2,4.2524856E-2,-2.5028614E-3],"split_indices":[0,50,0,52,47,65,63,55,36,59,19,86,72,5,0,0,0,0,0,0,0,0,0,0,0,0,0],"split_type":[0,0,0,0,0,0,0,0,0,0,0,0,0,0,0,0,0,0,0,0,0,0,0,0,0,0,0],"sum_hessian":[8.9425916E2,2.2082745E2,6.734317E2,1.727169E2,4.8110546E1,1.2043269E2,5.2284206E1,4.251578E1,5.5947633E0,9.807976E1,2.2352936E1,3.0593517E1,2.169069E1,3.8871853E1,3.643929E0,1.0540599E0,4.5407033E0,2.2328827E0,9.584688E1,6.1951346E0,1.61578E1,2.292281E1,7.6707077E0,1.1525754E1,1.0164934E1,3.570413E1,3.167727E0],"tree_param":{"num_deleted":"0","num_feature":"87","num_nodes":"27","size_leaf_vector":"1"}},{"base_weights":[-5.428782E-1,-5.63582E-1,7.649908E-1,-5.753873E-1,-2.108179E-1,-1.3699753E-2,9.7510165E-1,-3.8603073E-1,-5.799601E-1,-7.7761156E-3,-2.7480427E-2,-2.0341536E-2,2.0888474E-2,5.4119457E-2,3.469731E-3,4.8962513E-1,-2.8054921E-2,-2.911656E-2,-2.1607375E-1,6.920325E-1,-2.908679E-1,5.7410326E-2,-1.8804867E-2,-2.4770096E-2,2.751416E-2,-1.8467179E-2,5.574102E-2,9.789896E-3,-2.7432695E-2],"categories":[],"categories_nodes":[],"categories_segments":[],"categories_sizes":[],"default_left":[0,0,0,0,0,0,0,0,0,0,0,0,0,0,0,0,0,0,0,0,0,0,0,0,0,0,0,0,0],"id":29,"left_children":[1,3,5,7,9,11,13,15,17,19,-1,-1,-1,-1,-1,21,-1,-1,23,25,27,-1,-1,-1,-1,-1,-1,-1,-1],"loss_changes":[2.30224E1,3.3013916E0,2.2099433E0,4.642334E-1,1.9350175E0,8.2114124E-1,9.536047E-1,3.6057875E0,5.4193115E-1,3.894444E0,0E0,0E0,0E0,0E0,0E0,2.8004873E0,0E0,0E0,1.6855272E0,2.953898E0,1.8608949E0,0E0,0E0,0E0,0E0,0E0,0E0,0E0,0E0],"parents":[2147483647,0,0,1,1,2,2,3,3,4,4,5,5,6,6,7,7,8,8,9,9,15,15,18,18,19,19,20,20],"right_children":[2,4,6,8,10,12,14,16,18,20,-1,-1,-1,-1,-1,22,-1,-1,24,26,28,-1,-1,-1,-1,-1,-1,-1,-1],"split_conditions":[1.75476E4,1.1E1,8.431373E1,1.3571429E-1,9.3214285E-1,5.55E0,2.9147983E-2,-1.104E2,1.2857E3,-2.6348809E-2,-2.7480427E-2,-2.0341536E-2,2.0888474E-2,5.4119457E-2,3.469731E-3,4.761905E1,-2.8054921E-2,-2.911656E-2,5.87E0,-3.883495E-2,-4.5887798E-1,5.7410326E-2,-1.8804867E-2,-2.4770096E-2,2.751416E-2,-1.8467179E-2,5.574102E-2,9.789896E-3,-2.7432695E-2],"split_indices":[48,6,36,35,35,1,60,52,52,43,0,0,0,0,0,28,0,0,63,42,74,0,0,0,0,0,0,0,0],"split_type":[0,0,0,0,0,0,0,0,0,0,0,0,0,0,0,0,0,0,0,0,0,0,0,0,0,0,0,0,0],"sum_hessian":[8.3330695E2,8.2088135E2,1.2425625E1,7.936893E2,2.7192022E1,2.8389618E0,9.586662E0,2.0729156E1,7.7296014E2,1.764193E1,9.550094E0,1.5153564E0,1.3236055E0,8.396912E0,1.189751E0,3.1544433E0,1.7574713E1,7.6735974E2,5.600404E0,4.665116E0,1.2976813E1,1.606234E0,1.5482094E0,4.363516E0,1.2368882E0,1.3649426E0,3.3001733E0,4.576829E0,8.399984E0],"tree_param":{"num_deleted":"0","num_feature":"87","num_nodes":"29","size_leaf_vector":"1"}},{"base_weights":[5.8217454E-1,6.8249506E-1,5.7973757E-2,4.778887E-1,3.495562E-2,-3.026343E-1,3.1812096E-1,5.0402945E-1,-3.1607054E-2,-1.7033584E-1,-6.3783646E-1,1.9990656E-1,5.5513525E-1,5.219882E-1,-1.730536E-2,1.99514E-1,-3.008565E-1,-3.1016063E-2,-7.4502313E-1,3.74756E-1,-2.9855497E-2,6.2620884E-1,1.0405789E-1,2.7002854E-2,-1.6148677E-2,1.8903948E-2,-1.7776284E-2,-1.8829295E-2,3.07555E-2,-2.0833096E-2,2.6174683E-2,-6.0262787E-3,-3.9178755E-2,1.9627956E-3,2.7962094E-2,-2.369357E-2,1.2892911E-2,-4.4167573E-3,3.38096E-2,2.2504278E-2,-3.5467982E-2],"categories":[],"categories_nodes":[],"categories_segments":[],"categories_sizes":[],"default_left":[0,0,0,0,0,0,0,0,0,0,0,0,0,0,0,0,0,0,0,0,0,0,0,0,0,0,0,0,0,0,0,0,0,0,0,0,0,0,0,0,0],"id":30,"left_children":[1,3,5,7,-1,9,11,13,-1,15,17,19,21,23,-1,25,27,29,31,33,35,37,39,-1,-1,-1,-1,-1,-1,-1,-1,-1,-1,-1,-1,-1,-1,-1,-1,-1,-1],"loss_changes":[7.1656494E1,3.5563965E0,2.0743742E1,2.904379E0,0E0,4.0045433E0,3.4850664E0,1.518364E0,0E0,3.3361933E0,1.6604176E0,3.5142143E0,1.2861071E0,1.4905453E0,0E0,1.948573E0,3.7389793E0,1.2721653E0,4.3412018E-1,3.0473738E0,5.0542903E0,1.3530512E0,2.2716303E0,0E0,0E0,0E0,0E0,0E0,0E0,0E0,0E0,0E0,0E0,0E0,0E0,0E0,0E0,0E0,0E0,0E0,0E0],"parents":[2147483647,0,0,1,1,2,2,3,3,5,5,6,6,7,7,9,9,10,10,11,11,12,12,13,13,15,15,16,16,17,17,18,18,19,19,20,20,21,21,22,22],"right_children":[2,4,6,8,-1,10,12,14,-1,16,18,20,22,24,-1,26,28,30,32,34,36,38,40,-1,-1,-1,-1,-1,-1,-1,-1,-1,-1,-1,-1,-1,-1,-1,-1,-1,-1],"split_conditions":[2.9E2,2.1E1,1.2E1,9.0277776E-2,3.495562E-2,3.381234E-3,9.88764E1,1.338E2,-3.1607054E-2,5.4545456E1,2.4432397E-2,-1.6393442E-2,3.2786885E-3,3.49E2,-1.730536E-2,4.81E0,3.1119918E-2,9.5105654E-1,-1.9717903E0,4.586368E0,8.669E2,-1.3308187E-1,5.9E0,2.7002854E-2,-1.6148677E-2,1.8903948E-2,-1.7776284E-2,-1.8829295E-2,3.07555E-2,-2.0833096E-2,2.6174683E-2,-6.0262787E-3,-3.9178755E-2,1.9627956E-3,2.7962094E-2,-2.369357E-2,1.2892911E-2,-4.4167573E-3,3.38096E-2,2.2504278E-2,-3.5467982E-2],"split_indices":[48,0,0,39,0,75,36,52,0,36,47,39,66,12,0,59,47,17,71,27,49,46,1,0,0,0,0,0,0,0,0,0,0,0,0,0,0,0,0,0,0],"split_type":[0,0,0,0,0,0,0,0,0,0,0,0,0,0,0,0,0,0,0,0,0,0,0,0,0,0,0,0,0,0,0,0,0,0,0,0,0,0,0,0,0],"sum_hessian":[1.362352E3,1.1432561E3,2.1909602E2,8.811195E1,1.0551442E3,9.1750694E1,1.2734533E2,8.6618065E1,1.4938874E0,6.686744E1,2.4883257E1,8.619682E1,4.1148502E1,8.5204155E1,1.4139081E0,1.7304356E1,4.956308E1,3.9290304E0,2.0954227E1,4.8589237E1,3.7607586E1,3.521209E1,5.9364147E0,8.3773575E1,1.4305826E0,1.3333564E1,3.9707913E0,4.6322166E1,3.2409148E0,2.4639893E0,1.465041E0,1.4582697E0,1.9495958E1,1.7669264E1,3.0919973E1,1.4532772E1,2.3074812E1,2.2519245E0,3.2960163E1,4.4781036E0,1.4583111E0],"tree_param":{"num_deleted":"0","num_feature":"87","num_nodes":"41","size_leaf_vector":"1"}},{"base_weights":[-3.9904553E-1,-5.6174564E-1,1.83223E-1,-5.790051E-1,-2.3070662E-1,3.1878582E-1,-9.837556E-2,-2.9020581E-2,-2.8583265E-3,7.787532E-2,-3.7923393E-1,3.6151963E-1,-2.6472015E-2,-2.990791E-1,1.5689085E-1,8.3703786E-1,-3.1673115E-1,-4.852857E-1,3.9926356E-1,1.7860155E-1,5.861103E-1,3.2003906E-1,-4.614033E-1,-4.2407446E-2,9.097404E-1,5.5990573E-2,3.8766917E-3,1.4532879E-2,-2.5986267E-2,-2.8538644E-2,-1.5255803E-3,-1.7355911E-2,4.9184144E-2,5.8820006E-3,5.4347724E-2,5.1864155E-2,1.474199E-2,-1.4603621E-2,4.9347E-2,5.550451E-3,-2.7776051E-2,3.3226203E-2,-1.6838668E-2,4.464477E-3,5.4093E-2],"categories":[],"categories_nodes":[],"categories_segments":[],"categories_sizes":[],"default_left":[0,0,0,0,0,0,0,0,0,0,0,0,0,0,0,0,0,0,0,0,0,0,0,0,0,0,0,0,0,0,0,0,0,0,0,0,0,0,0,0,0,0,0,0,0],"id":31,"left_children":[1,3,5,7,9,11,13,-1,-1,15,17,19,-1,21,23,25,27,29,31,33,35,37,39,41,43,-1,-1,-1,-1,-1,-1,-1,-1,-1,-1,-1,-1,-1,-1,-1,-1,-1,-1,-1,-1],"loss_changes":[8.335721E1,3.7923431E0,7.3869805E0,4.4566345E-1,1.666318E0,4.91469E0,3.2940674E0,0E0,0E0,3.989813E0,2.1982226E0,5.0161266E0,0E0,3.74813E0,4.322843E0,8.854189E-1,1.249202E0,8.308544E-1,1.8504758E0,3.7559042E0,6.989313E0,3.5672338E0,1.6129122E0,5.120839E0,7.536988E-1,0E0,0E0,0E0,0E0,0E0,0E0,0E0,0E0,0E0,0E0,0E0,0E0,0E0,0E0,0E0,0E0,0E0,0E0,0E0,0E0],"parents":[2147483647,0,0,1,1,2,2,3,3,4,4,5,5,6,6,9,9,10,10,11,11,13,13,14,14,15,15,16,16,17,17,18,18,19,19,20,20,21,21,22,22,23,23,24,24],"right_children":[2,4,6,8,10,12,14,-1,-1,16,18,20,-1,22,24,26,28,30,32,34,36,38,40,42,44,-1,-1,-1,-1,-1,-1,-1,-1,-1,-1,-1,-1,-1,-1,-1,-1,-1,-1,-1,-1],"split_conditions":[1.144E2,9.879157E5,9.742566E1,5E0,5.5743497E-2,3.53E0,5.5524416E-9,-2.9020581E-2,-2.8583265E-3,1.4867625E-3,1.8343982E-1,-1.8701258E-1,-2.6472015E-2,-7.3349634E-3,1.0362694E-2,3.1E1,8.878672E-3,5.78E0,-8.055556E-2,8.9659645E1,1.6100913E-1,3.840281E-1,-6.7847356E-2,3.5557136E-5,9.800638E1,5.5990573E-2,3.8766917E-3,1.4532879E-2,-2.5986267E-2,-2.8538644E-2,-1.5255803E-3,-1.7355911E-2,4.9184144E-2,5.8820006E-3,5.4347724E-2,5.1864155E-2,1.474199E-2,-1.4603621E-2,4.9347E-2,5.550451E-3,-2.7776051E-2,3.3226203E-2,-1.6838668E-2,4.464477E-3,5.4093E-2],"split_indices":[48,55,37,6,56,35,30,0,0,54,34,86,0,66,66,5,76,67,39,56,86,77,29,69,37,0,0,0,0,0,0,0,0,0,0,0,0,0,0,0,0,0,0,0,0],"split_type":[0,0,0,0,0,0,0,0,0,0,0,0,0,0,0,0,0,0,0,0,0,0,0,0,0,0,0,0,0,0,0,0,0,0,0,0,0,0,0,0,0,0,0,0,0],"sum_hessian":[8.7781104E2,6.861259E2,1.9168515E2,6.514139E2,3.471205E1,1.2930505E2,6.23801E1,6.495509E2,1.8629428E0,1.1433458E1,2.3278593E1,1.2364936E2,5.6556864E0,3.4826267E1,2.7553831E1,3.5269501E0,7.906509E0,2.081912E1,2.4594724E0,6.913639E1,5.451297E1,7.0324206E0,2.7793846E1,2.2532564E1,5.0212684E0,2.2243838E0,1.3025662E0,1.872339E0,6.0341697E0,1.731014E1,3.5089805E0,1.258388E0,1.2010843E0,6.584679E1,3.2896109E0,2.0381363E1,3.4131607E1,3.959896E0,3.0725245E0,3.8993022E0,2.3894545E1,6.254546E0,1.6278017E1,1.1340935E0,3.8871746E0],"tree_param":{"num_deleted":"0","num_feature":"87","num_nodes":"45","size_leaf_vector":"1"}},{"base_weights":[-5.317935E-1,-5.572201E-1,8.043572E-1,-5.607714E-1,3.75593E-2,9.885117E-1,-1.4687713E-2,-5.673609E-1,-9.517248E-2,3.1493634E-3,5.405865E-2,-2.0178165E-2,2.0583449E-2,-4.1671836E-1,-5.7618153E-1,4.7790397E-2,-3.001303E-1,-2.3640556E-2,1.8521657E-2,-2.8874109E-2,5.9960457E-3,-2.2568313E-2,1.6538965E-2],"categories":[],"categories_nodes":[],"categories_segments":[],"categories_sizes":[],"default_left":[0,0,0,0,0,0,0,0,0,0,0,0,0,0,0,0,0,0,0,0,0,0,0],"id":32,"left_children":[1,3,5,7,-1,9,11,13,15,-1,-1,-1,-1,17,19,-1,21,-1,-1,-1,-1,-1,-1],"loss_changes":[2.777977E1,4.092331E0,2.3422298E0,2.3651276E0,0E0,1.0137081E0,7.9920375E-1,7.927246E-1,2.915919E0,0E0,0E0,0E0,0E0,2.233079E0,7.316742E-1,0E0,1.1964326E0,0E0,0E0,0E0,0E0,0E0,0E0],"parents":[2147483647,0,0,1,1,2,2,3,3,5,5,6,6,7,7,8,8,13,13,14,14,16,16],"right_children":[2,4,6,8,-1,10,12,14,16,-1,-1,-1,-1,18,20,-1,22,-1,-1,-1,-1,-1,-1],"split_conditions":[1.75476E4,4.4E1,9.433962E-3,1.24741E4,3.75593E-2,2.919756E-1,1.033E4,5.9E-1,2.9627E3,3.1493634E-3,5.405865E-2,-2.0178165E-2,2.0583449E-2,9.94709E1,4.248529E0,4.7790397E-2,2.3888889E-1,-2.3640556E-2,1.8521657E-2,-2.8874109E-2,5.9960457E-3,-2.2568313E-2,1.6538965E-2],"split_indices":[48,6,66,50,0,77,5,35,49,0,0,0,0,37,86,0,81,0,0,0,0,0,0],"split_type":[0,0,0,0,0,0,0,0,0,0,0,0,0,0,0,0,0,0,0,0,0,0,0],"sum_hessian":[8.0349066E2,7.8905804E2,1.4432599E1,7.87492E2,1.5660511E0,1.1614321E1,2.8182778E0,7.762869E2,1.1205066E1,1.2098446E0,1.0404476E1,1.5018849E0,1.3163929E0,4.5608643E1,7.306783E2,1.2307259E0,9.9743395E0,4.294752E1,2.6611192E0,7.294857E2,1.1925718E0,8.27525E0,1.6990898E0],"tree_param":{"num_deleted":"0","num_feature":"87","num_nodes":"23","size_leaf_vector":"1"}},{"base_weights":[5.6934255E-1,6.755651E-1,7.4972205E-2,6.8052673E-1,2.6890564E-1,-2.568505E-1,2.87003E-1,6.813895E-1,-1.7179948E-3,-1.8300329E-1,5.6033707E-1,-6.0910255E-2,-5.7448035E-1,1.9375461E-1,5.3149426E-1,5.497325E-1,3.421007E-2,2.1518594E-2,-4.1863978E-1,8.5094897E-4,3.2505423E-2,-2.1136826E-1,3.6358E-1,2.6520435E-2,-6.370794E-1,2.3920633E-1,-4.6796152E-1,-1.7342763E-2,5.726732E-1,2.2144844E-3,3.207938E-2,-3.032658E-2,3.283249E-3,-3.6947235E-2,-4.226356E-3,2.6136354E-2,-2.6549963E-2,3.37924E-3,-3.4100603E-2,1.5271303E-2,-9.810028E-3,2.2614347E-2,-3.8075242E-2,8.030506E-3,3.2601915E-2],"categories":[],"categories_nodes":[],"categories_segments":[],"categories_sizes":[],"default_left":[0,0,0,0,0,0,0,0,0,0,0,0,0,0,0,0,0,0,0,0,0,0,0,0,0,0,0,0,0,0,0,0,0,0,0,0,0,0,0,0,0,0,0,0,0],"id":33,"left_children":[1,3,5,7,9,11,13,15,-1,17,19,21,23,25,27,29,-1,-1,31,-1,-1,33,35,-1,37,39,41,-1,43,-1,-1,-1,-1,-1,-1,-1,-1,-1,-1,-1,-1,-1,-1,-1,-1],"loss_changes":[7.05614E1,2.0499878E0,1.6884993E1,6.974182E-1,2.077164E0,5.7955756E0,3.2315092E0,2.7893066E-2,0E0,1.13872E0,4.455254E-1,3.848878E0,2.8018703E0,3.343669E0,1.6384687E0,1.2674551E0,0E0,0E0,5.2195346E-1,0E0,0E0,2.8977976E0,2.530279E0,0E0,1.1279478E0,2.9779825E0,2.3013918E0,0E0,1.151166E0,0E0,0E0,0E0,0E0,0E0,0E0,0E0,0E0,0E0,0E0,0E0,0E0,0E0,0E0,0E0,0E0],"parents":[2147483647,0,0,1,1,2,2,3,3,4,4,5,5,6,6,7,7,9,9,10,10,11,11,12,12,13,13,14,14,15,15,18,18,21,21,22,22,24,24,25,25,26,26,28,28],"right_children":[2,4,6,8,10,12,14,16,-1,18,20,22,24,26,28,30,-1,-1,32,-1,-1,34,36,-1,38,40,42,-1,44,-1,-1,-1,-1,-1,-1,-1,-1,-1,-1,-1,-1,-1,-1,-1,-1],"split_conditions":[1.5E2,4.87E2,1.2E1,6E0,4.5986543E0,7.260777E1,9.85654E1,-4E-1,-1.7179948E-3,3.9085727E0,6.1E2,2.2421524E-2,3.89E0,4.347826E-2,1.84E2,-9.6693486E-1,3.421007E-2,2.1518594E-2,1.028592E6,8.5094897E-4,3.2505423E-2,-4.4154662E-1,1.75476E4,2.6520435E-2,-2.5568182E-2,5.92E0,3.83E0,-1.7342763E-2,-1.9892626E-3,2.2144844E-3,3.207938E-2,-3.032658E-2,3.283249E-3,-3.6947235E-2,-4.226356E-3,2.6136354E-2,-2.6549963E-2,3.37924E-3,-3.4100603E-2,1.5271303E-2,-9.810028E-3,2.2614347E-2,-3.8075242E-2,8.030506E-3,3.2601915E-2],"split_indices":[48,5,0,4,33,56,37,52,0,26,5,39,2,38,48,77,0,0,41,0,0,77,48,0,62,4,3,0,31,0,0,0,0,0,0,0,0,0,0,0,0,0,0,0,0],"split_type":[0,0,0,0,0,0,0,0,0,0,0,0,0,0,0,0,0,0,0,0,0,0,0,0,0,0,0,0,0,0,0,0,0,0,0,0,0,0,0,0,0,0,0,0,0],"sum_hessian":[1.3436515E3,1.1057078E3,2.379437E2,1.0917145E3,1.3993269E1,9.26841E1,1.452596E2,1.0904453E3,1.2691537E0,5.6320186E0,8.361251E0,5.80598E1,3.4624302E1,1.0645165E2,3.8807938E1,2.6911709E1,1.0635337E3,1.3337553E0,4.298263E0,1.3542972E0,7.0069537E0,4.323683E1,1.4822968E1,1.4558101E0,3.316849E1,1.0020717E2,6.2444863E0,1.4054971E0,3.7402443E1,4.3665357E0,2.2545174E1,2.9149842E0,1.383279E0,7.444948E0,3.579188E1,1.2937107E1,1.8858597E0,1.9579784E0,3.1210514E1,8.723794E1,1.2969228E1,1.3793828E0,4.8651037E0,6.5287695E0,3.0873672E1],"tree_param":{"num_deleted":"0","num_feature":"87","num_nodes":"45","size_leaf_vector":"1"}},{"base_weights":[-3.980859E-1,-5.579178E-1,1.63325E-1,-5.742664E-1,-2.4884902E-1,3.421045E-1,1.5999977E-2,-2.8786108E-2,-2.587219E-3,5.072459E-1,-3.1508577E-1,-5.7900385E-3,4.4724035E-1,1.6244735E-1,-2.4838784E-1,6.50705E-3,3.3095613E-2,3.3817463E-2,-3.676481E-1,4.169035E-2,-1.7287137E-1,8.3494514E-2,6.514574E-1,4.2860024E-2,6.449866E-1,-4.3226236E-1,3.0159724E-1,-2.0927532E-2,2.0369312E-2,1.0891576E-2,-2.2695415E-2,1.8035935E-2,-1.9913934E-2,5.1636193E-3,3.9332327E-2,-5.995002E-3,2.5027681E-2,4.074004E-2,-1.9181257E-2,-2.4576746E-2,1.5062508E-2,6.0683113E-2,-3.619976E-3],"categories":[],"categories_nodes":[],"categories_segments":[],"categories_sizes":[],"default_left":[0,0,0,0,0,0,0,0,0,0,0,0,0,0,0,0,0,0,0,0,0,0,0,0,0,0,0,0,0,0,0,0,0,0,0,0,0,0,0,0,0,0,0],"id":34,"left_children":[1,3,5,7,9,11,13,-1,-1,15,17,19,21,23,25,-1,-1,-1,27,-1,29,31,33,35,37,39,41,-1,-1,-1,-1,-1,-1,-1,-1,-1,-1,-1,-1,-1,-1,-1,-1],"loss_changes":[7.63282E1,3.1998596E0,4.973947E0,4.475708E-1,1.91271E0,3.1247349E0,4.093962E0,0E0,0E0,1.0063869E-1,1.9578545E0,3.061556E0,4.8158407E0,3.8951058E0,3.9443889E0,0E0,0E0,0E0,1.4248614E0,0E0,2.0943594E0,3.4453728E0,3.0196285E0,4.1980777E0,2.6584258E0,1.3948226E0,3.5121791E0,0E0,0E0,0E0,0E0,0E0,0E0,0E0,0E0,0E0,0E0,0E0,0E0,0E0,0E0,0E0,0E0],"parents":[2147483647,0,0,1,1,2,2,3,3,4,4,5,5,6,6,9,9,10,10,11,11,12,12,13,13,14,14,18,18,20,20,21,21,22,22,23,23,24,24,25,25,26,26],"right_children":[2,4,6,8,10,12,14,-1,-1,16,18,20,22,24,26,-1,-1,-1,28,-1,30,32,34,36,38,40,42,-1,-1,-1,-1,-1,-1,-1,-1,-1,-1,-1,-1,-1,-1,-1,-1],"split_conditions":[1.144E2,9.879157E5,8.9428574E-1,5E0,1.0221107E6,-7.1770335E-3,1.6100913E-1,-2.8786108E-2,-2.587219E-3,1E-2,-4.4444446E-2,-1.8223235E-2,1.8264E3,6.5565173E-6,6.1108995E-2,6.50705E-3,3.3095613E-2,3.3817463E-2,3.58E3,4.169035E-2,2.7943662E-1,1.5446E3,5.2217502E-2,1.426E3,1.0759702E0,8E-2,2.1477663E-5,-2.0927532E-2,2.0369312E-2,1.0891576E-2,-2.2695415E-2,1.8035935E-2,-1.9913934E-2,5.1636193E-3,3.9332327E-2,-5.995002E-3,2.5027681E-2,4.074004E-2,-1.9181257E-2,-2.4576746E-2,1.5062508E-2,6.0683113E-2,-3.619976E-3],"split_indices":[48,55,35,6,55,62,86,0,0,3,62,58,48,72,46,0,0,0,5,0,51,49,51,5,71,54,69,0,0,0,0,0,0,0,0,0,0,0,0,0,0,0,0],"split_type":[0,0,0,0,0,0,0,0,0,0,0,0,0,0,0,0,0,0,0,0,0,0,0,0,0,0,0,0,0,0,0,0,0,0,0,0,0,0,0,0,0,0,0],"sum_hessian":[8.4861456E2,6.605611E2,1.8805344E2,6.265603E2,3.4000805E1,8.4360054E1,1.03693375E2,6.24718E2,1.8423147E0,2.2023873E0,3.1798416E1,1.9796936E1,6.456312E1,6.69787E1,3.671468E1,1.1761496E0,1.0262378E0,1.0034624E0,3.0794952E1,2.6234522E0,1.7173483E1,2.3720922E1,4.08422E1,5.4548748E1,1.2429951E1,2.7675932E1,9.038747E0,2.9328669E1,1.466284E0,7.2789917E0,9.894492E0,1.5216335E1,8.504586E0,8.428591E0,3.241361E1,4.0783714E1,1.3765033E1,1.0847065E1,1.5828854E0,2.5911966E1,1.7639652E0,1.9756411E0,7.063106E0],"tree_param":{"num_deleted":"0","num_feature":"87","num_nodes":"43","size_leaf_vector":"1"}},{"base_weights":[-5.2944225E-1,-5.515109E-1,6.112353E-1,-5.5513287E-1,4.74913E-2,8.9765096E-1,-1.7463337E-1,-3.0767575E-1,-5.730604E-1,5.181236E-2,-6.445704E-4,-2.4216045E-2,1.8724343E-2,5.8198083E-2,-3.903994E-1,-2.8716559E-2,-2.060202E-1,-1.9083666E-2,3.1930625E-2,-2.142565E-2,2.340115E-2,-1.9681517E-2,7.385488E-3],"categories":[],"categories_nodes":[],"categories_segments":[],"categories_sizes":[],"default_left":[0,0,0,0,0,0,0,0,0,0,0,0,0,0,0,0,0,0,0,0,0,0,0],"id":35,"left_children":[1,3,5,7,-1,9,11,13,15,-1,-1,-1,-1,17,19,-1,21,-1,-1,-1,-1,-1,-1],"loss_changes":[2.0256226E1,4.7513733E0,3.643929E0,3.2642517E0,0E0,1.4668179E0,1.0274591E0,1.6737595E0,2.1844482E-1,0E0,0E0,0E0,0E0,3.0341516E0,1.6604304E0,0E0,3.2694736E-1,0E0,0E0,0E0,0E0,0E0,0E0],"parents":[2147483647,0,0,1,1,2,2,3,3,5,5,6,6,7,7,8,8,13,13,14,14,16,16],"right_children":[2,4,6,8,-1,10,12,14,16,-1,-1,-1,-1,18,20,-1,22,-1,-1,-1,-1,-1,-1],"split_conditions":[1.62616E4,4.4E1,9.433962E-3,1.2E1,4.74913E-2,2.96E2,6.938776E1,-1.5995154E-2,1.6495E3,5.181236E-2,-6.445704E-4,-2.4216045E-2,1.8724343E-2,6.9488645E-2,5.962339E0,-2.8716559E-2,4.5E1,-1.9083666E-2,3.1930625E-2,-2.142565E-2,2.340115E-2,-1.9681517E-2,7.385488E-3],"split_indices":[48,6,64,0,0,12,28,31,52,0,0,0,0,29,33,0,28,0,0,0,0,0,0],"split_type":[0,0,0,0,0,0,0,0,0,0,0,0,0,0,0,0,0,0,0,0,0,0,0],"sum_hessian":[7.9028424E2,7.7579156E2,1.4492675E1,7.7455316E2,1.2383931E0,1.051732E1,3.975355E0,5.355019E1,7.21003E2,9.008115E0,1.5092051E0,2.6172876E0,1.358067E0,9.929598E0,4.362059E1,7.1795245E2,3.0504954E0,5.843483E0,4.0861144E0,4.2245712E1,1.3748782E0,1.9195904E0,1.130905E0],"tree_param":{"num_deleted":"0","num_feature":"87","num_nodes":"23","size_leaf_vector":"1"}},{"base_weights":[5.515693E-1,6.643451E-1,3.5916872E-2,6.687478E-1,2.5261706E-1,-2.798598E-1,2.5076333E-1,3.3718225E-2,5.2812564E-1,-2.8931892E-1,5.4091066E-1,-1.1843249E-1,-5.559069E-1,2.9908258E-1,-2.1115506E-1,5.5946857E-1,1.7533824E-2,2.0123286E-2,-3.0894116E-2,-1.8797736E-4,3.1814124E-2,-2.3534079E-1,3.5087374E-1,-1.553061E-1,-6.95128E-1,-2.6486868E-2,3.1951827E-1,-6.235562E-1,2.9269153E-2,1.7118745E-2,3.254519E-2,-1.909366E-2,2.0824842E-2,-1.9295337E-2,8.360455E-3,2.6565334E-2,-3.2011505E-2,-2.5852298E-2,1.74947E-2,-5.872337E-3,-3.623974E-2,1.2233999E-2,2.683948E-2,-4.1869234E-2,9.144227E-3],"categories":[],"categories_nodes":[],"categories_segments":[],"categories_sizes":[],"default_left":[0,0,0,0,0,0,0,0,0,0,0,0,0,0,0,0,0,0,0,0,0,0,0,0,0,0,0,0,0,0,0,0,0,0,0,0,0,0,0,0,0,0,0,0,0],"id":36,"left_children":[1,3,5,7,9,11,13,-1,15,17,19,21,23,25,27,29,31,-1,-1,-1,-1,33,35,37,39,-1,41,43,-1,-1,-1,-1,-1,-1,-1,-1,-1,-1,-1,-1,-1,-1,-1,-1,-1],"loss_changes":[7.586194E1,1.7718811E0,1.6029404E1,4.8007202E-1,2.1774156E0,4.1995187E0,3.199441E0,0E0,7.147646E-1,1.4176867E0,4.59095E-1,3.4661014E0,1.8468094E0,2.3309011E0,4.9288096E0,6.232557E-1,7.408161E-1,0E0,0E0,0E0,0E0,3.093166E0,2.6112866E0,2.0681725E0,3.5570145E-1,0E0,1.9040661E0,1.8151238E0,0E0,0E0,0E0,0E0,0E0,0E0,0E0,0E0,0E0,0E0,0E0,0E0,0E0,0E0,0E0,0E0,0E0],"parents":[2147483647,0,0,1,1,2,2,3,3,4,4,5,5,6,6,8,8,9,9,10,10,11,11,12,12,13,13,14,14,15,15,16,16,21,21,22,22,23,23,24,24,26,26,27,27],"right_children":[2,4,6,8,10,12,14,-1,16,18,20,22,24,26,28,30,32,-1,-1,-1,-1,34,36,38,40,-1,42,44,-1,-1,-1,-1,-1,-1,-1,-1,-1,-1,-1,-1,-1,-1,-1,-1,-1],"split_conditions":[1.5E2,4E0,1.2E1,9.951592E5,9.313725E1,7.273947E1,9.173256E1,3.3718225E-2,4.347826E-2,-6.308415E-3,3.98E0,3.6760364E-3,4.5E0,3.6E0,9.9071655E1,9.594017E1,6.428595E-2,2.0123286E-2,-3.0894116E-2,-1.8797736E-4,3.1814124E-2,-5.0925925E-2,5.1549856E-2,6E1,2.2947E3,-2.6486868E-2,1.0052926E-2,5.7422E0,2.9269153E-2,1.7118745E-2,3.254519E-2,-1.909366E-2,2.0824842E-2,-1.9295337E-2,8.360455E-3,2.6565334E-2,-3.2011505E-2,-2.5852298E-2,1.74947E-2,-5.872337E-3,-3.623974E-2,1.2233999E-2,2.683948E-2,-4.1869234E-2,9.144227E-3],"split_indices":[48,6,0,55,37,56,56,0,66,71,63,31,1,59,37,37,74,0,0,0,0,82,31,28,49,0,31,25,0,0,0,0,0,0,0,0,0,0,0,0,0,0,0,0,0],"split_type":[0,0,0,0,0,0,0,0,0,0,0,0,0,0,0,0,0,0,0,0,0,0,0,0,0,0,0,0,0,0,0,0,0,0,0,0,0,0,0,0,0,0,0,0,0],"sum_hessian":[1.3039296E3,1.0696936E3,2.3423589E2,1.0577587E3,1.193499E1,9.471833E1,1.3951756E2,1.0134826E3,4.427604E1,4.1431384E0,7.7918515E0,6.0669144E1,3.4049183E1,1.2662445E2,1.2893105E1,4.162513E1,2.6509078E0,1.261708E0,2.8814304E0,1.3041873E0,6.487664E0,4.896906E1,1.1700087E1,9.326952E0,2.472223E1,2.447269E0,1.24177185E2,8.638012E0,4.255093E0,1.3742025E1,2.7883106E1,1.3461226E0,1.3047851E0,3.566908E1,1.329998E1,1.0290585E1,1.4095026E0,5.4215183E0,3.9054334E0,1.4498165E0,2.3272415E1,9.39445E1,3.0232681E1,6.7973237E0,1.840688E0],"tree_param":{"num_deleted":"0","num_feature":"87","num_nodes":"45","size_leaf_vector":"1"}},{"base_weights":[-3.9511478E-1,-5.531704E-1,1.5957464E-1,-5.714803E-1,-2.4684304E-1,4.214564E-1,6.0062185E-2,-2.4938922E-1,-2.873526E-2,-3.6971852E-1,9.277853E-2,7.198672E-2,7.270635E-1,-3.7714884E-2,4.0996403E-1,-2.4119144E-2,1.7046412E-2,-4.3098435E-1,2.3364773E-2,5.2715696E-2,-2.0520172E-1,7.168972E-1,-1.6051948E-1,8.1197566E-1,-2.0244515E-2,1.908862E-1,-2.4718086E-1,5.5559254E-1,-3.5298905E-1,-5.6697725E-4,-2.6314203E-2,1.6015029E-2,-1.8953383E-2,4.9144164E-2,-3.1189707E-3,2.2311075E-2,-1.9708442E-2,5.769211E-2,2.971356E-2,1.7777856E-2,-7.1450532E-3,-1.5734592E-2,3.2900933E-2,4.2316366E-2,5.337293E-3,3.736201E-3,-2.4477074E-2],"categories":[],"categories_nodes":[],"categories_segments":[],"categories_sizes":[],"default_left":[0,0,0,0,0,0,0,0,0,0,0,0,0,0,0,0,0,0,0,0,0,0,0,0,0,0,0,0,0,0,0,0,0,0,0,0,0,0,0,0,0,0,0,0,0,0,0],"id":37,"left_children":[1,3,5,7,9,11,13,15,-1,17,19,21,23,25,27,-1,-1,29,-1,-1,31,33,35,37,-1,39,41,43,45,-1,-1,-1,-1,-1,-1,-1,-1,-1,-1,-1,-1,-1,-1,-1,-1,-1,-1],"loss_changes":[7.175067E1,3.428131E0,4.718695E0,4.7961426E-1,1.6055415E0,5.2833395E0,4.5684094E0,1.225122E0,0E0,1.6294975E0,3.3114848E0,3.7762966E0,2.8799248E0,5.071624E0,3.4348955E0,0E0,0E0,1.0526099E0,0E0,0E0,9.51388E-1,1.4403629E0,2.8359287E0,1.1766624E0,0E0,2.8395767E0,3.5799057E0,3.1545825E0,3.4517467E-1,0E0,0E0,0E0,0E0,0E0,0E0,0E0,0E0,0E0,0E0,0E0,0E0,0E0,0E0,0E0,0E0,0E0,0E0],"parents":[2147483647,0,0,1,1,2,2,3,3,4,4,5,5,6,6,7,7,9,9,10,10,11,11,12,12,13,13,14,14,17,17,20,20,21,21,22,22,23,23,25,25,26,26,27,27,28,28],"right_children":[2,4,6,8,10,12,14,16,-1,18,20,22,24,26,28,-1,-1,30,-1,-1,32,34,36,38,-1,40,42,44,46,-1,-1,-1,-1,-1,-1,-1,-1,-1,-1,-1,-1,-1,-1,-1,-1,-1,-1],"split_conditions":[1.5E2,9.879157E5,4.0425E5,5E0,2.2E1,3.0555E3,6E0,4.516774E0,-2.873526E-2,6E0,2.3E1,-7.1770335E-3,7.1E1,9.287E2,8.8144295E1,-2.4119144E-2,1.7046412E-2,-9.6693486E-1,2.3364773E-2,5.2715696E-2,1.0554613E-2,1.7259689E-2,-8.4203435E-5,1.6732482E-2,-2.0244515E-2,3.47373E-4,4.5045044E-2,3.47373E-4,-9.328566E-3,-5.6697725E-4,-2.6314203E-2,1.6015029E-2,-1.8953383E-2,4.9144164E-2,-3.1189707E-3,2.2311075E-2,-1.9708442E-2,5.769211E-2,2.971356E-2,1.7777856E-2,-7.1450532E-3,-1.5734592E-2,3.2900933E-2,4.2316366E-2,5.337293E-3,3.736201E-3,-2.4477074E-2],"split_indices":[48,55,41,12,9,49,63,26,0,4,9,60,6,49,56,0,0,77,0,0,47,70,45,70,0,69,62,69,31,0,0,0,0,0,0,0,0,0,0,0,0,0,0,0,0,0,0],"split_type":[0,0,0,0,0,0,0,0,0,0,0,0,0,0,0,0,0,0,0,0,0,0,0,0,0,0,0,0,0,0,0,0,0,0,0,0,0,0,0,0,0,0,0,0,0,0,0],"sum_hessian":[8.163942E2,6.353559E2,1.8103833E2,5.9870447E2,3.665146E1,4.895935E1,1.3207898E2,6.711665E0,5.919928E2,2.6848883E1,9.802575E0,2.341698E1,2.5542372E1,1.0392909E2,2.8149881E1,4.94339E0,1.7682755E0,2.5469704E1,1.3791804E0,1.7186294E0,8.083946E0,5.653189E0,1.7763792E1,2.4022993E1,1.5193782E0,4.973711E1,5.4191986E1,2.386621E1,4.2836704E0,4.9207125E0,2.054899E1,1.8003225E0,6.2836237E0,4.0198426E0,1.6333466E0,4.6858296E0,1.3077961E1,7.673333E0,1.6349659E1,3.3262257E1,1.6474854E1,5.1037865E1,3.1541214E0,1.3946792E1,9.919419E0,1.146223E0,3.1374474E0],"tree_param":{"num_deleted":"0","num_feature":"87","num_nodes":"47","size_leaf_vector":"1"}},{"base_weights":[-5.189742E-1,-5.437709E-1,6.6545933E-1,-2.4576123E-1,-5.672862E-1,8.924428E-1,3.292183E-3,-2.8931794E-1,4.5012932E-2,-2.84991E-2,-2.1625115E-1,4.9348235E-2,1.964319E-3,-2.4223661E-2,3.621349E-2,1.906888E-1,-3.7728846E-1,-2.3943538E-2,2.1612464E-2,-7.605409E-3,5.525453E-2,-2.2189122E-2,6.8923496E-3],"categories":[],"categories_nodes":[],"categories_segments":[],"categories_sizes":[],"default_left":[0,0,0,0,0,0,0,0,0,0,0,0,0,0,0,0,0,0,0,0,0,0,0],"id":38,"left_children":[1,3,5,7,9,11,13,15,-1,-1,17,-1,-1,-1,-1,19,21,-1,-1,-1,-1,-1,-1],"loss_changes":[2.2532639E1,5.0459747E0,2.3912578E0,3.0498943E0,5.250244E-1,9.175739E-1,2.1339035E0,2.3771815E0,0E0,0E0,1.3705974E0,0E0,0E0,0E0,0E0,3.0267098E0,1.6530156E0,0E0,0E0,0E0,0E0,0E0,0E0],"parents":[2147483647,0,0,1,1,2,2,3,3,4,4,5,5,6,6,7,7,10,10,15,15,16,16],"right_children":[2,4,6,8,10,12,14,16,-1,-1,18,-1,-1,-1,-1,20,22,-1,-1,-1,-1,-1,-1],"split_conditions":[1.75476E4,1.2E1,9.433962E-3,1.289276E5,3.187E3,3.787879E-2,1.2094374E5,-1.5995154E-2,4.5012932E-2,-2.84991E-2,4.144E3,4.9348235E-2,1.964319E-3,-2.4223661E-2,3.621349E-2,-1.699466E-2,2.4193548E-2,-2.3943538E-2,2.1612464E-2,-7.605409E-3,5.525453E-2,-2.2189122E-2,6.8923496E-3],"split_indices":[48,0,64,7,48,60,7,31,0,0,7,0,0,0,0,31,68,0,0,0,0,0,0],"split_type":[0,0,0,0,0,0,0,0,0,0,0,0,0,0,0,0,0,0,0,0,0,0,0],"sum_hessian":[7.538764E2,7.389471E2,1.492934E1,5.4881588E1,6.840655E2,1.0859177E1,4.070164E0,5.3592255E1,1.2893326E0,6.7823315E2,5.8323255E0,9.634881E0,1.2242951E0,2.6233878E0,1.4467764E0,8.119726E0,4.5472527E1,4.3374033E0,1.4949219E0,6.512086E0,1.6076407E0,4.039662E1,5.0759044E0],"tree_param":{"num_deleted":"0","num_feature":"87","num_nodes":"23","size_leaf_vector":"1"}},{"base_weights":[5.456617E-1,1.348663E-1,3.321782E-2,-1.934558E-1,3.1472263E-1,3.572309E-2,-4.665601E-1,3.8618284E-1,7.1270525E-2,-1.3493274E-1,6.101462E-1,-1.061584E-1,-5.98034E-1,-2.5816172E-2,4.0219426E-1,2.7748802E-1,-3.64562E-1,1.26666725E-2,-1.918274E-2,3.8836896E-3,3.3374727E-2,2.0798892E-2,-2.0487523E-2,1.4955814E-2,-3.240974E-2,-1.9802893E-2,2.091057E-2,-2.811614E-2,1.870014E-2,-3.4541976E-2,1.5989317E-2],"categories":[],"categories_nodes":[],"categories_segments":[],"categories_sizes":[],"default_left":[0,0,0,0,0,0,0,0,0,0,0,0,0,0,0,0,0,0,0,0,0,0,0,0,0,0,0,0,0,0,0],"id":39,"left_children":[1,3,-1,5,7,9,11,13,15,17,19,21,23,-1,25,27,29,-1,-1,-1,-1,-1,-1,-1,-1,-1,-1,-1,-1,-1,-1],"loss_changes":[6.0608948E1,1.6613586E1,0E0,6.2649164E0,3.1297836E0,5.4943213E0,2.0981617E0,2.231802E0,3.912715E0,4.286614E0,3.3982038E-1,2.2961106E0,1.6884222E0,0E0,1.9325695E0,2.5896988E0,3.3588543E0,0E0,0E0,0E0,0E0,0E0,0E0,0E0,0E0,0E0,0E0,0E0,0E0,0E0,0E0],"parents":[2147483647,0,0,1,1,3,3,4,4,5,5,6,6,7,7,8,8,9,9,10,10,11,11,12,12,14,14,15,15,16,16],"right_children":[2,4,-1,6,8,10,12,14,16,18,20,22,24,-1,26,28,30,-1,-1,-1,-1,-1,-1,-1,-1,-1,-1,-1,-1,-1,-1],"split_conditions":[2.1E1,1.2E1,3.321782E-2,2.4333155E-2,9.55E2,4.81E0,-8.130081E-3,8.68421E1,2.017E2,3.09017E-1,-9.728567E-4,2.4964795E-2,2E0,-2.5816172E-2,1.207E2,1.1E3,9.738739E1,1.26666725E-2,-1.918274E-2,3.8836896E-3,3.3374727E-2,2.0798892E-2,-2.0487523E-2,1.4955814E-2,-3.240974E-2,-1.9802893E-2,2.091057E-2,-2.811614E-2,1.870014E-2,-3.4541976E-2,1.5989317E-2],"split_indices":[0,0,0,29,5,1,62,37,52,18,75,47,19,0,50,5,37,0,0,0,0,0,0,0,0,0,0,0,0,0,0],"split_type":[0,0,0,0,0,0,0,0,0,0,0,0,0,0,0,0,0,0,0,0,0,0,0,0,0,0,0,0,0,0,0],"sum_hessian":[1.2438617E3,2.7931284E2,9.645489E2,9.882864E1,1.8048419E2,5.420828E1,4.462036E1,1.390753E2,4.1408886E1,4.2382057E1,1.1826221E1,1.2409737E1,3.2210625E1,1.8796359E0,1.3719568E2,2.8355553E1,1.3053333E1,1.65415E1,2.5840559E1,1.3787858E0,1.0447435E1,4.4265304E0,7.9832063E0,1.4427723E0,3.0767853E1,2.231995E0,1.3496368E2,2.4253535E0,2.5930199E1,8.832681E0,4.220652E0],"tree_param":{"num_deleted":"0","num_feature":"87","num_nodes":"31","size_leaf_vector":"1"}},{"base_weights":[-3.866295E-1,-5.50725E-1,1.4255399E-1,-5.6532013E-1,-2.718893E-1,4.242196E-1,3.824029E-2,-2.8346702E-2,5.5232784E-3,