{"learner":{"attributes":{"scikit_learn":"{\"_estimator_type\": \"classifier\"}"},"feature_names":[],"feature_types":[],"gradient_booster":{"model":{"cats":{"enc":[],"feature_segments":[],"sorted_idx":[]},"gbtree_model_param":{"num_parallel_tree":"1","num_trees":"750"},"iteration_indptr":[0,3,6,9,12,15,18,21,24,27,30,33,36,39,42,45,48,51,54,57,60,63,66,69,72,75,78,81,84,87,90,93,96,99,102,105,108,111,114,117,120,123,126,129,132,135,138,141,144,147,150,153,156,159,162,165,168,171,174,177,180,183,186,189,192,195,198,201,204,207,210,213,216,219,222,225,228,231,234,237,240,243,246,249,252,255,258,261,264,267,270,273,276,279,282,285,288,291,294,297,300,303,306,309,312,315,318,321,324,327,330,333,336,339,342,345,348,351,354,357,360,363,366,369,372,375,378,381,384,387,390,393,396,399,402,405,408,411,414,417,420,423,426,429,432,435,438,441,444,447,450,453,456,459,462,465,468,471,474,477,480,483,486,489,492,495,498,501,504,507,510,513,516,519,522,525,528,531,534,537,540,543,546,549,552,555,558,561,564,567,570,573,576,579,582,585,588,591,594,597,600,603,606,609,612,615,618,621,624,627,630,633,636,639,642,645,648,651,654,657,660,663,666,669,672,675,678,681,684,687,690,693,696,699,702,705,708,711,714,717,720,723,726,729,732,735,738,741,744,747,750],"tree_info":[0,1,2,0,1,2,0,1,2,0,1,2,0,1,2,0,1,2,0,1,2,0,1,2,0,1,2,0,1,2,0,1,2,0,1,2,0,1,2,0,1,2,0,1,2,0,1,2,0,1,2,0,1,2,0,1,2,0,1,2,0,1,2,0,1,2,0,1,2,0,1,2,0,1,2,0,1,2,0,1,2,0,1,2,0,1,2,0,1,2,0,1,2,0,1,2,0,1,2,0,1,2,0,1,2,0,1,2,0,1,2,0,1,2,0,1,2,0,1,2,0,1,2,0,1,2,0,1,2,0,1,2,0,1,2,0,1,2,0,1,2,0,1,2,0,1,2,0,1,2,0,1,2,0,1,2,0,1,2,0,1,2,0,1,2,0,1,2,0,1,2,0,1,2,0,1,2,0,1,2,0,1,2,0,1,2,0,1,2,0,1,2,0,1,2,0,1,2,0,1,2,0,1,2,0,1,2,0,1,2,0,1,2,0,1,2,0,1,2,0,1,2,0,1,2,0,1,2,0,1,2,0,1,2,0,1,2,0,1,2,0,1,2,0,1,2,0,1,2,0,1,2,0,1,2,0,1,2,0,1,2,0,1,2,0,1,2,0,1,2,0,1,2,0,1,2,0,1,2,0,1,2,0,1,2,0,1,2,0,1,2,0,1,2,0,1,2,0,1,2,0,1,2,0,1,2,0,1,2,0,1,2,0,1,2,0,1,2,0,1,2,0,1,2,0,1,2,0,1,2,0,1,2,0,1,2,0,1,2,0,1,2,0,1,2,0,1,2,0,1,2,0,1,2,0,1,2,0,1,2,0,1,2,0,1,2,0,1,2,0,1,2,0,1,2,0,1,2,0,1,2,0,1,2,0,1,2,0,1,2,0,1,2,0,1,2,0,1,2,0,1,2,0,1,2,0,1,2,0,1,2,0,1,2,0,1,2,0,1,2,0,1,2,0,1,2,0,1,2,0,1,2,0,1,2,0,1,2,0,1,2,0,1,2,0,1,2,0,1,2,0,1,2,0,1,2,0,1,2,0,1,2,0,1,2,0,1,2,0,1,2,0,1,2,0,1,2,0,1,2,0,1,2,0,1,2,0,1,2,0,1,2,0,1,2,0,1,2,0,1,2,0,1,2,0,1,2,0,1,2,0,1,2,0,1,2,0,1,2,0,1,2,0,1,2,0,1,2,0,1,2,0,1,2,0,1,2,0,1,2,0,1,2,0,1,2,0,1,2,0,1,2,0,1,2,0,1,2,0,1,2,0,1,2,0,1,2,0,1,2,0,1,2,0,1,2,0,1,2,0,1,2,0,1,2,0,1,2,0,1,2,0,1,2,0,1,2,0,1,2,0,1,2,0,1,2,0,1,2,0,1,2,0,1,2,0,1,2,0,1,2,0,1,2,0,1,2,0,1,2,0,1,2,0,1,2,0,1,2,0,1,2,0,1,2,0,1,2,0,1,2,0,1,2,0,1,2,0,1,2,0,1,2,0,1,2,0,1,2,0,1,2,0,1,2,0,1,2,0,1,2,0,1,2,0,1,2,0,1,2,0,1,2,0,1,2,0,1,2,0,1,2,0,1,2,0,1,2,0,1,2,0,1,2,0,1,2,0,1,2,0,1,2,0,1,2,0,1,2,0,1,2,0,1,2,0,1,2,0,1,2,0,1,2,0,1,2,0,1,2],"trees":[{"base_weights":[1.22705065E-1,4.5180115E-1,-2.0529737E-1,1.9861463E-1,6.3110256E-1,8.9756526E-2,-3.5964766E-1,-1.2958282E-1,3.0634362E-1,7.711851E-1,2.4286102E-1,6.067314E-1,-9.065167E-3,-1.1070896E-1,-5.11126E-1,1.4885777E-1,-3.3616716E-1,6.105849E-2,5.0480705E-1,7.9905856E-1,-2.803734E-1,-3.458365E-1,3.7692878E-1,7.5036126E-1,-2.706717E-2,-4.5214813E-2,5.3447645E-2,1.5996327E-1,-2.497597E-1,-6.307676E-1,-1.4502238E-1,-8.192714E-3,3.8491413E-2,8.8965455E-3,-2.3212465E-2,-1.9302856E-2,9.702862E-3,2.779365E-2,-1.9840423E-2,4.087858E-2,-1.5188883E-2,1.956125E-2,-2.9637313E-2,1.8460738E-2,-2.6348788E-2,3.0778378E-2,1.6548195E-3,-1.5188883E-2,4.5800336E-2,2.662325E-3,-2.0553615E-2,-1.1680034E-2,2.1446645E-2,3.3636708E-2,-1.4446474E-2,-3.2188315E-2,1.0105917E-2,1.2052832E-2,-1.967063E-2],"categories":[],"categories_nodes":[],"categories_segments":[],"categories_sizes":[],"default_left":[0,0,0,0,0,0,0,0,0,0,0,0,0,0,0,0,0,0,0,0,0,0,0,0,0,0,0,0,0,0,0,0,0,0,0,0,0,0,0,0,0,0,0,0,0,0,0,0,0,0,0,0,0,0,0,0,0,0,0],"id":0,"left_children":[1,3,5,7,9,11,13,15,17,19,21,23,25,27,29,31,33,35,37,39,41,43,45,47,-1,49,-1,51,53,55,57,-1,-1,-1,-1,-1,-1,-1,-1,-1,-1,-1,-1,-1,-1,-1,-1,-1,-1,-1,-1,-1,-1,-1,-1,-1,-1,-1,-1],"loss_changes":[9.482132E1,1.977504E1,2.007982E1,6.5169077E0,1.3744667E1,7.7704225E0,1.0849255E1,2.6946354E0,6.6978445E0,5.7281876E0,5.6063185E0,4.4306583E0,5.0592613E0,4.205854E0,7.7719994E0,4.0633044E0,1.8407428E0,3.8186727E0,3.7319813E0,3.9886703E0,1.404485E0,1.929058E0,4.655777E0,4.1391506E0,0E0,4.5381317E0,0E0,4.1411595E0,2.8506446E0,1.5917854E0,4.4598203E0,0E0,0E0,0E0,0E0,0E0,0E0,0E0,0E0,0E0,0E0,0E0,0E0,0E0,0E0,0E0,0E0,0E0,0E0,0E0,0E0,0E0,0E0,0E0,0E0,0E0,0E0,0E0,0E0],"parents":[2147483647,0,0,1,1,2,2,3,3,4,4,5,5,6,6,7,7,8,8,9,9,10,10,11,11,12,12,13,13,14,14,15,15,16,16,17,17,18,18,19,19,20,20,21,21,22,22,23,23,25,25,27,27,28,28,29,29,30,30],"right_children":[2,4,6,8,10,12,14,16,18,20,22,24,26,28,30,32,34,36,38,40,42,44,46,48,-1,50,-1,52,54,56,58,-1,-1,-1,-1,-1,-1,-1,-1,-1,-1,-1,-1,-1,-1,-1,-1,-1,-1,-1,-1,-1,-1,-1,-1,-1,-1,-1,-1],"split_conditions":[1.24437E5,9.15E1,1.7894E3,3.5264915E1,7.954105E4,6.134E2,3.2185E3,2.419175E1,1.96E2,1.8033366E0,-1.775701E-2,1.3315E2,3.8157928E0,2.304884E5,9.627985E1,3E0,1E0,-5.205E2,2.5263159E-2,4.1493405E-2,1.2582177E-1,-1.056E-1,2.70285E3,9.051515E1,-2.706717E-2,1.18E2,5.3447645E-2,1.15E2,-1.6312057E-1,3.603125E4,-8.474576E-4,-8.192714E-3,3.8491413E-2,8.8965455E-3,-2.3212465E-2,-1.9302856E-2,9.702862E-3,2.779365E-2,-1.9840423E-2,4.087858E-2,-1.5188883E-2,1.956125E-2,-2.9637313E-2,1.8460738E-2,-2.6348788E-2,3.0778378E-2,1.6548195E-3,-1.5188883E-2,4.5800336E-2,2.662325E-3,-2.0553615E-2,-1.1680034E-2,2.1446645E-2,3.3636708E-2,-1.4446474E-2,-3.2188315E-2,1.0105917E-2,1.2052832E-2,-1.967063E-2],"split_indices":[7,61,48,56,7,48,50,37,12,74,38,1,30,7,33,8,8,52,38,43,71,81,50,26,0,59,0,12,82,50,60,0,0,0,0,0,0,0,0,0,0,0,0,0,0,0,0,0,0,0,0,0,0,0,0,0,0,0,0],"split_type":[0,0,0,0,0,0,0,0,0,0,0,0,0,0,0,0,0,0,0,0,0,0,0,0,0,0,0,0,0,0,0,0,0,0,0,0,0,0,0,0,0,0,0,0,0,0,0,0,0,0,0,0,0,0,0,0,0,0,0],"sum_hessian":[8.765687E2,4.373665E2,4.3920224E2,1.821978E2,2.551687E2,1.5099011E2,2.8821213E2,4.4975777E1,1.3722202E2,1.8678716E2,6.838154E1,2.3405762E1,1.2758435E2,1.0968583E2,1.785263E2,1.9275333E1,2.5700445E1,6.195643E1,7.526559E1,1.821978E2,4.589365E0,1.2391286E1,5.5990253E1,2.111108E1,2.2946825E0,1.24371796E2,3.2125556E0,3.717386E1,7.251197E1,1.3400946E2,4.451684E1,1.3309159E1,5.9661746E0,5.0483017E0,2.0652143E1,1.3768095E1,4.8188335E1,7.159409E1,3.671492E0,1.7944418E2,2.7536192E0,1.3768096E0,3.2125556E0,2.2946825E0,1.0096603E1,3.258449E1,2.3405762E1,2.7536192E0,1.835746E1,9.867135E1,2.5700445E1,1.5144905E1,2.2028954E1,2.2946825E0,7.0217285E1,1.3217372E2,1.835746E0,1.7439587E1,2.7077253E1],"tree_param":{"num_deleted":"0","num_feature":"87","num_nodes":"59","size_leaf_vector":"1"}},{"base_weights":[2.6290637E-1,-9.537482E-2,4.8702347E-1,1.9674377E-1,-2.4344651E-1,2.965005E-1,7.335558E-1,-2.9401934E-1,3.1754407E-1,3.6756366E-1,-3.042012E-1,1.9697912E-1,5.461736E-1,3.689601E-1,8.175064E-1,-4.4949302E-1,5.106309E-1,5.1505595E-1,1.3239746E-1,1.0710664E-1,9.247732E-1,-3.828415E-1,1.7578347E-1,5.2807206E-1,1.1735451E-1,5.919559E-1,-2.9611203E-1,4.741748E-1,-3.2869E-2,9.8962563E-1,6.8810153E-1,-3.2243412E-2,5.0613442E-3,-3.912793E-3,4.1381225E-2,1.792958E-2,5.1799238E-2,-1.8536576E-4,2.8606197E-2,-1.1842606E-2,4.1706458E-2,1.661097E-2,5.1125135E-2,-2.0008711E-2,4.1381225E-2,-4.90099E-3,4.4169262E-2,-1.9343067E-2,3.6554255E-2,2.2968384E-2,2.8395772E-3,3.2383304E-2,-1.0897627E-2,-3.0746996E-2,1.661097E-2,3.0740961E-2,-2.6781268E-3,5.2865606E-2,2.728932E-2,6.611924E-3,4.0003143E-2],"categories":[],"categories_nodes":[],"categories_segments":[],"categories_sizes":[],"default_left":[0,0,0,0,0,0,0,0,0,0,0,0,0,0,0,0,0,0,0,0,0,0,0,0,0,0,0,0,0,0,0,0,0,0,0,0,0,0,0,0,0,0,0,0,0,0,0,0,0,0,0,0,0,0,0,0,0,0,0,0,0],"id":1,"left_children":[1,3,5,7,9,11,13,15,17,19,21,23,25,27,29,31,33,35,37,39,41,43,45,47,49,51,53,55,-1,57,59,-1,-1,-1,-1,-1,-1,-1,-1,-1,-1,-1,-1,-1,-1,-1,-1,-1,-1,-1,-1,-1,-1,-1,-1,-1,-1,-1,-1,-1,-1],"loss_changes":[7.320279E1,1.524895E1,2.6115768E1,7.1344714E0,8.785841E0,7.7920704E0,7.158081E0,3.2293696E0,3.4346924E0,3.0336418E0,8.11021E0,5.9719496E0,3.647562E0,5.4342647E0,3.713089E0,2.2847981E0,8.77007E-1,3.3778934E0,3.0417426E0,4.158792E0,5.0896168E-2,4.178995E0,6.0309315E0,8.471516E0,3.8222651E0,4.009575E0,1.2677648E0,3.2696085E0,0E0,1.8979263E0,7.107006E0,0E0,0E0,0E0,0E0,0E0,0E0,0E0,0E0,0E0,0E0,0E0,0E0,0E0,0E0,0E0,0E0,0E0,0E0,0E0,0E0,0E0,0E0,0E0,0E0,0E0,0E0,0E0,0E0,0E0,0E0],"parents":[2147483647,0,0,1,1,2,2,3,3,4,4,5,5,6,6,7,7,8,8,9,9,10,10,11,11,12,12,13,13,14,14,15,15,16,16,17,17,18,18,19,19,20,20,21,21,22,22,23,23,24,24,25,25,26,26,27,27,29,29,30,30],"right_children":[2,4,6,8,10,12,14,16,18,20,22,24,26,28,30,32,34,36,38,40,42,44,46,48,50,52,54,56,-1,58,60,-1,-1,-1,-1,-1,-1,-1,-1,-1,-1,-1,-1,-1,-1,-1,-1,-1,-1,-1,-1,-1,-1,-1,-1,-1,-1,-1,-1,-1,-1],"split_conditions":[8.91E2,9.101E1,6.9615E4,-3.7815126E-3,-4.48365E-2,1.2258725E2,2.8E1,9.309282E-1,1.96E2,5.78E2,5.409091E-2,6.5252E1,2.5456E3,5.081E3,-3.5816044E-4,9.6173596E-1,0E0,8.079096E1,6.275698E-3,3.699517E1,9.43E1,2.2357187E0,8.699187E1,1.1491E3,-2.3766732E-2,3.619301E0,0E0,1.3278615E0,-3.2869E-2,9.499E1,1.3480985E-2,-3.2243412E-2,5.0613442E-3,-3.912793E-3,4.1381225E-2,1.792958E-2,5.1799238E-2,-1.8536576E-4,2.8606197E-2,-1.1842606E-2,4.1706458E-2,1.661097E-2,5.1125135E-2,-2.0008711E-2,4.1381225E-2,-4.90099E-3,4.4169262E-2,-1.9343067E-2,3.6554255E-2,2.2968384E-2,2.8395772E-3,3.2383304E-2,-1.0897627E-2,-3.0746996E-2,1.661097E-2,3.0740961E-2,-2.6781268E-3,5.2865606E-2,2.728932E-2,6.611924E-3,4.0003143E-2],"split_indices":[5,61,41,68,40,32,6,51,12,5,40,27,52,5,44,71,17,36,42,56,1,71,36,49,44,30,17,74,0,1,46,0,0,0,0,0,0,0,0,0,0,0,0,0,0,0,0,0,0,0,0,0,0,0,0,0,0,0,0,0,0],"split_type":[0,0,0,0,0,0,0,0,0,0,0,0,0,0,0,0,0,0,0,0,0,0,0,0,0,0,0,0,0,0,0,0,0,0,0,0,0,0,0,0,0,0,0,0,0,0,0,0,0,0,0,0,0,0,0,0,0,0,0,0,0],"sum_hessian":[9.100724E2,3.5043292E2,5.5963947E2,1.1776844E2,2.3266449E2,3.1692157E2,2.427179E2,2.2979208E1,9.478924E1,2.058554E1,2.1207895E2,2.2787715E2,8.904443E1,4.643715E1,1.9628075E2,1.9628075E1,3.3511345E0,4.500095E1,4.9788284E1,1.4840739E1,5.744802E0,1.8239746E2,2.9681479E1,4.3086018E1,1.8479114E2,8.473583E1,4.3086014E0,4.260728E1,3.829868E0,8.13847E1,1.1489604E2,1.4362005E1,5.2660685E0,1.4362005E0,1.914934E0,3.5905014E1,9.095937E0,3.8777412E1,1.1010871E1,1.0532137E1,4.3086014E0,1.4362005E0,4.3086014E0,1.8048253E2,1.914934E0,2.2021742E1,7.659736E0,7.659736E0,3.542628E1,2.6809076E1,1.5798206E2,7.9469765E1,5.2660685E0,2.872401E0,1.4362005E0,3.3511345E1,9.095937E0,6.941636E1,1.1968338E1,1.9628075E1,9.526797E1],"tree_param":{"num_deleted":"0","num_feature":"87","num_nodes":"61","size_leaf_vector":"1"}},{"base_weights":[-5.2109903E-1,-5.64666E-1,-3.390593E-1,-5.884599E-1,-3.6380687E-1,-4.6169266E-1,-1.2251361E-1,-5.934517E-1,-2.0874853E-1,4.1044766E-1,-4.1468185E-1,-4.8223445E-1,2.9817758E-2,-2.066702E-1,7.501222E-1,6.167508E-3,-5.953187E-1,-2.8125567E-2,4.052211E-2,6.0638595E-2,-2.1562388E-2,-5.269542E-1,-1.3986072E-1,-5.011931E-1,1.6155934E-1,-2.5720423E-1,4.052211E-2,7.0030354E-2,-1.982735E-2,-1.496494E-2,-2.9926917E-2,-3.0530011E-2,-1.202917E-2,1.4388059E-2,-2.1491062E-2,-2.6940245E-2,-2.8323303E-3,2.9817758E-2,-1.748274E-2,1.7531576E-2,-1.7488705E-2],"categories":[],"categories_nodes":[],"categories_segments":[],"categories_sizes":[],"default_left":[1,0,0,0,0,0,0,0,0,0,0,0,0,0,0,0,0,0,0,0,0,0,0,0,0,0,0,0,0,0,0,0,0,0,0,0,0,0,0,0,0],"id":2,"left_children":[1,3,5,7,9,11,13,15,17,19,21,23,-1,25,27,-1,29,-1,-1,-1,-1,31,33,35,37,39,-1,-1,-1,-1,-1,-1,-1,-1,-1,-1,-1,-1,-1,-1,-1],"loss_changes":[5.3597107E0,2.4779053E0,3.5993137E0,8.2762146E-1,2.6233397E0,2.1900158E0,3.9103868E0,7.357788E-1,3.360573E0,3.4555013E0,1.7447424E0,1.1357365E0,0E0,2.6459138E0,4.071395E0,0E0,2.915039E-1,0E0,0E0,0E0,0E0,8.46715E-1,2.411973E0,1.3771439E0,9.2608154E-1,2.7073965E0,0E0,0E0,0E0,0E0,0E0,0E0,0E0,0E0,0E0,0E0,0E0,0E0,0E0,0E0,0E0],"parents":[2147483647,0,0,1,1,2,2,3,3,4,4,5,5,6,6,7,7,8,8,9,9,10,10,11,11,13,13,14,14,16,16,21,21,22,22,23,23,24,24,25,25],"right_children":[2,4,6,8,10,12,14,16,18,20,22,24,-1,26,28,-1,30,-1,-1,-1,-1,32,34,36,38,40,-1,-1,-1,-1,-1,-1,-1,-1,-1,-1,-1,-1,-1,-1,-1],"split_conditions":[4E1,8.374E2,1.0640571E-2,5.2E1,3.1E1,2.4390243E-2,1.58E2,-7.969418E0,3.2071E3,4.891654E-3,3.9E1,3.322222E-2,2.9817758E-2,5.1E1,1.3184966E0,6.167508E-3,-2.9803922E-2,-2.8125567E-2,4.052211E-2,6.0638595E-2,-2.1562388E-2,1.1903364E6,-7.2516315E-4,1.7407799E0,9.22278E1,-4.8387097E-3,4.052211E-2,7.0030354E-2,-1.982735E-2,-1.496494E-2,-2.9926917E-2,-3.0530011E-2,-1.202917E-2,1.4388059E-2,-2.1491062E-2,-2.6940245E-2,-2.8323303E-3,2.9817758E-2,-1.748274E-2,1.7531576E-2,-1.7488705E-2],"split_indices":[6,52,43,11,12,64,6,29,49,70,6,68,0,11,51,0,68,0,0,0,0,55,64,77,24,62,0,0,0,0,0,0,0,0,0,0,0,0,0,0,0],"split_type":[0,0,0,0,0,0,0,0,0,0,0,0,0,0,0,0,0,0,0,0,0,0,0,0,0,0,0,0,0,0,0,0,0,0,0,0,0,0,0,0,0],"sum_hessian":[6.9893884E2,5.622707E2,1.3666817E2,5.0099283E2,6.1277847E1,8.6531746E1,5.013642E1,4.9393658E2,7.056237E0,3.342428E0,5.793542E1,8.54176E1,1.1141427E0,4.642261E1,3.713809E0,1.1141427E0,4.9282245E2,5.5707135E0,1.4855236E0,1.4855236E0,1.8569045E0,4.048052E1,1.7454903E1,8.318932E1,2.2282853E0,4.4937088E1,1.4855236E0,2.2282853E0,1.4855236E0,6.313475E0,4.8650897E2,3.0453234E1,1.0027285E1,7.056237E0,1.0398665E1,7.650446E1,6.684856E0,1.1141427E0,1.1141427E0,5.5707135E0,3.9366375E1],"tree_param":{"num_deleted":"0","num_feature":"87","num_nodes":"41","size_leaf_vector":"1"}},{"base_weights":[1.4285226E-1,4.6023723E-1,-1.6780876E-1,5.857991E-1,1.5447478E-1,5.061172E-2,-4.8654804E-1,6.2223935E-1,-3.2172164E-1,-1.6829056E-1,3.398853E-1,1.7528751E-1,-1.7472856E-1,-1.1229483E-2,-5.6683135E-1,1.5089627E-1,6.6226035E-1,2.6581427E-2,-5.2056587E-1,4.1385803E-2,-2.5977448E-1,1.0404243E-1,8.2525027E-1,-2.7479088E-1,3.0129445E-1,-3.39658E-1,2.0350507E-1,-2.7343145E-1,4.2010963E-1,-9.568391E-2,-6.0047174E-1,-3.0545002E-2,1.5735945E-2,3.829221E-2,2.419912E-2,9.401623E-3,-3.4551706E-2,1.7165396E-2,-1.7326577E-2,-2.700205E-3,4.4884704E-2,4.7217526E-2,-2.5144035E-2,-2.1645727E-2,2.4701199E-2,1.8446904E-2,-2.5847008E-2,-1.9837866E-2,2.9935488E-2,-1.3208787E-2,2.7837811E-2,-2.7544994E-2,1.7092165E-2,4.0021792E-2,-1.7665667E-2,-3.1615026E-2,1.740864E-2,1.0729182E-2,-3.0619359E-2],"categories":[],"categories_nodes":[],"categories_segments":[],"categories_sizes":[],"default_left":[0,0,0,0,0,0,0,0,0,0,0,0,0,0,0,0,0,0,0,0,0,0,0,0,0,0,0,0,0,0,0,0,0,0,0,0,0,0,0,0,0,0,0,0,0,0,0,0,0,0,0,0,0,0,0,0,0,0,0],"id":3,"left_children":[1,3,5,7,9,11,13,15,17,19,21,23,25,27,29,31,33,-1,35,-1,37,39,41,43,45,47,49,51,53,55,57,-1,-1,-1,-1,-1,-1,-1,-1,-1,-1,-1,-1,-1,-1,-1,-1,-1,-1,-1,-1,-1,-1,-1,-1,-1,-1,-1,-1],"loss_changes":[8.6626236E1,1.6589401E1,3.0958168E1,1.0373535E1,7.707269E0,7.4632716E0,6.891697E0,5.4854736E0,2.4036856E0,4.5257907E0,9.246165E0,9.770628E0,5.9789734E0,3.1844115E0,2.3932953E0,3.2458975E0,4.6638336E0,0E0,1.4189429E0,0E0,2.4258676E0,7.0738964E0,4.6690464E0,4.819694E0,7.6038113E0,3.792315E0,5.002862E0,3.1734278E0,3.4170284E0,2.95785E0,1.5311699E0,0E0,0E0,0E0,0E0,0E0,0E0,0E0,0E0,0E0,0E0,0E0,0E0,0E0,0E0,0E0,0E0,0E0,0E0,0E0,0E0,0E0,0E0,0E0,0E0,0E0,0E0,0E0,0E0],"parents":[2147483647,0,0,1,1,2,2,3,3,4,4,5,5,6,6,7,7,8,8,9,9,10,10,11,11,12,12,13,13,14,14,15,15,16,16,18,18,20,20,21,21,22,22,23,23,24,24,25,25,26,26,27,27,28,28,29,29,30,30],"right_children":[2,4,6,8,10,12,14,16,18,20,22,24,26,28,30,32,34,-1,36,-1,38,40,42,44,46,48,50,52,54,56,58,-1,-1,-1,-1,-1,-1,-1,-1,-1,-1,-1,-1,-1,-1,-1,-1,-1,-1,-1,-1,-1,-1,-1,-1,-1,-1,-1,-1],"split_conditions":[1.24437E5,1.15723625E5,2.4965036E5,1.7878577E-1,1.94E2,1.165E2,1.786E3,8.34E1,8.092713E-3,2E0,6.597353E1,7.29E1,3.2739653E-3,5.8924732E1,2.2870116E-2,-9.3560815E-3,6.05755E4,2.6581427E-2,6E0,4.1385803E-2,-1.0733453E-2,7.0281E3,1.9477384E-2,1.6417446E0,5E1,1.572995E4,1.6E1,1.0089675E2,5.564391E-3,5.25E1,1.356E3,-3.0545002E-2,1.5735945E-2,3.829221E-2,2.419912E-2,9.401623E-3,-3.4551706E-2,1.7165396E-2,-1.7326577E-2,-2.700205E-3,4.4884704E-2,4.7217526E-2,-2.5144035E-2,-2.1645727E-2,2.4701199E-2,1.8446904E-2,-2.5847008E-2,-1.9837866E-2,2.9935488E-2,-1.3208787E-2,2.7837811E-2,-2.7544994E-2,1.7092165E-2,4.0021792E-2,-1.7665667E-2,-3.1615026E-2,1.740864E-2,1.0729182E-2,-3.0619359E-2],"split_indices":[7,55,55,34,12,4,48,65,70,19,36,2,66,37,34,66,7,0,9,0,68,49,43,71,11,50,11,32,70,36,5,0,0,0,0,0,0,0,0,0,0,0,0,0,0,0,0,0,0,0,0,0,0,0,0,0,0,0,0],"split_type":[0,0,0,0,0,0,0,0,0,0,0,0,0,0,0,0,0,0,0,0,0,0,0,0,0,0,0,0,0,0,0,0,0,0,0,0,0,0,0,0,0,0,0,0,0,0,0,0,0,0,0,0,0,0,0,0,0,0,0],"sum_hessian":[8.767866E2,4.3346164E2,4.4332498E2,3.0662833E2,1.2683333E2,2.6355887E2,1.7976611E2,2.950936E2,1.1534718E1,4.6309467E1,8.052386E1,1.6982214E2,9.373671E1,2.6140545E1,1.5362556E2,2.3468342E1,2.7162524E2,1.86356E0,9.671157E0,3.2187304E0,4.309074E1,5.5008926E1,2.5514935E1,3.688687E1,1.3293527E2,6.534493E1,2.8391783E1,1.6485466E1,9.65508E0,1.0494207E1,1.4313136E2,3.6705897E0,1.979775E1,1.6971873E2,1.0190652E2,1.8554462E0,7.815711E0,5.0473704E0,3.804337E1,4.6650894E1,8.35803E0,2.368036E1,1.8345743E0,3.0956825E1,5.930044E0,1.23291824E2,9.64345E0,6.2140865E1,3.2040648E0,1.2325632E1,1.606615E1,1.1433821E1,5.0516443E0,6.4489303E0,3.2061498E0,4.5584927E0,5.9357142E0,1.8172371E0,1.4131413E2],"tree_param":{"num_deleted":"0","num_feature":"87","num_nodes":"59","size_leaf_vector":"1"}},{"base_weights":[2.7794963E-1,1.2385752E-3,5.2516955E-1,2.2147551E-1,-1.483224E-1,3.607069E-1,7.516193E-1,1.7157173E-1,7.4510294E-1,-2.714186E-1,1.8176673E-1,2.019066E-1,5.364815E-1,-8.366955E-2,8.0471414E-1,3.106381E-1,-6.9576874E-2,1.5916514E-1,1.0074121E0,-3.2090303E-1,4.833742E-1,6.167067E-1,-9.02729E-2,1.1354481E-1,5.209049E-1,5.716322E-1,-1.580946E-1,2.8899938E-1,-3.389348E-2,-2.4274988E-2,8.17028E-1,-1.9711632E-2,1.8587047E-2,-9.768014E-3,2.515901E-2,2.4510583E-2,-2.4917018E-2,5.4274626E-2,1.5880931E-2,-1.7267093E-2,3.6530934E-2,-7.976609E-3,4.636236E-2,4.084167E-2,-5.842982E-3,-2.804308E-2,1.1326099E-2,7.7846367E-4,2.123399E-2,3.195245E-2,-3.4254806E-3,2.1669665E-2,3.78385E-2,-2.5447527E-2,3.683899E-2,-2.7523044E-2,3.0400608E-2,4.6863265E-2,3.383698E-2],"categories":[],"categories_nodes":[],"categories_segments":[],"categories_sizes":[],"default_left":[0,0,0,0,0,0,0,0,0,0,0,0,0,0,0,0,0,0,0,0,0,0,0,0,0,0,0,0,0,0,0,0,0,0,0,0,0,0,0,0,0,0,0,0,0,0,0,0,0,0,0,0,0,0,0,0,0,0,0],"id":4,"left_children":[1,3,5,7,9,11,13,15,17,19,21,23,25,27,29,31,33,35,37,39,41,43,45,47,49,51,53,55,-1,-1,57,-1,-1,-1,-1,-1,-1,-1,-1,-1,-1,-1,-1,-1,-1,-1,-1,-1,-1,-1,-1,-1,-1,-1,-1,-1,-1,-1,-1],"loss_changes":[6.2753296E1,1.4323545E1,1.777237E1,4.467802E0,1.0572636E1,7.7793007E0,9.0662E0,5.4498935E0,2.145646E0,7.2158546E0,8.450045E0,4.170657E0,3.3501854E0,3.0818703E0,3.4291916E0,4.5760574E0,4.4223876E0,1.5126854E0,2.0331287E-1,4.826809E0,3.5809073E0,4.12191E0,6.763912E0,3.6145167E0,2.291027E0,2.9301147E0,2.6402447E0,2.6673474E0,0E0,0E0,2.561226E0,0E0,0E0,0E0,0E0,0E0,0E0,0E0,0E0,0E0,0E0,0E0,0E0,0E0,0E0,0E0,0E0,0E0,0E0,0E0,0E0,0E0,0E0,0E0,0E0,0E0,0E0,0E0,0E0],"parents":[2147483647,0,0,1,1,2,2,3,3,4,4,5,5,6,6,7,7,8,8,9,9,10,10,11,11,12,12,13,13,14,14,15,15,16,16,17,17,18,18,19,19,20,20,21,21,22,22,23,23,24,24,25,25,26,26,27,27,30,30],"right_children":[2,4,6,8,10,12,14,16,18,20,22,24,26,28,30,32,34,36,38,40,42,44,46,48,50,52,54,56,-1,-1,58,-1,-1,-1,-1,-1,-1,-1,-1,-1,-1,-1,-1,-1,-1,-1,-1,-1,-1,-1,-1,-1,-1,-1,-1,-1,-1,-1,-1],"split_conditions":[1.1478915E5,9.101E1,2.5083527E5,2.6344676E-2,7.580121E4,6.3E1,2.2E1,5.831933E1,1.6036E3,3.672484E-2,-2.4082738E-3,1.1922284E-2,3.619301E0,8.873115E-5,5.048E2,2E0,9.05E1,5.0645392E-2,1.6612E0,2.3105785E-2,8.412698E1,3.05E2,2.7299812E-1,9.5105654E-1,3.6831997E5,2.7445814E-1,1.5859674E0,1.687E3,-3.389348E-2,-2.4274988E-2,5.268996E-3,-1.9711632E-2,1.8587047E-2,-9.768014E-3,2.515901E-2,2.4510583E-2,-2.4917018E-2,5.4274626E-2,1.5880931E-2,-1.7267093E-2,3.6530934E-2,-7.976609E-3,4.636236E-2,4.084167E-2,-5.842982E-3,-2.804308E-2,1.1326099E-2,7.7846367E-4,2.123399E-2,3.195245E-2,-3.4254806E-3,2.1669665E-2,3.78385E-2,-2.5447527E-2,3.683899E-2,-2.7523044E-2,3.0400608E-2,4.6863265E-2,3.383698E-2],"split_indices":[7,61,55,38,7,6,6,28,48,44,45,42,30,64,48,19,63,54,29,47,36,12,29,17,7,74,71,5,0,0,84,0,0,0,0,0,0,0,0,0,0,0,0,0,0,0,0,0,0,0,0,0,0,0,0,0,0,0,0],"split_type":[0,0,0,0,0,0,0,0,0,0,0,0,0,0,0,0,0,0,0,0,0,0,0,0,0,0,0,0,0,0,0,0,0,0,0,0,0,0,0,0,0,0,0,0,0,0,0,0,0,0,0,0,0,0,0,0,0,0,0],"sum_hessian":[9.163414E2,4.3285532E2,4.8348608E2,1.7486943E2,2.579859E2,2.815783E2,2.0190778E2,1.6086592E2,1.4003504E1,1.8804008E2,6.994581E1,1.4906078E2,1.3251753E2,1.2032728E1,1.8987505E2,1.0184529E2,5.9020634E1,4.827275E0,9.176229E0,1.770101E2,1.10299835E1,2.6427021E1,4.351879E1,1.17789345E2,3.1271439E1,1.2630268E2,6.2148485E0,7.7105055E0,4.3222227E0,1.4317633E0,1.8844328E2,7.689439E0,9.415585E1,4.893329E1,1.0087344E1,3.3799472E0,1.4473279E0,7.7278357E0,1.4483926E0,1.736459E2,3.3641953E0,4.7666087E0,6.2633743E0,2.0673506E1,5.753516E0,1.7199322E1,2.6319468E1,9.037922E1,2.741012E1,2.5979769E1,5.2916713E0,7.422281E1,5.2079865E1,4.774254E0,1.4405949E0,1.9234817E0,5.787024E0,9.841422E1,9.002906E1],"tree_param":{"num_deleted":"0","num_feature":"87","num_nodes":"59","size_leaf_vector":"1"}},{"base_weights":[-5.2043027E-1,-5.579577E-1,-2.0084576E-1,-5.676101E-1,3.9326802E-2,7.307896E-2,-3.4434494E-1,-7.5624604E-3,-5.7463765E-1,-2.5524613E-1,4.7563802E-2,-4.0595004E-1,3.604951E-1,-9.8020725E-2,-4.8073974E-1,-3.0854115E-1,5.4202616E-2,-5.7998174E-1,-2.1230409E-1,-2.8338594E-2,3.1059016E-2,2.080807E-2,-2.928637E-2,-5.3646524E-2,9.320658E-1,-4.8855996E-1,2.8517857E-1,-5.624131E-1,6.0005944E-2,2.0988762E-2,-2.756591E-2,-2.9408563E-2,-2.0293338E-2,-2.7731866E-2,1.3478725E-2,-2.7554473E-2,2.3849683E-2,6.906086E-2,4.019359E-3,6.6121095E-3,-2.9118484E-2,-1.6564932E-2,3.716668E-2,6.751954E-3,-2.9806767E-2,3.0765845E-2,-2.272371E-2],"categories":[],"categories_nodes":[],"categories_segments":[],"categories_sizes":[],"default_left":[0,0,0,0,0,0,0,0,0,0,0,0,0,0,0,0,0,0,0,0,0,0,0,0,0,0,0,0,0,0,0,0,0,0,0,0,0,0,0,0,0,0,0,0,0,0,0],"id":5,"left_children":[1,3,5,7,9,11,13,15,17,19,-1,21,23,25,27,29,-1,31,33,-1,-1,-1,-1,35,37,39,41,43,45,-1,-1,-1,-1,-1,-1,-1,-1,-1,-1,-1,-1,-1,-1,-1,-1,-1,-1],"loss_changes":[8.326767E0,3.6493988E0,2.9930992E0,2.4326782E0,3.1818292E0,3.833625E0,1.623447E0,3.18855E0,1.0609283E0,2.825127E0,0E0,1.7975992E0,4.1375465E0,2.979268E0,1.4358206E0,1.5730907E0,0E0,6.19751E-1,1.8759271E0,0E0,0E0,0E0,0E0,3.1555219E0,2.6850924E0,6.4581156E-1,3.1299353E0,7.3145866E-1,1.7279422E0,0E0,0E0,0E0,0E0,0E0,0E0,0E0,0E0,0E0,0E0,0E0,0E0,0E0,0E0,0E0,0E0,0E0,0E0],"parents":[2147483647,0,0,1,1,2,2,3,3,4,4,5,5,6,6,7,7,8,8,9,9,11,11,12,12,13,13,14,14,15,15,17,17,18,18,23,23,24,24,25,25,26,26,27,27,28,28],"right_children":[2,4,6,8,10,12,14,16,18,20,-1,22,24,26,28,30,-1,32,34,-1,-1,-1,-1,36,38,40,42,44,46,-1,-1,-1,-1,-1,-1,-1,-1,-1,-1,-1,-1,-1,-1,-1,-1,-1,-1],"split_conditions":[6.055E3,5.2E1,1.9E1,-6.062364E0,7.5788964E-3,6.30599E-1,8.821E1,-2.661017E-1,1.8021046E6,6.443787E1,4.7563802E-2,-1.5957447E-2,8.7412586E-4,8E1,1.4874887E0,6.2E1,5.4202616E-2,3.05761E0,1.04E2,-2.8338594E-2,3.1059016E-2,2.080807E-2,-2.928637E-2,4.1954E3,3.3913042E-2,3.6831997E5,-2.9886432E-4,5.215E2,3.6251E3,2.0988762E-2,-2.756591E-2,-2.9408563E-2,-2.0293338E-2,-2.7731866E-2,1.3478725E-2,-2.7554473E-2,2.3849683E-2,6.906086E-2,4.019359E-3,6.6121095E-3,-2.9118484E-2,-1.6564932E-2,3.716668E-2,6.751954E-3,-2.9806767E-2,3.0765845E-2,-2.272371E-2],"split_indices":[5,11,11,29,70,51,1,81,55,36,0,40,64,2,74,59,0,51,63,0,0,0,0,49,38,7,66,49,49,0,0,0,0,0,0,0,0,0,0,0,0,0,0,0,0,0,0],"split_type":[0,0,0,0,0,0,0,0,0,0,0,0,0,0,0,0,0,0,0,0,0,0,0,0,0,0,0,0,0,0,0,0,0,0,0,0,0,0,0,0,0,0,0,0,0,0,0],"sum_hessian":[7.0263605E2,6.281314E2,7.450466E1,6.1819086E2,9.940545E0,2.578141E1,4.8723248E1,7.6868086E0,6.10504E2,8.057851E0,1.8826944E0,9.513349E0,1.6268063E1,1.7976671E1,3.0746576E1,6.587786E0,1.0990227E0,6.0103864E2,9.465441E0,6.205442E0,1.8524089E0,1.4711221E0,8.042226E0,9.958556E0,6.3095055E0,8.766899E0,9.209773E0,2.6677221E1,4.0693545E0,1.4647045E0,5.123081E0,5.7176746E2,2.9271168E1,5.4457293E0,4.0197115E0,5.1201706E0,4.838386E0,3.7238777E0,2.5856278E0,1.0970823E0,7.669817E0,4.044509E0,5.1652637E0,1.0918016E0,2.558542E1,1.8627615E0,2.2065933E0],"tree_param":{"num_deleted":"0","num_feature":"87","num_nodes":"47","size_leaf_vector":"1"}},{"base_weights":[1.3127702E-1,3.3113456E-1,-2.6634106E-1,6.0535234E-1,1.2995423E-1,5.2472334E-2,-4.5606348E-1,3.991347E-1,7.0080477E-1,2.8836873E-1,-1.0799223E-1,-2.5250798E-1,2.0859261E-1,-1.23315126E-1,-5.639776E-1,6.443667E-1,1.4037737E-1,7.5389475E-1,2.0927618E-1,4.455955E-1,-1.7293347E-2,1.924064E-1,-3.0330616E-1,-1.673819E-2,-3.5597477E-2,-2.9914767E-1,3.44878E-1,-2.3389177E-1,6.0608274E-1,8.9131065E-2,-5.9843653E-1,1.33731505E-2,4.2108234E-2,-2.092429E-2,1.5964078E-2,5.1136613E-2,3.2052215E-2,4.8552334E-2,-4.868593E-6,1.0911062E-2,3.2040775E-2,9.606793E-3,-1.9742934E-2,-1.1920317E-2,2.7983982E-2,-1.8378781E-2,9.818208E-3,1.2416474E-2,-2.852772E-2,3.2115746E-2,-2.5217239E-2,-8.559893E-3,2.3778554E-2,9.089281E-3,-1.9007148E-2,4.861236E-2,-2.1904858E-2,-2.0958668E-2,3.754103E-2,-7.7702156E-3,-3.166924E-2],"categories":[],"categories_nodes":[],"categories_segments":[],"categories_sizes":[],"default_left":[0,0,0,0,0,0,0,0,0,0,0,0,0,0,0,0,0,0,0,0,0,0,0,0,0,0,0,0,0,0,0,0,0,0,0,0,0,0,0,0,0,0,0,0,0,0,0,0,0,0,0,0,0,0,0,0,0,0,0,0,0],"id":6,"left_children":[1,3,5,7,9,11,13,15,17,19,21,23,25,27,29,31,33,35,37,39,41,43,45,47,-1,49,51,53,55,57,59,-1,-1,-1,-1,-1,-1,-1,-1,-1,-1,-1,-1,-1,-1,-1,-1,-1,-1,-1,-1,-1,-1,-1,-1,-1,-1,-1,-1,-1,-1],"loss_changes":[6.9975685E1,3.2233826E1,1.7851242E1,4.5939026E0,1.281422E1,5.3308797E0,6.5691376E0,5.0281744E0,4.22435E0,9.804832E0,8.053412E0,4.1028056E0,5.214736E0,3.896624E0,3.1888847E0,2.8414917E0,4.1857796E0,3.9307709E0,2.8317719E0,5.837137E0,5.6273074E0,8.725403E0,2.7364788E0,3.977192E0,0E0,3.4472363E0,4.040711E0,2.5706236E0,2.8756347E0,2.9559655E0,1.9526482E0,0E0,0E0,0E0,0E0,0E0,0E0,0E0,0E0,0E0,0E0,0E0,0E0,0E0,0E0,0E0,0E0,0E0,0E0,0E0,0E0,0E0,0E0,0E0,0E0,0E0,0E0,0E0,0E0,0E0,0E0],"parents":[2147483647,0,0,1,1,2,2,3,3,4,4,5,5,6,6,7,7,8,8,9,9,10,10,11,11,12,12,13,13,14,14,15,15,16,16,17,17,18,18,19,19,20,20,21,21,22,22,23,23,25,25,26,26,27,27,28,28,29,29,30,30],"right_children":[2,4,6,8,10,12,14,16,18,20,22,24,26,28,30,32,34,36,38,40,42,44,46,48,-1,50,52,54,56,58,60,-1,-1,-1,-1,-1,-1,-1,-1,-1,-1,-1,-1,-1,-1,-1,-1,-1,-1,-1,-1,-1,-1,-1,-1,-1,-1,-1,-1,-1,-1],"split_conditions":[1.5885536E5,7.411118E4,2.8E1,-3.8357181E-3,1.1932377E2,2.3E1,3.1237587E-1,-9.24586E5,3.7203204E-2,1.3204225E-3,4.8753998E-1,2.3E1,-4.871737E-1,2.1757752E-2,1.4274E3,-4.580516E-3,-4.257E2,-5.102696E-2,4.6704483E1,8.74039E1,4.5E1,5.3930676E1,1.466239E2,1.9288469E-3,-3.5597477E-2,-1.4280628E0,-2.5823112E-3,-6.0514355E-4,1.7422283E0,5.3796326E1,1.414E3,1.33731505E-2,4.2108234E-2,-2.092429E-2,1.5964078E-2,5.1136613E-2,3.2052215E-2,4.8552334E-2,-4.868593E-6,1.0911062E-2,3.2040775E-2,9.606793E-3,-1.9742934E-2,-1.1920317E-2,2.7983982E-2,-1.8378781E-2,9.818208E-3,1.2416474E-2,-2.852772E-2,3.2115746E-2,-2.5217239E-2,-8.559893E-3,2.3778554E-2,9.089281E-3,-1.9007148E-2,4.861236E-2,-2.1904858E-2,-2.0958668E-2,3.754103E-2,-7.7702156E-3,-3.166924E-2],"split_indices":[55,7,6,45,32,11,51,41,54,60,51,9,77,38,48,42,52,82,56,25,6,56,25,68,0,86,64,75,71,37,5,0,0,0,0,0,0,0,0,0,0,0,0,0,0,0,0,0,0,0,0,0,0,0,0,0,0,0,0,0,0],"split_type":[0,0,0,0,0,0,0,0,0,0,0,0,0,0,0,0,0,0,0,0,0,0,0,0,0,0,0,0,0,0,0,0,0,0,0,0,0,0,0,0,0,0,0,0,0,0,0,0,0,0,0,0,0,0,0,0,0,0,0,0,0],"sum_hessian":[8.7845337E2,5.847191E2,2.9373422E2,2.4659294E2,3.381262E2,1.0985503E2,1.8387918E2,7.96648E1,1.6692813E2,2.0285931E2,1.3526688E2,3.6985874E1,7.286915E1,4.555502E1,1.3832416E2,4.0136253E1,3.9528553E1,1.5017407E2,1.6754065E1,1.3365295E2,6.920636E1,5.3301888E1,8.1965E1,2.512765E1,1.1858226E1,1.5167312E1,5.770184E1,4.0147934E1,5.4070873E0,6.8528986E0,1.3147127E2,1.4623467E1,2.5512785E1,9.260699E0,3.0267853E1,4.2016876E1,1.08157196E2,2.827783E0,1.3926281E1,6.272014E1,7.0932816E1,4.4830658E1,2.43757E1,2.4690603E1,2.8611284E1,7.2858086E1,9.106912E0,1.7367037E1,7.760613E0,2.3330116E0,1.28343E1,1.1597226E1,4.6104614E1,1.0385925E1,2.9762009E1,4.054261E0,1.3528261E0,4.082934E0,2.7699652E0,1.0010971E1,1.214603E2],"tree_param":{"num_deleted":"0","num_feature":"87","num_nodes":"61","size_leaf_vector":"1"}},{"base_weights":[2.6070026E-1,-8.110751E-2,4.7037044E-1,1.4825048E-1,-2.068904E-1,-3.1794095E-1,4.9950108E-1,3.34397E-2,4.329442E-1,-4.2558303E-1,-5.74762E-2,3.655469E-2,-4.3211472E-1,2.1215807E-1,5.660976E-1,4.3639025E-1,-6.4437434E-2,-2.034313E-1,5.8505017E-1,-6.4476675E-1,-2.8757846E-1,-2.6383576E-1,9.8755725E-2,-2.0233499E-2,-3.762341E-2,-3.9825016E-1,2.8040496E-1,4.2704976E-1,7.007193E-1,3.2258894E-2,-1.2811691E-2,-6.494339E-3,3.978501E-2,-2.6809877E-2,3.6627203E-2,4.0097322E-2,9.132607E-3,-3.7210148E-2,-1.2550662E-2,5.5105593E-3,-2.2025183E-2,-1.8913504E-2,1.5189173E-2,-5.0097737E-3,1.8873729E-2,-2.057442E-2,3.3230405E-2,-3.5958126E-2,8.2022725E-3,1.1513568E-2,5.0836395E-2,1.1284653E-2,2.787202E-2,2.1379514E-2,3.8547847E-2],"categories":[],"categories_nodes":[],"categories_segments":[],"categories_sizes":[],"default_left":[0,0,0,0,0,0,0,0,0,0,0,0,0,0,0,0,0,0,0,0,0,0,0,0,0,0,0,0,0,0,0,0,0,0,0,0,0,0,0,0,0,0,0,0,0,0,0,0,0,0,0,0,0,0,0],"id":7,"left_children":[1,3,5,7,9,11,13,15,17,19,21,-1,23,25,27,29,31,33,35,37,39,41,43,45,-1,47,49,51,53,-1,-1,-1,-1,-1,-1,-1,-1,-1,-1,-1,-1,-1,-1,-1,-1,-1,-1,-1,-1,-1,-1,-1,-1,-1,-1],"loss_changes":[6.656543E1,1.0237091E1,1.3374619E1,4.100182E0,7.4549932E0,2.845483E0,1.0507706E1,3.608899E0,3.6127372E0,2.6202278E0,4.447612E0,0E0,2.5808852E0,4.5315833E0,8.129517E0,2.7498236E0,4.264669E0,2.7925274E0,2.4185257E0,1.1847973E0,3.6207404E0,3.9709692E0,4.4063044E0,2.8553162E0,0E0,2.1178179E0,3.310264E0,5.756901E0,4.029358E0,0E0,0E0,0E0,0E0,0E0,0E0,0E0,0E0,0E0,0E0,0E0,0E0,0E0,0E0,0E0,0E0,0E0,0E0,0E0,0E0,0E0,0E0,0E0,0E0,0E0,0E0],"parents":[2147483647,0,0,1,1,2,2,3,3,4,4,5,5,6,6,7,7,8,8,9,9,10,10,12,12,13,13,14,14,15,15,16,16,17,17,18,18,19,19,20,20,21,21,22,22,23,23,25,25,26,26,27,27,28,28],"right_children":[2,4,6,8,10,12,14,16,18,20,22,-1,24,26,28,30,32,34,36,38,40,42,44,46,-1,48,50,52,54,-1,-1,-1,-1,-1,-1,-1,-1,-1,-1,-1,-1,-1,-1,-1,-1,-1,-1,-1,-1,-1,-1,-1,-1,-1,-1],"split_conditions":[8.91E2,9.1192E1,5.048E2,2.8490028E-3,3.33E2,1.1E1,2.4E1,3.0659948E1,-1.6746103E-3,-3.7073982E-1,2.1E1,3.655469E-2,2.4E1,4E0,1.2814436E5,8.82E1,1.3114109E6,1.1512679E-2,1.476871E-2,1.3620882E-2,-8.791209E-3,1.0963057E5,4.822691E-1,2.6525024E-1,-3.762341E-2,2.5E-4,1.125432E2,1.11E2,2.3878E3,3.2258894E-2,-1.2811691E-2,-6.494339E-3,3.978501E-2,-2.6809877E-2,3.6627203E-2,4.0097322E-2,9.132607E-3,-3.7210148E-2,-1.2550662E-2,5.5105593E-3,-2.2025183E-2,-1.8913504E-2,1.5189173E-2,-5.0097737E-3,1.8873729E-2,-2.057442E-2,3.3230405E-2,-3.5958126E-2,8.2022725E-3,1.1513568E-2,5.0836395E-2,1.1284653E-2,2.787202E-2,2.1379514E-2,3.8547847E-2],"split_indices":[5,22,48,60,5,6,6,56,42,71,6,0,11,9,55,65,55,47,44,73,40,55,51,30,0,60,24,65,49,0,0,0,0,0,0,0,0,0,0,0,0,0,0,0,0,0,0,0,0,0,0,0,0,0,0],"split_type":[0,0,0,0,0,0,0,0,0,0,0,0,0,0,0,0,0,0,0,0,0,0,0,0,0,0,0,0,0,0,0,0,0,0,0,0,0,0,0,0,0,0,0,0,0,0,0,0,0,0,0,0,0,0,0],"sum_hessian":[9.272846E2,3.527838E2,5.745008E2,1.2488481E2,2.27899E2,2.01198E1,5.54381E2,8.979137E1,3.509344E1,9.1753746E1,1.3614526E2,1.4444817E0,1.8675318E1,1.05098785E2,4.492822E2,1.687209E1,7.291928E1,6.7047825E0,2.8388659E1,3.403155E1,5.7722195E1,5.8364944E1,7.778031E1,8.635605E0,1.0039714E1,1.008268E1,9.5016106E1,2.2306023E2,2.2622198E2,1.3016761E1,3.8553278E0,6.855203E1,4.3672476E0,5.2613463E0,1.443436E0,1.7800894E1,1.0587766E1,2.6459585E1,7.571966E0,1.6106142E1,4.1616055E1,4.8850143E1,9.5148E0,4.575829E1,3.2022026E1,5.7498326E0,2.8857722E0,6.241542E0,3.8411374E0,9.018825E1,4.8278613E0,8.874541E1,1.3431482E2,4.772485E1,1.7849713E2],"tree_param":{"num_deleted":"0","num_feature":"87","num_nodes":"55","size_leaf_vector":"1"}},{"base_weights":[-5.062147E-1,-5.604493E-1,-2.98016E-1,6.448723E-2,-5.668725E-1,-3.4761104E-1,2.2355197E-1,-3.4314516E-1,5.253206E-2,-5.730849E-1,-1.1755643E-1,-1.5030013E-1,-4.3716908E-1,9.8853356E-1,-1.01642095E-1,6.9103427E-3,-2.4958601E-2,-5.93431E-1,-4.6570644E-1,-2.6449243E-2,4.1167793E-1,4.8243158E-2,-2.2443995E-1,3.6724433E-1,-4.6476176E-1,6.563096E-3,6.329425E-2,-2.7931979E-2,6.318373E-1,-2.8144778E-3,-2.9773062E-2,-2.4299953E-2,3.098023E-2,4.7567297E-2,-1.9485524E-2,-2.5991652E-2,2.6740797E-3,-1.9285442E-2,5.293079E-2,3.2755602E-4,-2.594087E-2,5.334256E-2,-1.7276963E-2],"categories":[],"categories_nodes":[],"categories_segments":[],"categories_sizes":[],"default_left":[0,0,1,0,0,0,0,0,0,0,0,0,0,0,0,0,0,0,0,0,0,0,0,0,0,0,0,0,0,0,0,0,0,0,0,0,0,0,0,0,0,0,0],"id":8,"left_children":[1,3,5,7,9,11,13,15,-1,17,19,21,23,25,27,-1,-1,29,31,-1,33,-1,35,37,39,-1,-1,-1,41,-1,-1,-1,-1,-1,-1,-1,-1,-1,-1,-1,-1,-1,-1],"loss_changes":[7.620697E0,2.2283478E0,3.819871E0,2.95449E0,1.4415436E0,2.2756348E0,3.3768406E0,4.68498E-1,0E0,8.879852E-1,2.0969632E0,3.7625008E0,2.181839E0,7.901058E-1,3.7547257E0,0E0,0E0,4.511261E-1,2.2731838E0,0E0,2.2464795E0,0E0,3.3959005E0,2.2634077E0,2.2465458E0,0E0,0E0,0E0,2.2245317E0,0E0,0E0,0E0,0E0,0E0,0E0,0E0,0E0,0E0,0E0,0E0,0E0,0E0,0E0],"parents":[2147483647,0,0,1,1,2,2,3,3,4,4,5,5,6,6,7,7,9,9,10,10,11,11,12,12,13,13,14,14,17,17,18,18,20,20,22,22,23,23,24,24,28,28],"right_children":[2,4,6,8,10,12,14,16,-1,18,20,22,24,26,28,-1,-1,30,32,-1,34,-1,36,38,40,-1,-1,-1,42,-1,-1,-1,-1,-1,-1,-1,-1,-1,-1,-1,-1,-1,-1],"split_conditions":[3.684E3,-6.062364E0,1.26E2,1.2798E2,5.2E1,5.093152E-3,9.2E-1,-7.599956E-3,5.253206E-2,1.1903364E6,-1.2364434E-1,6.21E1,3.755E3,7.935E1,1.357808E-2,6.9103427E-3,-2.4958601E-2,-4.5423582E-1,2.6404219E0,-2.6449243E-2,3E0,4.8243158E-2,5.337688E5,1.1586548E-2,-1.0733453E-2,6.563096E-3,6.329425E-2,-2.7931979E-2,2.167613E0,-2.8144778E-3,-2.9773062E-2,-2.4299953E-2,3.098023E-2,4.7567297E-2,-1.9485524E-2,-2.5991652E-2,2.6740797E-3,-1.9285442E-2,5.293079E-2,3.2755602E-4,-2.594087E-2,5.334256E-2,-1.7276963E-2],"split_indices":[5,29,6,57,11,70,35,62,0,55,71,2,5,63,47,0,0,81,74,0,8,0,7,42,62,0,0,0,51,0,0,0,0,0,0,0,0,0,0,0,0,0,0],"split_type":[0,0,0,0,0,0,0,0,0,0,0,0,0,0,0,0,0,0,0,0,0,0,0,0,0,0,0,0,0,0,0,0,0,0,0,0,0,0,0,0,0,0,0],"sum_hessian":[6.8869403E2,5.4502576E2,1.4366827E2,5.452843E0,5.395729E2,1.314979E2,1.2170388E1,4.3194222E0,1.133421E0,5.3194257E2,7.630358E0,4.188864E1,8.9609245E1,3.021897E0,9.148491E0,1.085329E0,3.2340932E0,4.4340057E2,8.854198E1,4.2932467E0,3.3371117E0,1.8623451E0,4.00263E1,2.5635722E0,8.704567E1,1.0988146E0,1.9230825E0,5.7834554E0,3.365036E0,1.7778063E0,4.4162274E2,8.7458916E1,1.0830618E0,1.8823705E0,1.4547411E0,1.8981304E1,2.1044994E1,1.4387648E0,1.1248075E0,9.046629E0,7.799905E1,2.265261E0,1.0997751E0],"tree_param":{"num_deleted":"0","num_feature":"87","num_nodes":"43","size_leaf_vector":"1"}},{"base_weights":[1.362168E-1,4.3632957E-1,-1.5630063E-1,6.2822175E-1,3.335924E-1,5.6896377E-2,-4.2509192E-1,2.4420793E-1,7.604181E-1,3.598835E-1,-4.0618262E-1,2.3962256E-1,-1.459254E-1,7.855432E-2,-5.013724E-1,-2.0188717E-2,6.6605616E-1,8.227352E-1,-3.570761E-1,2.4078067E-1,5.7694995E-1,1.9484269E-2,-5.751593E-1,-6.7668505E-2,4.5617333E-1,8.219464E-2,-2.6251367E-1,-8.529539E-2,4.2844154E-2,-1.8000649E-1,-5.685916E-1,3.345502E-2,-1.2579332E-2,-2.4148459E-2,4.095052E-2,4.357944E-2,1.5079101E-2,-3.0774647E-2,9.6904645E-3,-5.7206564E-3,1.6699543E-2,4.3985054E-2,2.1431144E-2,-1.4983945E-3,-3.3612374E-2,7.305385E-3,-2.0380778E-2,1.8373802E-2,5.4495793E-2,-3.1815074E-2,1.0469705E-2,1.4578784E-2,-1.7416446E-2,4.2470966E-2,-1.0499003E-2,1.2998764E-2,-1.800026E-2,-6.2487426E-4,-3.0424332E-2],"categories":[],"categories_nodes":[],"categories_segments":[],"categories_sizes":[],"default_left":[0,0,0,0,0,0,0,0,0,0,0,0,0,0,0,0,0,0,0,0,0,0,0,0,0,0,0,0,0,0,0,0,0,0,0,0,0,0,0,0,0,0,0,0,0,0,0,0,0,0,0,0,0,0,0,0,0,0,0],"id":9,"left_children":[1,3,5,7,9,11,13,15,17,19,21,23,25,27,29,31,33,35,37,39,41,-1,43,45,47,49,51,53,-1,55,57,-1,-1,-1,-1,-1,-1,-1,-1,-1,-1,-1,-1,-1,-1,-1,-1,-1,-1,-1,-1,-1,-1,-1,-1,-1,-1,-1,-1],"loss_changes":[7.666026E1,8.285492E0,2.5385262E1,7.3846207E0,5.64612E0,9.214375E0,7.5645638E0,4.437193E0,7.9862328E0,6.934677E0,1.5924563E0,8.726575E0,3.160158E0,3.4690347E0,3.5752869E0,4.211948E0,3.0863557E0,2.4086838E0,1.049155E0,5.9441366E0,3.9438477E0,0E0,4.4547534E-1,4.048616E0,3.915659E0,3.8506098E0,3.8262954E0,2.8480954E0,0E0,2.54179E0,3.1057281E0,0E0,0E0,0E0,0E0,0E0,0E0,0E0,0E0,0E0,0E0,0E0,0E0,0E0,0E0,0E0,0E0,0E0,0E0,0E0,0E0,0E0,0E0,0E0,0E0,0E0,0E0,0E0,0E0],"parents":[2147483647,0,0,1,1,2,2,3,3,4,4,5,5,6,6,7,7,8,8,9,9,10,10,11,11,12,12,13,13,14,14,15,15,16,16,17,17,18,18,19,19,20,20,22,22,23,23,24,24,25,25,26,26,27,27,29,29,30,30],"right_children":[2,4,6,8,10,12,14,16,18,20,22,24,26,28,30,32,34,36,38,40,42,-1,44,46,48,50,52,54,-1,56,58,-1,-1,-1,-1,-1,-1,-1,-1,-1,-1,-1,-1,-1,-1,-1,-1,-1,-1,-1,-1,-1,-1,-1,-1,-1,-1,-1,-1],"split_conditions":[1.265E3,-9.21415E5,6.9615E4,-8.140705E-1,4.1493405E-2,1.105E2,1.479E3,-3.550842E-1,4.8744593E-2,6.771429E1,-7.347194E-3,8.42E1,8E0,5.59936E-3,2.8926575E-1,1.4789198E-1,-9.158879E-3,1.0739068E0,3.3691186E-2,-5.4054055E-3,7.272727E1,1.9484269E-2,8.928571E-5,8.928571E-5,1.6673713E0,-6.6274405E-1,2.0972466E-1,5.962E2,4.2844154E-2,2.263E3,2.2870116E-2,3.345502E-2,-1.2579332E-2,-2.4148459E-2,4.095052E-2,4.357944E-2,1.5079101E-2,-3.0774647E-2,9.6904645E-3,-5.7206564E-3,1.6699543E-2,4.3985054E-2,2.1431144E-2,-1.4983945E-3,-3.3612374E-2,7.305385E-3,-2.0380778E-2,1.8373802E-2,5.4495793E-2,-3.1815074E-2,1.0469705E-2,1.4578784E-2,-1.7416446E-2,4.2470966E-2,-1.0499003E-2,1.2998764E-2,-1.800026E-2,-6.2487426E-4,-3.0424332E-2],"split_indices":[5,41,41,86,43,67,48,29,44,37,66,4,19,66,51,51,66,77,42,66,36,0,62,58,71,31,51,48,0,5,34,0,0,0,0,0,0,0,0,0,0,0,0,0,0,0,0,0,0,0,0,0,0,0,0,0,0,0,0],"split_type":[0,0,0,0,0,0,0,0,0,0,0,0,0,0,0,0,0,0,0,0,0,0,0,0,0,0,0,0,0,0,0,0,0,0,0,0,0,0,0,0,0,0,0,0,0,0,0,0,0,0,0,0,0,0,0,0,0,0,0],"sum_hessian":[8.714642E2,4.2990494E2,4.4155923E2,1.4812418E2,2.8178076E2,2.4668475E2,1.9487447E2,3.866231E1,1.0946186E2,2.7260605E2,9.174699E0,1.296758E2,1.1700896E2,2.5628832E1,1.6924564E2,2.4351784E1,1.4310527E1,1.0392997E2,5.5318885E0,1.7738527E2,9.522078E1,1.378047E0,7.7966514E0,5.3890842E1,7.578496E1,3.9674892E1,7.733406E1,2.190741E1,3.7214217E0,2.9913086E1,1.3933255E2,5.6449685E0,1.8706814E1,1.4277035E0,1.2882823E1,9.440764E1,9.522337E0,3.6856804E0,1.8462083E0,3.6825974E1,1.405593E2,2.968985E1,6.553093E1,1.3763769E0,6.4202747E0,3.3435246E1,2.0455597E1,6.786638E1,7.9185853E0,5.365433E0,3.430946E1,1.00494375E1,6.728462E1,1.8942653E0,2.0013145E1,8.555656E0,2.135743E1,9.414724E0,1.2991783E2],"tree_param":{"num_deleted":"0","num_feature":"87","num_nodes":"59","size_leaf_vector":"1"}},{"base_weights":[2.4512778E-1,-7.2280504E-2,4.391193E-1,1.7380622E-1,-2.1061465E-1,3.0436572E-1,6.451014E-1,5.8610126E-2,4.448842E-1,2.671202E-1,-2.8261712E-1,-2.793614E-1,3.3820045E-1,7.8787154E-1,5.127958E-1,1.450753E-1,-5.1581925E-1,7.7393395E-1,2.1473643E-1,5.4782236E-1,-1.7972434E-1,-3.173754E-1,7.2796106E-1,3.6845386E-2,-4.000841E-1,2.4423492E-1,5.4000074E-1,8.884817E-1,2.9354578E-1,1.8609212E-1,6.706037E-1,1.4879271E-2,-4.98977E-3,-3.737047E-2,2.2698453E-2,-4.8486753E-3,4.367245E-2,-2.9050646E-2,1.6580278E-2,3.5079073E-2,-2.6680922E-2,2.3363454E-2,-2.9091908E-2,-1.7388495E-2,2.257286E-2,4.844176E-2,-4.8571723E-3,-2.6130328E-2,1.4302989E-2,2.8651584E-2,7.4468288E-3,3.164508E-2,1.1365736E-2,1.3326314E-2,4.6102684E-2,-3.045549E-2,2.4203328E-2,3.435373E-2,-2.7898776E-3,3.497566E-2,-2.6314333E-2],"categories":[],"categories_nodes":[],"categories_segments":[],"categories_sizes":[],"default_left":[0,0,0,0,0,0,0,0,0,0,0,0,0,0,0,0,0,0,0,0,0,0,0,0,0,0,0,0,0,0,0,0,0,0,0,0,0,0,0,0,0,0,0,0,0,0,0,0,0,0,0,0,0,0,0,0,0,0,0,0,0],"id":10,"left_children":[1,3,5,7,9,11,13,15,17,19,21,23,25,27,29,31,33,35,37,39,41,43,45,-1,47,49,51,53,55,57,59,-1,-1,-1,-1,-1,-1,-1,-1,-1,-1,-1,-1,-1,-1,-1,-1,-1,-1,-1,-1,-1,-1,-1,-1,-1,-1,-1,-1,-1,-1],"loss_changes":[5.6975224E1,1.2007993E1,1.5739578E1,3.9427097E0,7.8346367E0,6.9866257E0,3.8680115E0,4.56202E0,2.692675E0,3.8686707E0,7.1336613E0,2.7076569E0,6.1313286E0,5.0564957E0,6.074692E0,2.991333E0,3.0432227E0,1.3979874E0,2.3872242E0,3.4852033E0,3.484926E0,4.6127014E0,1.453093E0,0E0,1.6817689E0,7.033305E0,2.8804245E0,1.5988388E0,3.6610513E0,4.952171E0,3.160408E0,0E0,0E0,0E0,0E0,0E0,0E0,0E0,0E0,0E0,0E0,0E0,0E0,0E0,0E0,0E0,0E0,0E0,0E0,0E0,0E0,0E0,0E0,0E0,0E0,0E0,0E0,0E0,0E0,0E0,0E0],"parents":[2147483647,0,0,1,1,2,2,3,3,4,4,5,5,6,6,7,7,8,8,9,9,10,10,11,11,12,12,13,13,14,14,15,15,16,16,17,17,18,18,19,19,20,20,21,21,22,22,24,24,25,25,26,26,27,27,28,28,29,29,30,30],"right_children":[2,4,6,8,10,12,14,16,18,20,22,24,26,28,30,32,34,36,38,40,42,44,46,-1,48,50,52,54,56,58,60,-1,-1,-1,-1,-1,-1,-1,-1,-1,-1,-1,-1,-1,-1,-1,-1,-1,-1,-1,-1,-1,-1,-1,-1,-1,-1,-1,-1,-1,-1],"split_conditions":[8.91E2,9.116E1,2.5083527E5,2.1770812E5,3.4552845E1,5.048E2,3.3075493E-3,2.7E1,1.8E1,-1.550956E-4,4.8744593E-2,9.440637E4,1.165E2,9.627985E1,3.8202647E-2,5.5934345E1,7.1335435E-2,-1.3469919E0,-5.1474392E-2,1.2994785E-2,-7.2102053E-3,1.75E-1,1.438849E-1,3.6845386E-2,9.0452265E-3,6.43E1,1.9986752E-1,-1.285059E0,1.051357E2,1.8322082E-3,3.322222E-2,1.4879271E-2,-4.98977E-3,-3.737047E-2,2.2698453E-2,-4.8486753E-3,4.367245E-2,-2.9050646E-2,1.6580278E-2,3.5079073E-2,-2.6680922E-2,2.3363454E-2,-2.9091908E-2,-1.7388495E-2,2.257286E-2,4.844176E-2,-4.8571723E-3,-2.6130328E-2,1.4302989E-2,2.8651584E-2,7.4468288E-3,3.164508E-2,1.1365736E-2,1.3326314E-2,4.6102684E-2,-3.045549E-2,2.4203328E-2,3.435373E-2,-2.7898776E-3,3.497566E-2,-2.6314333E-2],"split_indices":[5,61,55,55,28,48,31,9,11,75,44,7,4,33,46,28,34,71,81,58,38,81,81,0,58,61,46,29,32,39,64,0,0,0,0,0,0,0,0,0,0,0,0,0,0,0,0,0,0,0,0,0,0,0,0,0,0,0,0,0,0],"split_type":[0,0,0,0,0,0,0,0,0,0,0,0,0,0,0,0,0,0,0,0,0,0,0,0,0,0,0,0,0,0,0,0,0,0,0,0,0,0,0,0,0,0,0,0,0,0,0,0,0,0,0,0,0,0,0,0,0,0,0,0,0],"sum_hessian":[9.237896E2,3.5066315E2,5.7312646E2,1.26094124E2,2.2456902E2,3.4796515E2,2.2516133E2,8.9343376E1,3.675075E1,2.9058254E1,1.9551076E2,1.8666605E1,3.2929855E2,1.059146E2,1.1924673E2,7.830419E1,1.1039185E1,1.4152992E1,2.2597761E1,1.7708202E1,1.1350052E1,1.8967302E2,5.8377485E0,1.440026E0,1.7226578E1,2.2618765E2,1.0311089E2,8.7340775E1,1.8573828E1,3.954905E1,7.9697685E1,4.81193E1,3.0184889E1,9.09626E0,1.9429247E0,1.453982E0,1.269901E1,2.3852649E0,2.0212496E1,1.5811394E1,1.8968096E0,4.288272E0,7.06178E0,1.8298662E2,6.686399E0,4.3837857E0,1.4539628E0,1.4818781E1,2.407798E0,4.970012E1,1.7648753E2,7.8703545E1,2.4407349E1,4.9308414E0,8.240993E1,2.8541694E0,1.5719659E1,1.2278455E1,2.7270594E1,7.822383E1,1.4738477E0],"tree_param":{"num_deleted":"0","num_feature":"87","num_nodes":"61","size_leaf_vector":"1"}},{"base_weights":[-5.0410664E-1,-5.435936E-1,-3.384924E-1,-5.6205624E-1,-3.489685E-1,-3.749743E-1,4.0591437E-2,-4.9573648E-1,-6.0047126E-1,3.042664E-2,-3.999981E-1,2.910265E-1,-3.9391607E-1,4.6210384E-1,-2.6915947E-2,-5.167373E-1,-6.712165E-2,-6.203362E-1,-4.4464105E-1,4.958859E-2,-4.8087728E-1,-1.9199636E-2,4.222761E-2,-4.0807626E-1,2.168928E-2,8.2066065E-1,-1.8922327E-1,-2.6337907E-2,1.4035079E-2,-2.1452649E-2,4.17554E-2,-3.119724E-2,-2.358428E-3,4.3306677E-3,-2.807775E-2,-2.6204651E-2,4.075946E-2,-2.6083324E-2,1.8684467E-3,-2.1648658E-2,5.3917784E-3,6.3063405E-2,8.223623E-3,6.6371183E-3,-1.9380024E-2],"categories":[],"categories_nodes":[],"categories_segments":[],"categories_sizes":[],"default_left":[1,0,0,0,0,0,0,0,0,0,0,0,0,0,0,0,0,0,0,0,0,0,0,0,0,0,0,0,0,0,0,0,0,0,0,0,0,0,0,0,0,0,0,0,0],"id":11,"left_children":[1,3,5,7,9,11,13,15,17,-1,19,21,23,25,-1,27,29,31,33,35,37,-1,-1,39,-1,41,43,-1,-1,-1,-1,-1,-1,-1,-1,-1,-1,-1,-1,-1,-1,-1,-1,-1,-1],"loss_changes":[4.15683E0,1.7238617E0,1.819212E0,9.4151306E-1,2.6343694E0,1.6169815E0,3.2632914E0,1.622776E0,6.62941E-1,0E0,1.7351027E0,1.7697191E0,1.5391712E0,1.9504398E0,0E0,1.5493698E0,3.5421157E0,5.216751E-1,2.3976088E0,3.9768884E0,8.646145E-1,0E0,0E0,1.5210114E0,0E0,1.2800789E0,2.7766794E-1,0E0,0E0,0E0,0E0,0E0,0E0,0E0,0E0,0E0,0E0,0E0,0E0,0E0,0E0,0E0,0E0,0E0,0E0],"parents":[2147483647,0,0,1,1,2,2,3,3,4,4,5,5,6,6,7,7,8,8,10,10,11,11,12,12,13,13,15,15,16,16,17,17,18,18,19,19,20,20,23,23,25,25,26,26],"right_children":[2,4,6,8,10,12,14,16,18,-1,20,22,24,26,-1,28,30,32,34,36,38,-1,-1,40,-1,42,44,-1,-1,-1,-1,-1,-1,-1,-1,-1,-1,-1,-1,-1,-1,-1,-1,-1,-1],"split_conditions":[4E1,2.353904E0,1.26E2,-3.2661336E-3,3.1E1,-2.4390243E-2,9.345E1,-3.92505E-4,1.6661292E0,3.042664E-2,-6.5242374E-1,2.2E1,3.322222E-2,1.1121518E-1,-2.6915947E-2,3.61E2,6.367978E-3,2.9982867E-2,4.019821E-2,2.2727273E-4,9.64241E5,-1.9199636E-2,4.222761E-2,3.54E2,2.168928E-2,5.291005E-3,7.528868E1,-2.6337907E-2,1.4035079E-2,-2.1452649E-2,4.17554E-2,-3.119724E-2,-2.358428E-3,4.3306677E-3,-2.807775E-2,-2.6204651E-2,4.075946E-2,-2.6083324E-2,1.8684467E-3,-2.1648658E-2,5.3917784E-3,6.3063405E-2,8.223623E-3,6.6371183E-3,-1.9380024E-2],"split_indices":[6,51,6,39,12,66,4,72,77,0,77,9,64,34,0,12,38,68,34,66,41,0,0,12,0,68,33,0,0,0,0,0,0,0,0,0,0,0,0,0,0,0,0,0,0],"split_type":[0,0,0,0,0,0,0,0,0,0,0,0,0,0,0,0,0,0,0,0,0,0,0,0,0,0,0,0,0,0,0,0,0,0,0,0,0,0,0,0,0,0,0,0,0],"sum_hessian":[6.627746E2,5.333315E2,1.2944313E2,4.8539752E2,4.7933975E1,1.1808939E2,1.1353733E1,1.8313608E2,3.0226144E2,1.8725733E0,4.6061405E1,2.86847E0,1.15220924E2,6.6867733E0,4.66696E0,1.743861E2,8.749984E0,2.6544254E2,3.68189E1,7.081887E0,3.8979515E1,1.4303954E0,1.4380747E0,1.1378135E2,1.4395754E0,4.1449747E0,2.5417986E0,1.7255713E2,1.8289623E0,6.6191506E0,2.1308334E0,2.6369373E2,1.7488031E0,6.687989E0,3.0130913E1,4.2286863E0,2.8532004E0,3.612932E1,2.8501992E0,1.0869663E2,5.0847225E0,1.9281653E0,2.2168093E0,1.0951812E0,1.4466174E0],"tree_param":{"num_deleted":"0","num_feature":"87","num_nodes":"45","size_leaf_vector":"1"}},{"base_weights":[1.334518E-1,4.1560128E-1,-1.6012828E-1,5.146668E-1,7.6218024E-2,3.023264E-2,-4.4824857E-1,1.5898988E-1,5.9480053E-1,6.2352026E-1,-4.0129784E-2,7.719184E-2,-6.04459E-1,-1.4130707E-1,-5.8281314E-1,-8.724353E-3,6.816139E-1,6.251291E-1,-2.3694237E-1,1.0766051E-2,8.6197895E-1,2.7261535E-2,-3.365707E-2,1.9010733E-1,-1.7849843E-1,-3.524835E-2,-1.0033761E-1,-3.7900177E-1,2.7909872E-1,-4.1231763E-1,-6.9074196E-1,2.6947012E-2,-7.873867E-3,-2.4498757E-2,4.1651063E-2,3.8717616E-2,2.1523999E-2,-2.7400319E-2,2.345115E-2,2.4221921E-2,-2.682559E-2,5.1756173E-2,2.4761667E-3,6.0887816E-3,-1.7689362E-2,3.361575E-2,5.822364E-3,-1.2321033E-2,3.0834675E-2,2.012432E-2,-2.4447229E-2,1.1085465E-2,-2.427931E-2,-1.1714234E-2,3.348596E-2,-4.718563E-3,-2.9145433E-2,-3.5906386E-2,-2.9029925E-3],"categories":[],"categories_nodes":[],"categories_segments":[],"categories_sizes":[],"default_left":[0,0,0,0,0,1,0,0,0,0,0,0,0,0,0,0,0,0,0,0,0,0,0,0,0,0,0,0,0,0,0,0,0,0,0,0,0,0,0,0,0,0,0,0,0,0,0,0,0,0,0,0,0,0,0,0,0,0,0],"id":12,"left_children":[1,3,5,7,9,11,13,15,17,19,21,23,25,27,29,31,33,35,37,39,41,43,-1,45,47,-1,49,51,53,55,57,-1,-1,-1,-1,-1,-1,-1,-1,-1,-1,-1,-1,-1,-1,-1,-1,-1,-1,-1,-1,-1,-1,-1,-1,-1,-1,-1,-1],"loss_changes":[7.264258E1,1.4991455E1,2.3603622E1,9.763466E0,6.5319E0,7.7937393E0,6.987934E0,5.699944E0,7.2595444E0,2.6171708E0,3.6533654E0,7.047056E0,8.423004E-1,5.451236E0,1.8991814E0,4.171814E0,3.209951E0,7.5750504E0,2.594266E0,1.8277773E0,1.7671871E0,2.851216E0,0E0,5.923882E0,4.198831E0,0E0,1.0099357E0,2.3227363E0,4.1469398E0,2.5749521E0,1.1919136E0,0E0,0E0,0E0,0E0,0E0,0E0,0E0,0E0,0E0,0E0,0E0,0E0,0E0,0E0,0E0,0E0,0E0,0E0,0E0,0E0,0E0,0E0,0E0,0E0,0E0,0E0,0E0,0E0],"parents":[2147483647,0,0,1,1,2,2,3,3,4,4,5,5,6,6,7,7,8,8,9,9,10,10,11,11,12,12,13,13,14,14,15,15,16,16,17,17,18,18,19,19,20,20,21,21,23,23,24,24,26,26,27,27,28,28,29,29,30,30],"right_children":[2,4,6,8,10,12,14,16,18,20,22,24,26,28,30,32,34,36,38,40,42,44,-1,46,48,-1,50,52,54,56,58,-1,-1,-1,-1,-1,-1,-1,-1,-1,-1,-1,-1,-1,-1,-1,-1,-1,-1,-1,-1,-1,-1,-1,-1,-1,-1,-1,-1],"split_conditions":[1.261082E5,1.5885536E5,2.4965036E5,-9.265957E-1,9.4317995E-2,6.6E1,2.7164E3,2.5628319E-2,3.1992298E-2,9.08858E1,2.107247E-2,1.17833E2,1.2994785E-2,5.953963E1,4.6E1,1.46978E4,5.048E2,-3.3898305E-2,2.8604984E0,-1.441961E-3,6.523289E4,5.4945056E-3,-3.365707E-2,7.853E2,3.619301E0,-3.524835E-2,-3.3285185E-3,-5.524862E-3,1.2521011E6,4.659065E-1,1.0449E2,2.6947012E-2,-7.873867E-3,-2.4498757E-2,4.1651063E-2,3.8717616E-2,2.1523999E-2,-2.7400319E-2,2.345115E-2,2.4221921E-2,-2.682559E-2,5.1756173E-2,2.4761667E-3,6.0887816E-3,-1.7689362E-2,3.361575E-2,5.822364E-3,-1.2321033E-2,3.0834675E-2,2.012432E-2,-2.4447229E-2,1.1085465E-2,-2.427931E-2,-1.1714234E-2,3.348596E-2,-4.718563E-3,-2.9145433E-2,-3.5906386E-2,-2.9029925E-3],"split_indices":[7,55,55,86,51,6,48,81,42,53,78,23,66,37,6,7,48,82,86,68,7,68,0,49,30,0,42,62,55,51,61,0,0,0,0,0,0,0,0,0,0,0,0,0,0,0,0,0,0,0,0,0,0,0,0,0,0,0,0],"split_type":[0,0,0,0,0,0,0,0,0,0,0,0,0,0,0,0,0,0,0,0,0,0,0,0,0,0,0,0,0,0,0,0,0,0,0,0,0,0,0,0,0,0,0,0,0,0,0,0,0,0,0,0,0,0,0,0,0,0,0],"sum_hessian":[8.75168E2,4.4605994E2,4.291081E2,3.448749E2,1.0118503E2,2.5892892E2,1.7017915E2,6.396179E1,2.8091312E2,1.6975037E1,8.420999E1,2.4190909E2,1.7019852E1,5.2492954E1,1.17686195E2,4.9167007E1,1.479478E1,2.7126996E2,9.643143E0,5.0481734E0,1.1926863E1,7.6972336E1,7.2376513E0,1.6798268E2,7.392641E1,1.3858447E1,3.1614046E0,3.3596306E1,1.8896648E1,4.748858E1,7.019762E1,9.941667E0,3.922534E1,1.437245E0,1.3357534E1,1.518667E2,1.19403275E2,6.849049E0,2.7940938E0,2.767611E0,2.2805626E0,9.6057005E0,2.321163E0,6.221993E1,1.4752408E1,2.1183022E1,1.4679965E2,6.874462E1,5.1817884E0,1.3626007E0,1.7988039E0,4.899956E0,2.869635E1,8.338186E0,1.0558462E1,1.7124763E1,3.0363817E1,6.715571E1,3.0419016E0],"tree_param":{"num_deleted":"0","num_feature":"87","num_nodes":"59","size_leaf_vector":"1"}},{"base_weights":[2.3035526E-1,8.074606E-2,5.1172876E-1,-1.12885766E-1,2.0756441E-1,2.9118598E-1,6.3336647E-1,8.6988576E-2,-3.1984422E-1,-3.9956224E-1,2.6743203E-1,3.974014E-1,-3.5439977E-1,4.611136E-1,7.070185E-1,2.4592997E-1,-1.3283104E-1,-4.3157193E-1,1.03780694E-1,3.6859076E-2,-4.7347382E-1,4.685846E-1,1.6232081E-1,3.0373487E-1,9.092833E-1,-3.59268E-2,4.711798E-2,7.381917E-1,2.4884526E-1,5.110929E-1,8.408855E-1,-2.8530161E-3,3.372418E-2,-1.5142306E-2,1.7905561E-2,-2.5113164E-2,5.2943253E-3,2.55584E-2,-6.50644E-3,-2.942643E-2,4.7370857E-3,-9.682272E-3,2.5920747E-2,4.0374775E-3,3.3921104E-2,1.7339562E-3,2.8962074E-2,1.8164823E-2,5.3172927E-2,-2.9523848E-2,2.145986E-2,4.266241E-2,-8.450335E-3,-3.6594172E-3,2.9513374E-2,-1.1374495E-2,3.0083135E-2,4.3016154E-2,-7.0881434E-3],"categories":[],"categories_nodes":[],"categories_segments":[],"categories_sizes":[],"default_left":[0,0,0,0,0,0,0,0,0,0,0,0,0,0,0,0,0,0,0,0,0,0,0,0,0,0,0,0,0,0,0,0,0,0,0,0,0,0,0,0,0,0,0,0,0,0,0,0,0,0,0,0,0,0,0,0,0,0,0],"id":13,"left_children":[1,3,5,7,9,11,13,15,17,19,21,23,25,27,29,31,33,35,37,-1,39,41,43,45,47,-1,49,51,53,55,57,-1,-1,-1,-1,-1,-1,-1,-1,-1,-1,-1,-1,-1,-1,-1,-1,-1,-1,-1,-1,-1,-1,-1,-1,-1,-1,-1,-1],"loss_changes":[3.9267082E1,1.5022739E1,8.506226E0,1.005402E1,1.3534941E1,8.164463E0,2.312172E0,4.368046E0,5.691023E0,3.1687655E0,7.04669E0,4.56406E0,2.528173E0,3.6486053E0,3.341545E0,9.435036E0,4.5088825E0,3.6470299E0,2.5157626E0,0E0,2.155685E0,3.898201E0,9.324459E0,6.416912E0,8.858805E-1,0E0,2.4586227E0,3.0413418E0,4.2655554E0,4.211731E0,1.72398E0,0E0,0E0,0E0,0E0,0E0,0E0,0E0,0E0,0E0,0E0,0E0,0E0,0E0,0E0,0E0,0E0,0E0,0E0,0E0,0E0,0E0,0E0,0E0,0E0,0E0,0E0,0E0,0E0],"parents":[2147483647,0,0,1,1,2,2,3,3,4,4,5,5,6,6,7,7,8,8,9,9,10,10,11,11,12,12,13,13,14,14,15,15,16,16,17,17,18,18,20,20,21,21,22,22,23,23,24,24,26,26,27,27,28,28,29,29,30,30],"right_children":[2,4,6,8,10,12,14,16,18,20,22,24,26,28,30,32,34,36,38,-1,40,42,44,46,48,-1,50,52,54,56,58,-1,-1,-1,-1,-1,-1,-1,-1,-1,-1,-1,-1,-1,-1,-1,-1,-1,-1,-1,-1,-1,-1,-1,-1,-1,-1,-1,-1],"split_conditions":[1.5885536E5,2.1E1,2.8E1,9.15E1,5.386E2,9.774036E1,2.7164E3,5.5480904E1,2.2120194E-3,-2.002E2,-1.7699115E-2,9.344E1,9.99E1,4.5098038E1,4.8E1,-2.0227924E-3,2.4324348E-2,1.14012E2,1.0096E3,3.6859076E-2,1.9807143E0,-2.1467367E-2,8.376068E1,1.1E1,1.14068175E-2,-3.59268E-2,-1.09E2,3.367814E-1,6.466709E-3,4E0,1.05040985E2,-2.8530161E-3,3.372418E-2,-1.5142306E-2,1.7905561E-2,-2.5113164E-2,5.2943253E-3,2.55584E-2,-6.50644E-3,-2.942643E-2,4.7370857E-3,-9.682272E-3,2.5920747E-2,4.0374775E-3,3.3921104E-2,1.7339562E-3,2.8962074E-2,1.8164823E-2,5.3172927E-2,-2.9523848E-2,2.145986E-2,4.266241E-2,-8.450335E-3,-3.6594172E-3,2.9513374E-2,-1.1374495E-2,3.0083135E-2,4.3016154E-2,-7.0881434E-3],"split_indices":[55,6,6,61,48,33,48,28,75,52,80,67,3,28,6,44,44,21,48,0,35,68,28,19,47,0,52,29,44,19,26,0,0,0,0,0,0,0,0,0,0,0,0,0,0,0,0,0,0,0,0,0,0,0,0,0,0,0,0],"split_type":[0,0,0,0,0,0,0,0,0,0,0,0,0,0,0,0,0,0,0,0,0,0,0,0,0,0,0,0,0,0,0,0,0,0,0,0,0,0,0,0,0,0,0,0,0,0,0,0,0,0,0,0,0,0,0,0,0,0,0],"sum_hessian":[9.327786E2,6.0981866E2,3.2295993E2,2.413796E2,3.684391E2,1.1601166E2,2.0694826E2,1.2308623E2,1.18293365E2,3.256081E1,3.3587827E2,9.995151E1,1.6060156E1,6.415864E1,1.4278963E2,7.1366E1,5.172023E1,9.3590775E1,2.4702589E1,1.440006E0,3.1120804E1,1.14088264E2,2.2179E2,8.583787E1,1.4113639E1,8.008081E0,8.0520735E0,2.6755938E1,3.74027E1,5.9915794E1,8.287383E1,4.2315506E1,2.9050493E1,3.870105E1,1.301918E1,8.276966E1,1.08211155E1,8.577794E0,1.6124796E1,2.5850693E1,5.2701106E0,7.781982E0,1.0630628E2,1.9251839E2,2.9271614E1,4.3996952E1,4.184091E1,3.8468893E0,1.0266749E1,2.8127933E0,5.2392807E0,2.3797289E1,2.95865E0,1.965217E1,1.7750528E1,6.379575E0,5.353622E1,8.138839E1,1.4854424E0],"tree_param":{"num_deleted":"0","num_feature":"87","num_nodes":"59","size_leaf_vector":"1"}},{"base_weights":[-4.9525943E-1,-5.106692E-1,3.0326048E-1,-5.471597E-1,-3.5772628E-1,9.6598136E-1,-1.2611406E-1,-5.5700356E-1,-1.1771258E-3,-5.169796E-1,-2.6819897E-1,5.924812E-2,4.9899262E-3,-2.7120266E-2,6.3055885E-1,-5.634173E-1,-1.4442247E-1,6.325788E-2,-4.4665173E-1,-5.588619E-1,2.938792E-2,-1.4986818E-1,-4.276826E-1,5.8950145E-2,-1.6953949E-2,-1.1808896E-2,-2.8491676E-2,-2.0497007E-2,2.367851E-2,7.7660033E-3,-2.7771866E-2,-3.0142847E-2,1.5759936E-2,1.8337887E-2,-1.2520558E-2,-2.3869386E-2,2.1837678E-2],"categories":[],"categories_nodes":[],"categories_segments":[],"categories_sizes":[],"default_left":[1,1,0,0,0,0,0,0,0,0,0,0,0,0,0,0,0,0,0,0,0,0,0,0,0,0,0,0,0,0,0,0,0,0,0,0,0],"id":14,"left_children":[1,3,5,7,9,11,13,15,17,19,21,-1,-1,-1,23,25,27,-1,29,31,-1,33,35,-1,-1,-1,-1,-1,-1,-1,-1,-1,-1,-1,-1,-1,-1],"loss_changes":[8.271652E0,3.418045E0,3.854045E0,2.7989655E0,1.6808949E0,8.8176584E-1,3.1277645E0,1.2726288E0,6.33457E0,2.4035444E0,1.5168395E0,0E0,0E0,0E0,2.3148184E0,9.2259216E-1,1.6999912E0,0E0,6.3012695E-1,1.8713312E0,0E0,2.6697865E0,1.7184439E0,0E0,0E0,0E0,0E0,0E0,0E0,0E0,0E0,0E0,0E0,0E0,0E0,0E0,0E0],"parents":[2147483647,0,0,1,1,2,2,3,3,4,4,5,5,6,6,7,7,8,8,9,9,10,10,14,14,15,15,16,16,18,18,19,19,21,21,22,22],"right_children":[2,4,6,8,10,12,14,16,18,20,22,-1,-1,-1,24,26,28,-1,30,32,-1,34,36,-1,-1,-1,-1,-1,-1,-1,-1,-1,-1,-1,-1,-1,-1],"split_conditions":[1.26E2,3.9E1,9.342857E-1,1.6485188E6,4.6918404E1,1.3731139E0,1.357808E-2,5.2E1,9.02E1,5E1,6.409229E-4,5.924812E-2,4.9899262E-3,-2.7120266E-2,2.167613E0,-5.1118593E0,6.9699846E-3,6.325788E-2,9.2888E1,1.7961611E6,2.938792E-2,-4.8387097E-3,2.3121387E-2,5.8950145E-2,-1.6953949E-2,-1.1808896E-2,-2.8491676E-2,-2.0497007E-2,2.367851E-2,7.7660033E-3,-2.7771866E-2,-3.0142847E-2,1.5759936E-2,1.8337887E-2,-1.2520558E-2,-2.3869386E-2,2.1837678E-2],"split_indices":[6,6,35,7,56,71,47,11,1,11,68,0,0,0,51,30,70,0,23,55,0,62,62,0,0,0,0,0,0,0,0,0,0,0,0,0,0],"split_type":[0,0,0,0,0,0,0,0,0,0,0,0,0,0,0,0,0,0,0,0,0,0,0,0,0,0,0,0,0,0,0,0,0,0,0,0,0],"sum_hessian":[6.58636E2,6.4652E2,1.2115969E1,5.198999E2,1.2662015E2,4.2722287E0,7.8437405E0,5.106725E2,9.227407E0,4.3847897E1,8.277225E1,3.1163511E0,1.1558776E0,5.2426267E0,2.6011133E0,5.0249536E2,8.177123E0,1.9224646E0,7.3049436E0,4.272235E1,1.1255479E0,4.8630196E1,3.414205E1,1.5234836E0,1.0776298E0,1.0390088E1,4.9210526E2,5.95517E0,2.221953E0,1.0525929E0,6.2523503E0,4.0970425E1,1.7519262E0,7.4909964E0,4.11392E1,3.270903E1,1.4330225E0],"tree_param":{"num_deleted":"0","num_feature":"87","num_nodes":"37","size_leaf_vector":"1"}},{"base_weights":[1.17201455E-1,3.920658E-1,-1.5838219E-1,4.54543E-1,1.1792369E-1,3.541862E-2,-3.9877152E-1,4.7625595E-1,-3.1803697E-1,7.3847944E-1,3.8452692E-2,3.0951244E-1,-1.282695E-1,-2.0651898E-1,-6.3508594E-1,1.914773E-1,5.413835E-1,2.7569998E-2,-5.647745E-1,-2.3616774E-2,1.0059068E0,3.2890603E-1,-1.19429864E-1,7.362182E-1,1.9909142E-1,4.7344394E-2,-1.582708E-1,5.4321164E-1,-2.5120336E-1,2.0091182E-2,-6.5582126E-1,4.1341726E-3,2.8583843E-2,1.5595563E-2,3.1857662E-2,-3.3201687E-2,-6.785129E-4,5.4851677E-2,1.695661E-2,4.3622408E-2,3.36849E-3,-1.549221E-2,1.5106988E-2,4.5238636E-2,-2.5788251E-2,4.4654157E-2,5.6915157E-3,-1.1316548E-2,1.2452624E-2,-2.6331998E-3,4.9693227E-2,4.020023E-2,-1.4322857E-2,-8.75103E-3,-3.3805717E-2],"categories":[],"categories_nodes":[],"categories_segments":[],"categories_sizes":[],"default_left":[0,0,0,0,0,0,1,0,0,0,0,0,0,0,0,0,0,0,0,0,0,0,0,0,0,0,0,0,0,0,0,0,0,0,0,0,0,0,0,0,0,0,0,0,0,0,0,0,0,0,0,0,0,0,0],"id":15,"left_children":[1,3,5,7,9,11,13,15,17,19,21,23,25,27,29,31,33,-1,35,-1,37,39,41,43,45,-1,47,49,51,-1,53,-1,-1,-1,-1,-1,-1,-1,-1,-1,-1,-1,-1,-1,-1,-1,-1,-1,-1,-1,-1,-1,-1,-1,-1],"loss_changes":[6.767735E1,7.6056595E0,2.0812963E1,6.25486E0,4.131382E0,1.1170613E1,8.925842E0,6.467369E0,2.5736792E0,3.5580277E0,3.5165777E0,4.237959E0,5.1830187E0,3.8686996E0,2.1759338E0,2.744396E0,6.126137E0,0E0,4.6744394E-1,0E0,1.2121773E-1,3.7750983E0,4.0959253E0,4.425413E0,4.353658E0,0E0,4.28843E0,1.8199867E0,4.1669526E0,0E0,7.361984E-1,0E0,0E0,0E0,0E0,0E0,0E0,0E0,0E0,0E0,0E0,0E0,0E0,0E0,0E0,0E0,0E0,0E0,0E0,0E0,0E0,0E0,0E0,0E0,0E0],"parents":[2147483647,0,0,1,1,2,2,3,3,4,4,5,5,6,6,7,7,8,8,9,9,10,10,11,11,12,12,13,13,14,14,15,15,16,16,18,18,20,20,21,21,22,22,23,23,24,24,26,26,27,27,28,28,30,30],"right_children":[2,4,6,8,10,12,14,16,18,20,22,24,26,28,30,32,34,-1,36,-1,38,40,42,44,46,-1,48,50,52,-1,54,-1,-1,-1,-1,-1,-1,-1,-1,-1,-1,-1,-1,-1,-1,-1,-1,-1,-1,-1,-1,-1,-1,-1,-1],"split_conditions":[1.265E3,6.9615E4,2.7164E3,5.613661E-2,-1.0733453E-2,3.1E1,4.6E1,-9.265957E-1,8.73E1,3.381634E-3,7.4142855E-1,-3.4602077E-3,4.334E2,-1.000698E6,-1.033624E6,-1.0140245E-3,9.07E1,2.7569998E-2,2.372857E0,-2.3616774E-2,3.0966813E-3,3.691436E4,6.6081E3,1.8371428E0,-8.468305E-2,4.7344394E-2,1.3576463E-2,-4.0745848E-1,1.7150978E-3,2.0091182E-2,-5.2082673E-2,4.1341726E-3,2.8583843E-2,1.5595563E-2,3.1857662E-2,-3.3201687E-2,-6.785129E-4,5.4851677E-2,1.695661E-2,4.3622408E-2,3.36849E-3,-1.549221E-2,1.5106988E-2,4.5238636E-2,-2.5788251E-2,4.4654157E-2,5.6915157E-3,-1.1316548E-2,1.2452624E-2,-2.6331998E-3,4.9693227E-2,4.020023E-2,-1.4322857E-2,-8.75103E-3,-3.3805717E-2],"split_indices":[5,41,48,44,68,6,6,86,3,70,35,58,48,41,41,45,63,0,35,0,69,7,50,35,46,0,70,74,70,0,46,0,0,0,0,0,0,0,0,0,0,0,0,0,0,0,0,0,0,0,0,0,0,0,0],"split_type":[0,0,0,0,0,0,0,0,0,0,0,0,0,0,0,0,0,0,0,0,0,0,0,0,0,0,0,0,0,0,0,0,0,0,0,0,0,0,0,0,0,0,0,0,0,0,0,0,0,0,0,0,0,0,0],"sum_hessian":[8.916328E2,4.4618738E2,4.4544543E2,3.6283823E2,8.3349144E1,2.4709291E2,1.9835254E2,3.5329266E2,9.545561E0,8.520863E0,7.482828E1,9.2055756E1,1.5503716E2,1.1040607E2,8.7946465E1,6.649122E1,2.8680145E2,1.8371552E0,7.7084055E0,1.402885E0,7.1179776E0,2.5969494E1,4.8858788E1,1.775948E1,7.429628E1,3.3790903E0,1.5165807E2,5.5825987E0,1.0482347E2,1.3638912E0,8.658257E1,5.26445E1,1.3846716E1,8.5704094E1,2.0109735E2,6.3586607E0,1.3497443E0,5.6944456E0,1.4235321E0,7.6775784E0,1.8291916E1,3.3839294E1,1.501949E1,1.5896644E1,1.8628364E0,7.092384E0,6.7203896E1,1.3032607E2,2.1332E1,2.7842557E0,2.7983427E0,2.6838834E0,1.0213959E2,3.89615E0,8.2686424E1],"tree_param":{"num_deleted":"0","num_feature":"87","num_nodes":"55","size_leaf_vector":"1"}},{"base_weights":[2.1503891E-1,-1.8295746E-2,4.409415E-1,1.7720628E-1,-1.564207E-1,3.1436512E-1,6.2045336E-1,2.520007E-2,3.4936574E-1,-2.7266902E-1,1.1587625E-1,1.5225838E-1,4.6573445E-1,-2.7671127E-2,6.3781637E-1,4.569888E-1,-7.993892E-2,-3.404748E-2,4.167919E-1,-2.9792976E-1,7.1619135E-1,-5.3824055E-1,2.1090667E-1,-2.575126E-1,2.914145E-1,3.585438E-1,7.704287E-1,8.228447E-1,5.188827E-1,3.0877233E-2,-1.8121561E-2,-1.2236486E-2,1.1798564E-2,3.3990826E-2,1.2826475E-2,-1.5905451E-2,4.2237923E-2,1.3510612E-2,4.1465987E-2,1.7147373E-2,-3.580449E-2,2.0686103E-2,-3.9558257E-3,1.582151E-2,-2.4868187E-2,2.8106242E-2,7.424672E-4,1.9843932E-2,-1.8526873E-2,4.874232E-2,8.408154E-3,4.2859074E-2,-1.32500995E-2,1.1333184E-2,3.467332E-2],"categories":[],"categories_nodes":[],"categories_segments":[],"categories_sizes":[],"default_left":[0,0,0,0,0,0,0,0,0,0,0,0,0,0,0,0,0,0,0,0,0,0,0,0,0,0,0,0,0,0,0,0,0,0,0,0,0,0,0,0,0,0,0,0,0,0,0,0,0,0,0,0,0,0,0],"id":16,"left_children":[1,3,5,7,9,11,13,15,17,19,21,23,25,-1,27,29,31,-1,33,35,37,39,41,43,45,47,49,51,53,-1,-1,-1,-1,-1,-1,-1,-1,-1,-1,-1,-1,-1,-1,-1,-1,-1,-1,-1,-1,-1,-1,-1,-1,-1,-1],"loss_changes":[4.823734E1,1.2207604E1,1.0369118E1,4.890247E0,8.414822E0,6.6695805E0,4.2507477E0,4.5990143E0,6.3767653E0,4.857045E0,5.0825777E0,7.72338E0,4.347393E0,0E0,3.730278E0,2.8324919E0,4.3095007E0,0E0,3.3217382E0,4.4648323E0,2.4356604E-2,1.8788795E0,4.180606E0,4.911278E0,7.5231676E0,3.126315E0,4.2646484E0,2.9244537E0,5.8476086E0,0E0,0E0,0E0,0E0,0E0,0E0,0E0,0E0,0E0,0E0,0E0,0E0,0E0,0E0,0E0,0E0,0E0,0E0,0E0,0E0,0E0,0E0,0E0,0E0,0E0,0E0],"parents":[2147483647,0,0,1,1,2,2,3,3,4,4,5,5,6,6,7,7,8,8,9,9,10,10,11,11,12,12,14,14,15,15,16,16,18,18,19,19,20,20,21,21,22,22,23,23,24,24,25,25,26,26,27,27,28,28],"right_children":[2,4,6,8,10,12,14,16,18,20,22,24,26,-1,28,30,32,-1,34,36,38,40,42,44,46,48,50,52,54,-1,-1,-1,-1,-1,-1,-1,-1,-1,-1,-1,-1,-1,-1,-1,-1,-1,-1,-1,-1,-1,-1,-1,-1,-1,-1],"split_conditions":[1.261082E5,9.116E1,2.4965036E5,2.2066E3,7.80056E4,1.1521648E2,5.048E2,8.707E2,2E0,4.1493405E-2,5.048E2,-2.427953E-3,6.25E-3,-2.7671127E-2,-4.398065E-4,1.253E3,1.3204225E-3,-3.404748E-2,3.09017E-1,1.7961611E6,-8.1930856E5,5.40906E0,1.704508E-4,-1.4311967E-2,9E1,1.00961536E-1,6.9625763E-4,1.0564945E2,4.3396227E-2,3.0877233E-2,-1.8121561E-2,-1.2236486E-2,1.1798564E-2,3.3990826E-2,1.2826475E-2,-1.5905451E-2,4.2237923E-2,1.3510612E-2,4.1465987E-2,1.7147373E-2,-3.580449E-2,2.0686103E-2,-3.9558257E-3,1.582151E-2,-2.4868187E-2,2.8106242E-2,7.424672E-4,1.9843932E-2,-1.8526873E-2,4.874232E-2,8.408154E-3,4.2859074E-2,-1.32500995E-2,1.1333184E-2,3.467332E-2],"split_indices":[7,61,55,50,7,32,48,49,19,43,48,58,68,0,43,5,60,0,18,55,55,36,69,44,57,40,66,53,81,0,0,0,0,0,0,0,0,0,0,0,0,0,0,0,0,0,0,0,0,0,0,0,0,0,0],"split_type":[0,0,0,0,0,0,0,0,0,0,0,0,0,0,0,0,0,0,0,0,0,0,0,0,0,0,0,0,0,0,0,0,0,0,0,0,0,0,0,0,0,0,0,0,0,0,0,0,0,0,0,0,0,0,0],"sum_hessian":[9.1397705E2,4.5004492E2,4.639321E2,1.8620602E2,2.638389E2,2.7369617E2,1.9023593E2,9.9500015E1,8.670601E1,1.8490036E2,7.8938545E1,1.3312926E2,1.4056693E2,2.3227983E0,1.8791313E2,1.8828382E1,8.067163E1,4.766811E0,8.193919E1,1.8097598E2,3.9243746E0,9.421851E0,6.95167E1,3.3533405E1,9.959585E1,1.0559546E2,3.4971466E1,7.121051E1,1.1670262E2,1.5949607E1,2.878776E0,5.316438E1,2.750725E1,2.9795897E1,5.21433E1,1.785446E2,2.431385E0,1.4796772E0,2.4446974E0,1.4263625E0,7.995488E0,4.065785E1,2.885885E1,9.789268E0,2.3744139E1,4.9808884E1,4.978696E1,1.00753525E2,4.8419347E0,2.5647648E1,9.323818E0,6.9237144E1,1.9733636E0,4.4506214E1,7.219641E1],"tree_param":{"num_deleted":"0","num_feature":"87","num_nodes":"55","size_leaf_vector":"1"}},{"base_weights":[-4.8115465E-1,-5.2727526E-1,-1.0941645E-1,-5.386994E-1,-9.1942675E-2,-4.6234465E-1,2.8891787E-2,-5.734822E-1,-4.4477993E-1,3.9240885E-1,-2.8030371E-2,1.1690426E-1,-5.4889226E-1,-2.8533852E-1,2.3415898E-1,-5.8017164E-1,6.9352545E-2,-4.9452138E-1,-1.5346341E-1,7.976747E-1,-2.2312144E-2,3.0137409E-2,-1.834159E-2,-3.013534E-2,8.155824E-3,-4.4266945E-1,5.10199E-1,7.2007245E-1,-5.1992327E-2,-2.9125009E-2,2.709049E-3,2.3777617E-2,-2.107341E-2,-2.543651E-2,3.2828663E-2,-2.0739824E-2,1.783405E-2,2.7982274E-3,7.119645E-2,3.089392E-2,-2.7292058E-2,-1.6267648E-2,4.5726072E-2,-3.2364707E-3,5.2617114E-2,2.2585936E-2,-1.3879406E-2],"categories":[],"categories_nodes":[],"categories_segments":[],"categories_sizes":[],"default_left":[0,0,0,0,0,0,0,0,0,0,0,0,0,0,0,0,0,0,0,0,0,0,0,0,0,0,0,0,0,0,0,0,0,0,0,0,0,0,0,0,0,0,0,0,0,0,0],"id":17,"left_children":[1,3,5,7,9,11,13,15,17,19,-1,21,23,25,27,29,31,33,35,37,-1,-1,-1,-1,-1,39,41,43,45,-1,-1,-1,-1,-1,-1,-1,-1,-1,-1,-1,-1,-1,-1,-1,-1,-1,-1],"loss_changes":[1.0890167E1,2.7743835E0,3.5152595E0,1.5517426E0,3.7896383E0,1.0797381E0,3.4520726E0,1.7609863E0,2.154665E0,3.184257E0,0E0,1.0337442E0,7.803416E-1,2.877849E0,4.5279226E0,6.166992E-1,1.2001617E0,2.477131E0,3.3342538E0,2.6929717E0,0E0,0E0,0E0,0E0,0E0,2.3314576E0,1.6363884E0,3.2069497E0,2.541078E0,0E0,0E0,0E0,0E0,0E0,0E0,0E0,0E0,0E0,0E0,0E0,0E0,0E0,0E0,0E0,0E0,0E0,0E0],"parents":[2147483647,0,0,1,1,2,2,3,3,4,4,5,5,6,6,7,7,8,8,9,9,11,11,12,12,13,13,14,14,15,15,16,16,17,17,18,18,19,19,25,25,26,26,27,27,28,28],"right_children":[2,4,6,8,10,12,14,16,18,20,-1,22,24,26,28,30,32,34,36,38,-1,-1,-1,-1,-1,40,42,44,46,-1,-1,-1,-1,-1,-1,-1,-1,-1,-1,-1,-1,-1,-1,-1,-1,-1,-1],"split_conditions":[6.055E3,1.4705666E2,-2.3076923E-3,1.31315E5,-6.63852E5,4.1E1,-8.8161207E-4,3.59E2,1.4619946E-2,-2.6049674E-1,-2.8030371E-2,-7.687221E-3,1.7798277E0,9.329461E1,9.3E-1,3.344929E0,3E0,5.337688E5,3.406E3,-1.2398224E0,-2.2312144E-2,3.0137409E-2,-1.834159E-2,-3.013534E-2,8.155824E-3,5.86206E1,8.198E3,2.3844793E-1,2.5069E3,-2.9125009E-2,2.709049E-3,2.3777617E-2,-2.107341E-2,-2.543651E-2,3.2828663E-2,-2.0739824E-2,1.783405E-2,2.7982274E-3,7.119645E-2,3.089392E-2,-2.7292058E-2,-1.6267648E-2,4.5726072E-2,-3.2364707E-3,5.2617114E-2,2.2585936E-2,-1.3879406E-2],"split_indices":[5,25,64,41,41,12,66,12,43,86,0,66,29,37,35,86,8,7,5,86,0,0,0,0,0,24,5,77,49,0,0,0,0,0,0,0,0,0,0,0,0,0,0,0,0,0,0],"split_type":[0,0,0,0,0,0,0,0,0,0,0,0,0,0,0,0,0,0,0,0,0,0,0,0,0,0,0,0,0,0,0,0,0,0,0,0,0,0,0,0,0,0,0,0,0,0,0],"sum_hessian":[6.3755334E2,5.66812E2,7.074135E1,5.5208655E2,1.472544E1,1.925768E1,5.1483665E1,3.9915457E2,1.5293196E2,7.3215437E0,7.4038963E0,2.457733E0,1.679995E1,2.0188425E1,3.1295242E1,3.9514017E2,4.014421E0,1.3003186E2,2.2900097E1,4.9691415E0,2.3524024E0,1.1034489E0,1.354284E0,1.5762138E1,1.0378101E0,1.7225376E1,2.9630485E0,1.1036967E1,2.0258276E1,3.937765E2,1.3636742E0,2.2135832E0,1.800838E0,1.289976E2,1.0342677E0,1.5266426E1,7.63367E0,2.7735844E0,2.1955569E0,1.0848536E0,1.6140524E1,1.0299404E0,1.9331081E0,3.5224166E0,7.51455E0,5.9564214E0,1.4301853E1],"tree_param":{"num_deleted":"0","num_feature":"87","num_nodes":"47","size_leaf_vector":"1"}},{"base_weights":[1.2257259E-1,3.9351097E-1,-1.5006468E-1,4.6689323E-1,1.1659823E-1,3.475213E-2,-4.304607E-1,5.047126E-1,-1.6746397E-1,-3.3729132E-2,4.1496012E-1,2.1433952E-1,-1.4188546E-1,7.3602825E-2,-5.285605E-1,1.7839146E-1,5.623153E-1,3.5099305E-2,-3.8197175E-1,-1.504432E-1,6.7727476E-1,6.6282684E-1,-2.5832525E-1,7.679927E-1,1.2866312E-1,7.10453E-2,-3.0902967E-1,-4.2053223E-1,2.6098076E-1,-2.2276072E-1,-5.86854E-1,-1.7415484E-2,1.5552411E-2,1.784381E-2,3.2244544E-2,-3.0707363E-2,1.9500888E-3,-2.1427613E-2,1.9051771E-3,4.0788982E-2,-2.5257696E-3,4.801224E-3,4.3924984E-2,3.199481E-2,-3.279837E-2,-1.2980627E-2,4.713672E-2,1.7808525E-2,-1.954633E-3,-3.7391118E-3,3.5038024E-2,1.1664244E-2,-2.0137908E-2,2.0646488E-2,-3.1813465E-2,3.9759796E-2,-6.168633E-4,1.0413061E-2,-2.4340456E-2,-1.3052362E-2,-3.1252295E-2],"categories":[],"categories_nodes":[],"categories_segments":[],"categories_sizes":[],"default_left":[0,0,0,0,0,0,0,0,0,0,0,0,0,0,0,0,0,0,0,0,0,0,0,0,0,0,0,0,0,0,0,0,0,0,0,0,0,0,0,0,0,0,0,0,0,0,0,0,0,0,0,0,0,0,0,0,0,0,0,0,0],"id":18,"left_children":[1,3,5,7,9,11,13,15,17,19,21,23,25,27,29,31,33,-1,35,37,39,41,43,45,47,49,51,53,55,57,59,-1,-1,-1,-1,-1,-1,-1,-1,-1,-1,-1,-1,-1,-1,-1,-1,-1,-1,-1,-1,-1,-1,-1,-1,-1,-1,-1,-1,-1,-1],"loss_changes":[6.5256714E1,8.946877E0,2.285065E1,8.477501E0,4.2358603E0,8.484961E0,8.699131E0,6.110298E0,4.0791974E0,5.3728027E0,5.4467607E0,6.1889496E0,4.825403E0,2.8327868E0,2.4848442E0,3.6743546E0,4.5260773E0,0E0,1.6892464E0,2.9202108E0,9.623537E-1,2.7744408E0,3.7149262E0,3.3983583E0,4.4408693E0,5.5774794E0,3.946858E0,1.7855228E0,3.2133808E0,2.9584422E0,1.3626518E0,0E0,0E0,0E0,0E0,0E0,0E0,0E0,0E0,0E0,0E0,0E0,0E0,0E0,0E0,0E0,0E0,0E0,0E0,0E0,0E0,0E0,0E0,0E0,0E0,0E0,0E0,0E0,0E0,0E0,0E0],"parents":[2147483647,0,0,1,1,2,2,3,3,4,4,5,5,6,6,7,7,8,8,9,9,10,10,11,11,12,12,13,13,14,14,15,15,16,16,18,18,19,19,20,20,21,21,22,22,23,23,24,24,25,25,26,26,27,27,28,28,29,29,30,30],"right_children":[2,4,6,8,10,12,14,16,18,20,22,24,26,28,30,32,34,-1,36,38,40,42,44,46,48,50,52,54,56,58,60,-1,-1,-1,-1,-1,-1,-1,-1,-1,-1,-1,-1,-1,-1,-1,-1,-1,-1,-1,-1,-1,-1,-1,-1,-1,-1,-1,-1,-1,-1],"split_conditions":[1.265E3,1.5187014E5,2.5217484E5,4.51878E-2,6.495727E1,4.7E1,1.861E3,-1.6404763E-2,1.2621233E-1,1.63858E4,3.5900157E-2,1.00685E3,-9.84021E-3,1.2684628E6,2.8926575E-1,-4.464E2,9.139E1,3.5099305E-2,2.124E2,1.94E2,5.6349205E1,1.3371484E-2,-4.9912375E-1,1.1E1,3.09017E-1,4.7829203E-4,-5.748E2,5.3429944E-3,-5.0670795E-2,4E1,-1.764706E-2,-1.7415484E-2,1.5552411E-2,1.784381E-2,3.2244544E-2,-3.0707363E-2,1.9500888E-3,-2.1427613E-2,1.9051771E-3,4.0788982E-2,-2.5257696E-3,4.801224E-3,4.3924984E-2,3.199481E-2,-3.279837E-2,-1.2980627E-2,4.713672E-2,1.7808525E-2,-1.954633E-3,-3.7391118E-3,3.5038024E-2,1.1664244E-2,-2.0137908E-2,2.0646488E-2,-3.1813465E-2,3.9759796E-2,-6.168633E-4,1.0413061E-2,-2.4340456E-2,-1.3052362E-2,-3.1252295E-2],"split_indices":[5,55,55,54,28,6,48,44,51,48,45,50,46,55,51,52,61,0,52,12,28,54,71,6,18,75,52,47,82,6,81,0,0,0,0,0,0,0,0,0,0,0,0,0,0,0,0,0,0,0,0,0,0,0,0,0,0,0,0,0,0],"split_type":[0,0,0,0,0,0,0,0,0,0,0,0,0,0,0,0,0,0,0,0,0,0,0,0,0,0,0,0,0,0,0,0,0,0,0,0,0,0,0,0,0,0,0,0,0,0,0,0,0,0,0,0,0,0,0,0,0,0,0,0,0],"sum_hessian":[8.8162506E2,4.4196786E2,4.396572E2,3.48839E2,9.3128876E1,2.65521E2,1.741362E2,3.294048E2,1.9434217E1,6.2517075E1,3.0611801E1,1.315553E2,1.339657E2,2.8409609E1,1.457266E2,5.0037495E1,2.7936728E2,3.3961768E0,1.6038042E1,5.4378963E1,8.138112E0,2.2386028E1,8.225773E0,1.656246E1,1.1499284E2,5.916646E1,7.479924E1,7.46894E0,2.0940668E1,2.4103615E1,1.2162297E2,9.74002E0,4.0297474E1,8.162213E1,1.9774515E2,1.0041226E1,5.996815E0,2.1456867E1,3.2922096E1,6.7354054E0,1.402707E0,6.568585E0,1.5817443E1,2.3371747E0,5.888598E0,2.3364987E0,1.4225961E1,4.8328056E1,6.666479E1,4.875676E1,1.04096985E1,1.08031435E1,6.3996098E1,1.3478229E0,6.121117E0,6.441326E0,1.4499342E1,9.236918E0,1.4866696E1,1.3583167E1,1.080398E2],"tree_param":{"num_deleted":"0","num_feature":"87","num_nodes":"61","size_leaf_vector":"1"}},{"base_weights":[2.2584753E-1,-4.531617E-2,3.885945E-1,1.7088474E-1,-1.5456383E-1,2.7228785E-1,5.710401E-1,4.2877153E-1,-5.5602267E-3,-1.8429862E-1,6.5885013E-1,1.2415224E-1,3.98152E-1,-2.7299011E-2,5.8515966E-1,-3.0104434E-2,5.079177E-1,-1.0192736E-1,4.6755376E-1,2.3910123E-1,-2.296461E-1,8.4537935E-1,-6.3049668E-3,5.5442154E-2,4.3984482E-1,-4.7342263E-2,4.8038208E-1,7.580156E-1,4.7706357E-1,1.5543408E-2,4.1188233E-2,1.8146007E-3,-2.5728745E-2,4.6106413E-2,-1.4494645E-2,1.579344E-4,4.086004E-2,-1.4144748E-2,5.407625E-3,4.727253E-2,1.417649E-2,-4.6442486E-3,1.293757E-2,2.8322801E-2,-2.0552604E-2,1.0981161E-2,-2.3417342E-2,1.6511945E-2,3.0862415E-2,1.6739568E-2,4.1365586E-2,1.0761497E-2,3.3219974E-2],"categories":[],"categories_nodes":[],"categories_segments":[],"categories_sizes":[],"default_left":[0,0,0,0,0,0,0,0,0,0,0,0,0,0,0,0,0,0,0,0,0,0,0,0,0,0,0,0,0,0,0,0,0,0,0,0,0,0,0,0,0,0,0,0,0,0,0,0,0,0,0,0,0],"id":19,"left_children":[1,3,5,7,9,11,13,15,17,19,21,23,25,-1,27,-1,29,31,33,35,37,39,-1,41,43,45,47,49,51,-1,-1,-1,-1,-1,-1,-1,-1,-1,-1,-1,-1,-1,-1,-1,-1,-1,-1,-1,-1,-1,-1,-1,-1],"loss_changes":[4.0656807E1,8.20555E0,1.205825E1,5.31339E0,5.698156E0,6.540024E0,3.839264E0,4.1754723E0,3.2523272E0,4.340762E0,1.3291693E0,3.5286093E0,7.0056915E0,0E0,3.765274E0,0E0,2.5190601E0,3.3961084E0,4.4243364E0,3.009726E0,3.6664896E0,1.185689E-1,0E0,4.11517E0,3.371531E0,3.5435185E0,3.1047668E0,2.1654396E0,6.654766E0,0E0,0E0,0E0,0E0,0E0,0E0,0E0,0E0,0E0,0E0,0E0,0E0,0E0,0E0,0E0,0E0,0E0,0E0,0E0,0E0,0E0,0E0,0E0,0E0],"parents":[2147483647,0,0,1,1,2,2,3,3,4,4,5,5,6,6,7,7,8,8,9,9,10,10,11,11,12,12,14,14,16,16,17,17,18,18,19,19,20,20,21,21,23,23,24,24,25,25,26,26,27,27,28,28],"right_children":[2,4,6,8,10,12,14,16,18,20,22,24,26,-1,28,-1,30,32,34,36,38,40,-1,42,44,46,48,50,52,-1,-1,-1,-1,-1,-1,-1,-1,-1,-1,-1,-1,-1,-1,-1,-1,-1,-1,-1,-1,-1,-1,-1,-1],"split_conditions":[8.91E2,9.13E1,2.5083527E5,3.09017E-1,4.8744593E-2,5.9200406E-2,5.048E2,-1.4021572E-2,1.1692857E0,-4.48365E-2,9.1476655E-1,4E0,-1.015049E6,-2.7299011E-2,-1.1299435E-4,-3.0104434E-2,8.835E1,6.564512E-2,2.8993746E-2,5.88E2,1.194773E0,2.6446E3,-6.3049668E-3,1.1112346E-4,1.9251131E0,1.56956E-2,2.1822E3,1.512E3,4.3396227E-2,1.5543408E-2,4.1188233E-2,1.8146007E-3,-2.5728745E-2,4.6106413E-2,-1.4494645E-2,1.579344E-4,4.086004E-2,-1.4144748E-2,5.407625E-3,4.727253E-2,1.417649E-2,-4.6442486E-3,1.293757E-2,2.8322801E-2,-2.0552604E-2,1.0981161E-2,-2.3417342E-2,1.6511945E-2,3.0862415E-2,1.6739568E-2,4.1365586E-2,1.0761497E-2,3.3219974E-2],"split_indices":[5,61,55,18,44,34,48,68,35,40,31,8,41,0,43,0,59,34,40,5,77,48,0,58,71,47,48,5,81,0,0,0,0,0,0,0,0,0,0,0,0,0,0,0,0,0,0,0,0,0,0,0,0],"split_type":[0,0,0,0,0,0,0,0,0,0,0,0,0,0,0,0,0,0,0,0,0,0,0,0,0,0,0,0,0,0,0,0,0,0,0,0,0,0,0,0,0,0,0,0,0,0,0,0,0,0,0,0,0],"sum_hessian":[9.1987476E2,3.4528833E2,5.745865E2,1.1571814E2,2.2957018E2,3.524174E2,2.2216908E2,4.6428925E1,6.9289215E1,2.2222023E2,7.349958E0,1.6279843E2,1.8961894E2,2.3030474E0,2.1986604E2,2.8393786E0,4.3589546E1,5.8215946E1,1.1073266E1,2.1084646E1,2.0113557E2,5.8765216E0,1.4734361E0,1.3466449E2,2.8133934E1,2.961256E1,1.6000638E2,8.2280014E1,1.3758603E2,2.8064802E1,1.5524743E1,4.4292046E1,1.3923902E1,6.78431E0,4.2889566E0,1.5687496E1,5.39715E0,1.7388737E2,2.7248205E1,4.408564E0,1.4679574E0,7.817439E1,5.64901E1,2.4780888E1,3.3530476E0,1.841418E1,1.119838E1,7.7929756E1,8.207662E1,1.2397E1,6.988302E1,5.8279488E1,7.930653E1],"tree_param":{"num_deleted":"0","num_feature":"87","num_nodes":"53","size_leaf_vector":"1"}},{"base_weights":[-4.738411E-1,-5.1596844E-1,-1.2578371E-1,-5.243356E-1,-2.3496127E-2,-3.5375342E-1,1.2461844E-1,-2.0925313E-1,-5.323819E-1,4.5719925E-2,-3.3960637E-1,6.681123E-1,-4.474101E-1,-3.7317398E-1,3.1300387E-1,-4.2387113E-1,5.109343E-1,-4.193343E-1,-5.556143E-1,-2.7581125E-2,2.0526865E-2,-1.6119994E-2,6.007917E-2,-5.203905E-1,1.8747424E-1,2.1448927E-2,-2.807943E-2,2.42542E-2,8.2170886E-1,-2.8683824E-2,2.1944625E-2,5.352018E-2,-1.8042255E-2,-2.4463488E-2,-1.7688413E-3,-2.7882142E-2,8.308579E-3,-7.5869695E-3,-3.0511528E-2,-2.0580383E-2,3.7920363E-2,2.5066277E-2,-1.5443389E-2,-1.660325E-2,5.061392E-2],"categories":[],"categories_nodes":[],"categories_segments":[],"categories_sizes":[],"default_left":[0,0,0,0,0,0,0,0,0,0,0,0,1,0,0,0,0,0,1,0,0,0,0,0,0,0,0,0,0,0,0,0,0,0,0,0,0,0,0,0,0,0,0,0,0],"id":20,"left_children":[1,3,5,7,9,11,13,15,17,-1,19,21,23,25,27,29,31,33,35,-1,-1,-1,-1,37,39,-1,-1,41,43,-1,-1,-1,-1,-1,-1,-1,-1,-1,-1,-1,-1,-1,-1,-1,-1],"loss_changes":[9.316193E0,2.3380432E0,4.062757E0,1.3103943E0,3.4460955E0,3.8505845E0,3.332267E0,2.629731E0,1.2015381E0,0E0,1.6004617E0,2.2457047E0,1.7004375E0,1.7326062E0,3.7137728E0,1.8770223E0,2.35565E0,2.592495E0,7.5154114E-1,0E0,0E0,0E0,0E0,9.437895E-1,1.7835228E0,0E0,0E0,2.8955078E0,2.353136E0,0E0,0E0,0E0,0E0,0E0,0E0,0E0,0E0,0E0,0E0,0E0,0E0,0E0,0E0,0E0,0E0],"parents":[2147483647,0,0,1,1,2,2,3,3,4,4,5,5,6,6,7,7,8,8,10,10,11,11,12,12,13,13,14,14,15,15,16,16,17,17,18,18,23,23,24,24,27,27,28,28],"right_children":[2,4,6,8,10,12,14,16,18,-1,20,22,24,26,28,30,32,34,36,-1,-1,-1,-1,38,40,-1,-1,42,44,-1,-1,-1,-1,-1,-1,-1,-1,-1,-1,-1,-1,-1,-1,-1,-1],"split_conditions":[6.055E3,5.2E1,1.987E2,-2.4390243E-2,4.096855E-1,2E1,-2.9537585E-3,7.886736E-2,-5.878E2,4.5719925E-2,1.1034134E2,1.2440399E-1,1.37E2,-7.687221E-3,6.409229E-4,4.5E1,4.88405E3,9.31874E5,1.17E2,-2.7581125E-2,2.0526865E-2,-1.6119994E-2,6.007917E-2,7.048E3,8.342133E-3,2.1448927E-2,-2.807943E-2,1.59E2,6.468082E1,-2.8683824E-2,2.1944625E-2,5.352018E-2,-1.8042255E-2,-2.4463488E-2,-1.7688413E-3,-2.7882142E-2,8.308579E-3,-7.5869695E-3,-3.0511528E-2,-2.0580383E-2,3.7920363E-2,2.5066277E-2,-1.5443389E-2,-1.660325E-2,5.061392E-2],"split_indices":[5,11,52,66,51,6,64,46,52,0,33,51,6,66,66,11,50,41,6,0,0,0,0,5,39,0,0,12,33,0,0,0,0,0,0,0,0,0,0,0,0,0,0,0,0],"split_type":[0,0,0,0,0,0,0,0,0,0,0,0,0,0,0,0,0,0,0,0,0,0,0,0,0,0,0,0,0,0,0,0,0,0,0,0,0,0,0,0,0,0,0,0,0],"sum_hessian":[6.387911E2,5.693919E2,6.939916E1,5.598159E2,9.576026E0,3.6110714E1,3.3288452E1,1.4612577E1,5.452033E2,1.9368278E0,7.639198E0,2.5168064E0,3.3593906E1,8.869815E0,2.4418636E1,1.1574719E1,3.037858E0,9.619127E1,4.4901205E2,6.162196E0,1.477002E0,1.0195091E0,1.4972973E0,3.0292143E1,3.301764E0,1.4442624E0,7.4255524E0,1.624524E1,8.173397E0,1.0147787E1,1.4269325E0,1.7115946E0,1.3262633E0,8.113817E1,1.50531E1,4.4798047E2,1.0315894E0,6.4625626E0,2.382958E1,1.7473378E0,1.554426E0,6.4718413E0,9.773397E0,1.0533812E0,7.120016E0],"tree_param":{"num_deleted":"0","num_feature":"87","num_nodes":"45","size_leaf_vector":"1"}},{"base_weights":[1.1587474E-1,3.9038798E-1,-1.5670681E-1,4.5454538E-1,1.2005214E-1,1.0665156E-2,-4.1585895E-1,-3.0421397E-1,4.7398722E-1,2.4995784E-1,-3.096576E-1,2.0226917E-1,-1.7093791E-1,-9.464252E-2,-5.0562763E-1,-5.6650764E-1,2.4119657E-2,5.459346E-1,2.5523007E-1,8.691638E-2,5.12599E-1,-4.6712032E-1,3.881476E-2,5.343762E-1,3.626597E-2,-1.21942565E-1,-3.3591E-2,-3.2097146E-2,6.726491E-2,-1.6134195E-1,-5.8133197E-1,-2.6799908E-3,-3.3741094E-2,1.8721307E-2,3.1037634E-2,-1.3320319E-2,1.7071983E-2,1.4300527E-2,-2.3068836E-2,3.1347368E-2,-1.5428476E-2,1.6138455E-2,-3.2950737E-2,3.0269155E-2,-2.6741225E-2,-8.329148E-3,2.0492041E-2,1.963616E-2,-9.021855E-3,2.6018435E-2,-1.0682833E-2,3.422458E-2,-1.5185419E-2,-1.4727808E-3,-3.0168682E-2],"categories":[],"categories_nodes":[],"categories_segments":[],"categories_sizes":[],"default_left":[0,0,0,0,0,0,0,0,0,0,0,0,0,0,0,0,0,0,0,0,0,0,0,0,0,0,0,0,0,0,0,0,0,0,0,0,0,0,0,0,0,0,0,0,0,0,0,0,0,0,0,0,0,0,0],"id":21,"left_children":[1,3,5,7,9,11,13,15,17,19,21,23,25,27,29,31,-1,33,35,37,39,41,-1,43,45,47,-1,-1,49,51,53,-1,-1,-1,-1,-1,-1,-1,-1,-1,-1,-1,-1,-1,-1,-1,-1,-1,-1,-1,-1,-1,-1,-1,-1],"loss_changes":[6.6171425E1,7.585129E0,1.9263968E1,5.3904037E0,4.8694153E0,9.455942E0,4.977104E0,2.2320836E0,5.324295E0,2.801818E0,3.8465486E0,7.2695055E0,3.3427658E0,3.5250783E0,3.4501457E0,3.849225E-1,0E0,3.108345E0,4.0390124E0,4.740324E0,2.5648727E0,3.0044818E0,0E0,3.6634092E0,6.829463E0,3.9344888E0,0E0,0E0,4.0861387E0,3.325915E0,1.3334084E0,0E0,0E0,0E0,0E0,0E0,0E0,0E0,0E0,0E0,0E0,0E0,0E0,0E0,0E0,0E0,0E0,0E0,0E0,0E0,0E0,0E0,0E0,0E0,0E0],"parents":[2147483647,0,0,1,1,2,2,3,3,4,4,5,5,6,6,7,7,8,8,9,9,10,10,11,11,12,12,13,13,14,14,15,15,17,17,18,18,19,19,20,20,21,21,23,23,24,24,25,25,28,28,29,29,30,30],"right_children":[2,4,6,8,10,12,14,16,18,20,22,24,26,28,30,32,-1,34,36,38,40,42,-1,44,46,48,-1,-1,50,52,54,-1,-1,-1,-1,-1,-1,-1,-1,-1,-1,-1,-1,-1,-1,-1,-1,-1,-1,-1,-1,-1,-1,-1,-1],"split_conditions":[1.265E3,1.5885536E5,2.5217484E5,5.905E1,5.4945056E-3,1.035E2,2.3878E3,8.476485E-1,7.954105E4,6.4467E1,1.02186E4,-5.50055E-4,-2.3193158E4,-8.635394E-3,2.8926575E-1,1.3428189E2,2.4119657E-2,9.1146E1,-2.1800201E-2,5.1231654E-3,1.10300735E-1,4.342197E-3,3.881476E-2,5.1E1,8.922228E1,-1.4064318E0,-3.3591E-2,-3.2097146E-2,-1.550956E-4,-1.0439561E-2,1.391E3,-2.6799908E-3,-3.3741094E-2,1.8721307E-2,3.1037634E-2,-1.3320319E-2,1.7071983E-2,1.4300527E-2,-2.3068836E-2,3.1347368E-2,-1.5428476E-2,1.6138455E-2,-3.2950737E-2,3.0269155E-2,-2.6741225E-2,-8.329148E-3,2.0492041E-2,1.963616E-2,-9.021855E-3,2.6018435E-2,-1.0682833E-2,3.422458E-2,-1.5185419E-2,-1.4727808E-3,-3.0168682E-2],"split_indices":[5,55,55,21,68,67,49,86,7,28,48,58,55,39,51,55,0,22,38,44,34,73,0,11,26,71,0,0,75,66,5,0,0,0,0,0,0,0,0,0,0,0,0,0,0,0,0,0,0,0,0,0,0,0,0],"split_type":[0,0,0,0,0,0,0,0,0,0,0,0,0,0,0,0,0,0,0,0,0,0,0,0,0,0,0,0,0,0,0,0,0,0,0,0,0,0,0,0,0,0,0,0,0,0,0,0,0,0,0,0,0,0,0],"sum_hessian":[8.8250507E2,4.3947922E2,4.4302585E2,3.5463428E2,8.484494E1,2.6976102E2,1.7326482E2,8.493914E0,3.4614035E2,6.5470764E1,1.937418E1,1.3121071E2,1.3855032E2,3.8293755E1,1.3497105E2,6.579719E0,1.914195E0,2.5934753E2,8.679283E1,4.1215855E1,2.4254904E1,1.7418375E1,1.9558053E0,4.2988525E1,8.8222176E1,1.2733782E2,1.1212493E1,8.065347E0,3.0228407E1,2.4893318E1,1.1007774E2,1.4078557E0,5.171863E0,8.059676E1,1.7875076E2,1.2013206E1,7.4779625E1,3.0587425E1,1.0628431E1,2.1497833E1,2.7570717E0,3.2712028E0,1.4147171E1,4.071818E1,2.2703447E0,5.7535065E1,3.0687113E1,1.2412475E1,1.14925354E2,1.1242615E1,1.8985792E1,3.0376925E0,2.1855625E1,4.3173356E0,1.0576041E2],"tree_param":{"num_deleted":"0","num_feature":"87","num_nodes":"55","size_leaf_vector":"1"}},{"base_weights":[2.1095751E-1,-4.7917668E-2,3.6790484E-1,-1.2193897E-1,2.3813769E-1,2.4727252E-1,5.483607E-1,-1.4848448E-1,6.1840016E-1,-1.3916076E-2,4.9382797E-1,1.6587043E-1,4.8575768E-1,6.7336303E-1,4.0983132E-1,-2.2359662E-1,8.597719E-2,4.71741E-2,4.2448463E-3,-1.2907028E-1,6.233556E-1,8.606523E-1,2.5634348E-1,3.8158495E-2,3.3295318E-1,5.31003E-1,-3.1211823E-1,7.0251566E-1,-6.0340695E-2,6.5921545E-1,2.1602626E-1,3.193655E-4,-1.6004315E-2,3.881943E-2,-5.329726E-3,-2.787499E-2,3.3227533E-2,1.0662948E-2,-1.9912494E-2,-5.173444E-3,4.4150606E-2,4.8726346E-2,-3.7622757E-3,-1.505702E-2,2.3854038E-2,1.4188199E-2,-6.080575E-3,2.0113273E-2,-1.47856865E-2,6.494742E-3,3.0957682E-2,-3.1201009E-2,1.5446471E-2,-5.8458475E-3,3.6084797E-2,-3.2848105E-2,3.262367E-2,3.5309862E-2,-1.4445364E-2,-4.9813073E-3,2.971608E-2],"categories":[],"categories_nodes":[],"categories_segments":[],"categories_sizes":[],"default_left":[0,0,0,0,0,0,0,0,0,0,0,0,0,0,0,0,0,0,0,0,0,0,0,0,0,0,0,0,0,0,0,0,0,0,0,0,0,0,0,0,0,0,0,0,0,0,0,0,0,0,0,0,0,0,0,0,0,0,0,0,0],"id":22,"left_children":[1,3,5,7,9,11,13,15,17,19,21,23,25,27,29,31,33,-1,35,37,39,41,43,45,47,49,51,53,55,57,59,-1,-1,-1,-1,-1,-1,-1,-1,-1,-1,-1,-1,-1,-1,-1,-1,-1,-1,-1,-1,-1,-1,-1,-1,-1,-1,-1,-1,-1,-1],"loss_changes":[3.7584953E1,7.437334E0,1.2397835E1,5.567282E0,4.664027E0,6.653776E0,3.7043457E0,4.770184E0,1.9600945E0,2.8222966E0,2.9068012E0,5.5382657E0,3.3337517E0,2.5935516E0,5.25066E0,4.5422497E0,8.881323E0,0E0,2.0060594E0,3.077252E0,1.2028892E0,1.5316963E0,3.000566E0,5.864463E0,5.02407E0,2.8690395E0,1.2270074E0,1.8885727E0,2.7587187E0,2.3558788E0,7.734419E0,0E0,0E0,0E0,0E0,0E0,0E0,0E0,0E0,0E0,0E0,0E0,0E0,0E0,0E0,0E0,0E0,0E0,0E0,0E0,0E0,0E0,0E0,0E0,0E0,0E0,0E0,0E0,0E0,0E0,0E0],"parents":[2147483647,0,0,1,1,2,2,3,3,4,4,5,5,6,6,7,7,8,8,9,9,10,10,11,11,12,12,13,13,14,14,15,15,16,16,18,18,19,19,20,20,21,21,22,22,23,23,24,24,25,25,26,26,27,27,28,28,29,29,30,30],"right_children":[2,4,6,8,10,12,14,16,18,20,22,24,26,28,30,32,34,-1,36,38,40,42,44,46,48,50,52,54,56,58,60,-1,-1,-1,-1,-1,-1,-1,-1,-1,-1,-1,-1,-1,-1,-1,-1,-1,-1,-1,-1,-1,-1,-1,-1,-1,-1,-1,-1,-1,-1],"split_conditions":[8.91E2,1.5187014E5,2.5083527E5,4.1493405E-2,-5.87E1,1.1848E2,1.2521011E6,6.23E2,9.177413E1,1.0204081E-2,3.09017E-1,1.1112346E-4,3.619301E0,1.58E2,4.5844875E1,9.1146E1,-1.28130065E-2,4.71741E-2,-6.3660595E1,6.443787E1,8.9278504E-2,1.010376E2,-6.2567705E-1,-1.2126755E-2,1.14829E2,-1.514951E-1,2E-1,-3.9130434E-2,8.9745E1,9.879254E-3,3.0275694E-1,3.193655E-4,-1.6004315E-2,3.881943E-2,-5.329726E-3,-2.787499E-2,3.3227533E-2,1.0662948E-2,-1.9912494E-2,-5.173444E-3,4.4150606E-2,4.8726346E-2,-3.7622757E-3,-1.505702E-2,2.3854038E-2,1.4188199E-2,-6.080575E-3,2.0113273E-2,-1.47856865E-2,6.494742E-3,3.0957682E-2,-3.1201009E-2,1.5446471E-2,-5.8458475E-3,3.6084797E-2,-3.2848105E-2,3.262367E-2,3.5309862E-2,-1.4445364E-2,-4.9813073E-3,2.971608E-2],"split_indices":[5,55,55,43,52,65,55,5,37,68,18,58,30,6,28,22,44,0,55,36,77,24,74,45,23,46,81,81,22,58,30,0,0,0,0,0,0,0,0,0,0,0,0,0,0,0,0,0,0,0,0,0,0,0,0,0,0,0,0,0,0],"split_type":[0,0,0,0,0,0,0,0,0,0,0,0,0,0,0,0,0,0,0,0,0,0,0,0,0,0,0,0,0,0,0,0,0,0,0,0,0,0,0,0,0,0,0,0,0,0,0,0,0,0,0,0,0,0,0,0,0,0,0,0,0],"sum_hessian":[9.2362573E2,3.4887387E2,5.7475183E2,2.7761133E2,7.126256E1,3.4589557E2,2.2885628E2,2.6877365E2,8.837679E0,3.6362644E1,3.489991E1,2.591392E2,8.67564E1,1.18272224E2,1.1058405E2,2.03596E2,6.517765E1,5.428215E0,3.409464E0,3.1472982E1,4.889664E0,1.2683944E1,2.2215967E1,1.4757025E2,1.1156892E2,8.241724E1,4.3391705E0,1.1379332E2,4.478903E0,4.7307873E1,6.327618E1,6.044903E1,1.4314696E2,1.3553549E1,5.1624104E1,1.9263483E0,1.4831157E0,1.3945514E1,1.7527468E1,1.4453603E0,3.4443038E0,1.1271249E1,1.4126942E0,6.198095E0,1.6017872E1,5.785576E1,8.97145E1,1.00814026E2,1.0754897E1,1.529493E1,6.71223E1,2.885321E0,1.4538494E0,2.486059E0,1.1130726E2,2.4808223E0,1.9980803E0,4.5317444E1,1.9904299E0,3.4895645E1,2.8380537E1],"tree_param":{"num_deleted":"0","num_feature":"87","num_nodes":"61","size_leaf_vector":"1"}},{"base_weights":[-4.6749634E-1,-5.094698E-1,-1.845866E-1,-5.2007073E-1,9.463148E-2,-4.0508673E-2,-4.9538726E-1,-5.258765E-1,-1.3508831E-1,-2.266433E-1,5.7119716E-2,-2.8640524E-2,8.197987E-2,1.0961072E-1,-5.63784E-1,1.1139727E-2,-5.2903485E-1,-3.9046338E-1,4.1131434E-1,2.9368242E-2,-2.7207753E-2,6.154808E-1,-1.1781328E-1,-1.8416256E-2,2.9441938E-2,8.349843E-3,-3.022622E-2,3.219802E-2,-2.1199774E-2,-2.6950194E-2,-1.812509E-2,-2.5981858E-2,9.027572E-3,4.2561498E-2,-1.6096244E-2,-2.3687452E-2,4.9156282E-2,-1.26028275E-2,2.5153592E-2],"categories":[],"categories_nodes":[],"categories_segments":[],"categories_sizes":[],"default_left":[0,0,0,0,0,0,0,0,0,0,0,0,0,0,0,0,0,0,0,0,0,0,0,0,0,0,0,0,0,0,0,0,0,0,0,0,0,0,0],"id":23,"left_children":[1,3,5,7,9,11,13,15,17,19,-1,-1,21,23,25,27,29,31,33,-1,-1,35,37,-1,-1,-1,-1,-1,-1,-1,-1,-1,-1,-1,-1,-1,-1,-1,-1],"loss_changes":[7.3299713E0,3.5320892E0,3.6671124E0,1.1239471E0,3.700929E0,3.7861807E0,1.1373224E0,8.9860535E-1,1.4566929E0,2.5578828E0,0E0,0E0,5.1351027E0,1.0132992E0,8.010287E-1,1.3901368E0,6.7337036E-1,5.985608E-1,1.3854163E0,0E0,0E0,5.712212E0,3.0769296E0,0E0,0E0,0E0,0E0,0E0,0E0,0E0,0E0,0E0,0E0,0E0,0E0,0E0,0E0,0E0,0E0],"parents":[2147483647,0,0,1,1,2,2,3,3,4,4,5,5,6,6,7,7,8,8,9,9,12,12,13,13,14,14,15,15,16,16,17,17,18,18,21,21,22,22],"right_children":[2,4,6,8,10,12,14,16,18,20,-1,-1,22,24,26,28,30,32,34,-1,-1,36,38,-1,-1,-1,-1,-1,-1,-1,-1,-1,-1,-1,-1,-1,-1,-1,-1],"split_conditions":[5.485E3,5.2E1,1.17898695E-2,1.8021046E6,2.2222223E-3,-4.4059762E-1,-2.6355064E0,-7.969418E0,1.0649627E-3,-4.142857E-3,5.7119716E-2,-2.8640524E-2,-8.198895E-2,5.2774E3,-9.0377125E5,4.0523833E-1,1.8109739E-2,1.0601E2,1.0457314E2,2.9368242E-2,-2.7207753E-2,-4.716981E-3,1.3344076E-2,-1.8416256E-2,2.9441938E-2,8.349843E-3,-3.022622E-2,3.219802E-2,-2.1199774E-2,-2.6950194E-2,-1.812509E-2,-2.5981858E-2,9.027572E-3,4.2561498E-2,-1.6096244E-2,-2.3687452E-2,4.9156282E-2,-1.26028275E-2,2.5153592E-2],"split_indices":[5,11,70,55,58,29,86,29,64,58,0,0,29,48,55,51,60,61,26,0,0,64,47,0,0,0,0,0,0,0,0,0,0,0,0,0,0,0,0],"split_type":[0,0,0,0,0,0,0,0,0,0,0,0,0,0,0,0,0,0,0,0,0,0,0,0,0,0,0,0,0,0,0,0,0,0,0,0,0,0,0],"sum_hessian":[6.241966E2,5.4285583E2,8.134077E1,5.336306E2,9.2252245E0,5.6349262E1,2.4991505E1,5.253421E2,8.288462E0,7.660102E0,1.5651231E0,9.853256E0,4.6496006E1,2.4771845E0,2.2514318E1,3.0568361E0,5.222853E2,5.8429866E0,2.4454746E0,1.9109865E0,5.749115E0,1.2101415E1,3.439459E1,1.3561306E0,1.121054E0,1.0252287E0,2.148909E1,1.0499609E0,2.0068753E0,4.906758E2,3.1609495E1,4.8384247E0,1.004562E0,1.4278824E0,1.0175923E0,2.9809828E0,9.120432E0,2.8768509E1,5.626081E0],"tree_param":{"num_deleted":"0","num_feature":"87","num_nodes":"39","size_leaf_vector":"1"}},{"base_weights":[1.0995445E-1,4.0302166E-1,-9.300329E-2,1.8431184E-1,5.099783E-1,6.2697336E-2,-3.6035547E-1,2.880225E-1,-5.9304338E-2,5.3297293E-1,-3.8482216E-1,1.8645692E-1,-1.139378E-1,1.9764738E-2,-4.5018736E-1,5.509635E-1,1.6039114E-1,1.2388181E-1,-5.0525385E-1,5.853649E-1,1.679049E-1,-3.0730953E-2,1.1137399E-3,2.4860202E-1,-2.992503E-1,9.1066495E-2,-2.2177225E-1,-1.1390528E-1,5.003458E-1,-1.8516941E-1,-5.3748846E-1,7.437301E-3,5.1728018E-2,1.5516396E-2,-1.4904486E-2,-1.7635046E-2,1.6954163E-2,-3.3663556E-2,1.853462E-2,2.0292146E-2,3.6266398E-2,2.3363568E-2,-1.0716881E-2,4.2949603E-3,2.3053879E-2,1.1124808E-2,-2.8862549E-2,-5.1058567E-4,4.6924755E-2,2.106867E-2,-1.4826809E-2,2.3204695E-2,-1.6244052E-2,-2.616117E-2,4.7901034E-2,-1.5208839E-2,2.5561694E-2,-2.855651E-2,-9.8945355E-5],"categories":[],"categories_nodes":[],"categories_segments":[],"categories_sizes":[],"default_left":[0,0,0,0,0,0,0,0,0,0,0,0,0,0,0,0,0,0,0,0,0,0,0,0,0,0,0,0,0,0,0,0,0,0,0,0,0,0,0,0,0,0,0,0,0,0,0,0,0,0,0,0,0,0,0,0,0,0,0],"id":24,"left_children":[1,3,5,7,9,11,13,15,17,19,21,23,25,27,29,31,33,35,37,39,41,-1,-1,43,45,47,49,51,53,55,57,-1,-1,-1,-1,-1,-1,-1,-1,-1,-1,-1,-1,-1,-1,-1,-1,-1,-1,-1,-1,-1,-1,-1,-1,-1,-1,-1,-1],"loss_changes":[5.2279152E1,8.317028E0,2.165782E1,3.0402212E0,5.161892E0,7.219998E0,6.545782E0,2.7338777E0,3.0490532E0,4.402031E0,6.32655E-1,5.930614E0,3.033138E0,2.4692295E0,3.4839153E0,5.1116266E0,4.0814123E0,2.8596456E0,1.8451571E0,4.8655624E0,3.6396687E0,0E0,0E0,5.9256353E0,3.386415E0,4.1024804E0,4.4334645E0,3.832718E0,4.416215E0,3.462644E0,2.0882874E0,0E0,0E0,0E0,0E0,0E0,0E0,0E0,0E0,0E0,0E0,0E0,0E0,0E0,0E0,0E0,0E0,0E0,0E0,0E0,0E0,0E0,0E0,0E0,0E0,0E0,0E0,0E0,0E0],"parents":[2147483647,0,0,1,1,2,2,3,3,4,4,5,5,6,6,7,7,8,8,9,9,10,10,11,11,12,12,13,13,14,14,15,15,16,16,17,17,18,18,19,19,20,20,23,23,24,24,25,25,26,26,27,27,28,28,29,29,30,30],"right_children":[2,4,6,8,10,12,14,16,18,20,22,24,26,28,30,32,34,36,38,40,42,-1,-1,44,46,48,50,52,54,56,58,-1,-1,-1,-1,-1,-1,-1,-1,-1,-1,-1,-1,-1,-1,-1,-1,-1,-1,-1,-1,-1,-1,-1,-1,-1,-1,-1,-1],"split_conditions":[8.91E2,9.101E1,2.5083527E5,1.5885536E5,2.3105785E-2,1.1151E2,2.8E1,-1.3877028E-3,5.4945056E-3,5.409091E-2,-2.6126127E-3,4.51878E-2,-2.722453E-3,4E0,3.306039E-1,1.043E2,2.201E2,4.2486378E1,9.088E1,4.2056076E1,8.313539E-3,-3.0730953E-2,1.1137399E-3,8.901E1,-7.467065E5,1.8391198E-1,3E0,2.2491535E-2,2.1727521E-2,1.1961394E-2,-1.0989011E-2,7.437301E-3,5.1728018E-2,1.5516396E-2,-1.4904486E-2,-1.7635046E-2,1.6954163E-2,-3.3663556E-2,1.853462E-2,2.0292146E-2,3.6266398E-2,2.3363568E-2,-1.0716881E-2,4.2949603E-3,2.3053879E-2,1.1124808E-2,-2.8862549E-2,-5.1058567E-4,4.6924755E-2,2.106867E-2,-1.4826809E-2,2.3204695E-2,-1.6244052E-2,-2.616117E-2,4.7901034E-2,-1.5208839E-2,2.5561694E-2,-2.855651E-2,-9.8945355E-5],"split_indices":[5,61,55,55,47,67,6,60,68,40,60,54,64,8,51,52,52,56,67,36,38,0,0,61,55,46,19,34,29,70,82,0,0,0,0,0,0,0,0,0,0,0,0,0,0,0,0,0,0,0,0,0,0,0,0,0,0,0,0],"split_type":[0,0,0,0,0,0,0,0,0,0,0,0,0,0,0,0,0,0,0,0,0,0,0,0,0,0,0,0,0,0,0,0,0,0,0,0,0,0,0,0,0,0,0,0,0,0,0,0,0,0,0,0,0,0,0,0,0,0,0],"sum_hessian":[8.773027E2,3.585612E2,5.1874146E2,1.1865444E2,2.3990675E2,3.2830728E2,1.9043417E2,8.309676E1,3.555768E1,2.3429031E2,5.6164303E0,1.930153E2,1.3529198E2,3.6550808E1,1.5388338E2,2.6070503E1,5.702626E1,2.5716228E1,9.84145E0,2.0435876E2,2.9931545E1,3.264138E0,2.352292E0,1.7155359E2,2.1461712E1,4.6688282E1,8.860369E1,2.9193766E1,7.357043E0,3.890412E1,1.1497925E2,1.4946648E1,1.1123856E1,4.3216373E1,1.3809891E1,7.8010893E0,1.791514E1,8.45169E0,1.3897601E0,9.123587E1,1.131229E2,1.6660696E1,1.3270849E1,9.79516E1,7.3602E1,7.5297236E0,1.3931989E1,4.2586605E1,4.101677E0,8.744486E0,7.985921E1,7.4857364E0,2.1708029E1,2.2289271E0,5.1281157E0,3.370717E1,5.1969514E0,1.0812041E2,6.8588457E0],"tree_param":{"num_deleted":"0","num_feature":"87","num_nodes":"59","size_leaf_vector":"1"}},{"base_weights":[1.9812028E-1,-7.0040904E-2,3.6282808E-1,1.5112582E-1,-1.9779135E-1,2.3844105E-1,5.339427E-1,-2.650755E-1,2.6178446E-1,-3.667902E-1,-6.1794985E-2,1.3706915E-1,4.435512E-1,1.8462193E-1,5.9202945E-1,-5.989497E-1,4.903021E-3,4.5248067E-1,7.916783E-2,2.3884752E-1,-4.3205634E-1,2.0047769E-1,-2.2104806E-1,7.5028814E-2,6.7372745E-1,5.009198E-1,-4.861323E-1,-4.8770222E-1,2.8168678E-1,6.0257137E-1,-2.6108582E-2,5.8023566E-3,-3.710238E-2,2.1445272E-2,-1.683107E-2,4.8291862E-2,1.43831195E-2,-1.445324E-4,3.482004E-2,2.6652632E-2,-2.7422369E-2,-2.3719588E-2,2.2164045E-2,-6.9417465E-3,2.8795574E-2,-3.130363E-2,-4.0797293E-3,-9.090345E-3,9.519569E-3,-2.5573878E-2,3.8825694E-2,2.7283281E-2,-1.757936E-2,1.1735077E-2,-3.641288E-2,-3.074683E-2,-5.4481453E-3,3.4398373E-2,3.3217352E-3,2.2776598E-2,3.3915758E-2],"categories":[],"categories_nodes":[],"categories_segments":[],"categories_sizes":[],"default_left":[0,0,0,0,0,0,0,0,0,0,0,0,0,0,0,0,0,0,0,0,0,0,0,0,0,0,0,0,0,0,0,0,0,0,0,0,0,0,0,0,0,0,0,0,0,0,0,0,0,0,0,0,0,0,0,0,0,0,0,0,0],"id":25,"left_children":[1,3,5,7,9,11,13,15,17,19,21,23,25,27,29,31,33,35,37,39,41,43,45,47,49,51,53,55,57,59,-1,-1,-1,-1,-1,-1,-1,-1,-1,-1,-1,-1,-1,-1,-1,-1,-1,-1,-1,-1,-1,-1,-1,-1,-1,-1,-1,-1,-1,-1,-1],"loss_changes":[4.0964523E1,1.0018368E1,1.2097786E1,6.056869E0,5.1375055E0,6.89225E0,4.780098E0,2.5089822E0,3.5580945E0,4.052391E0,5.2907305E0,7.448808E0,6.1188545E0,2.4742463E0,2.7361145E0,1.3587251E0,2.513978E0,3.9756956E0,2.7335021E0,2.692762E0,3.565733E0,6.192074E0,4.3900747E0,6.05017E0,3.2253618E0,4.1685715E0,1.3769596E0,1.6833532E-1,2.7462556E0,1.9706726E0,0E0,0E0,0E0,0E0,0E0,0E0,0E0,0E0,0E0,0E0,0E0,0E0,0E0,0E0,0E0,0E0,0E0,0E0,0E0,0E0,0E0,0E0,0E0,0E0,0E0,0E0,0E0,0E0,0E0,0E0,0E0],"parents":[2147483647,0,0,1,1,2,2,3,3,4,4,5,5,6,6,7,7,8,8,9,9,10,10,11,11,12,12,13,13,14,14,15,15,16,16,17,17,18,18,19,19,20,20,21,21,22,22,23,23,24,24,25,25,26,26,27,27,28,28,29,29],"right_children":[2,4,6,8,10,12,14,16,18,20,22,24,26,28,30,32,34,36,38,40,42,44,46,48,50,52,54,56,58,60,-1,-1,-1,-1,-1,-1,-1,-1,-1,-1,-1,-1,-1,-1,-1,-1,-1,-1,-1,-1,-1,-1,-1,-1,-1,-1,-1,-1,-1,-1,-1],"split_conditions":[8.91E2,9.116E1,6.9615E4,-3.7815126E-3,1.6E1,1.1954663E2,2.6E1,-1.8906745E-1,1.96E2,3.236776E1,-1.3962877E-4,3.5489865E-2,2.1485E3,-5.6497175E-3,1.15818E2,-5.4054055E-3,6.551724E-3,-4.921E2,9.074E1,4.6713653E-1,2.1052632E-2,-5.3691276E-4,3.13E2,-1.4947683E-3,8.773199E-2,3.619301E0,1.148E2,9.36E1,-5.50055E-3,3.6251E3,-2.6108582E-2,5.8023566E-3,-3.710238E-2,2.1445272E-2,-1.683107E-2,4.8291862E-2,1.43831195E-2,-1.445324E-4,3.482004E-2,2.6652632E-2,-2.7422369E-2,-2.3719588E-2,2.2164045E-2,-6.9417465E-3,2.8795574E-2,-3.130363E-2,-4.0797293E-3,-9.090345E-3,9.519569E-3,-2.5573878E-2,3.8825694E-2,2.7283281E-2,-1.757936E-2,1.1735077E-2,-3.641288E-2,-3.074683E-2,-5.4481453E-3,3.4398373E-2,3.3217352E-3,2.2776598E-2,3.3915758E-2],"split_indices":[5,61,41,68,6,32,6,71,12,28,75,38,52,58,21,66,38,52,59,77,68,69,5,58,51,30,67,3,39,49,0,0,0,0,0,0,0,0,0,0,0,0,0,0,0,0,0,0,0,0,0,0,0,0,0,0,0,0,0,0,0],"split_type":[0,0,0,0,0,0,0,0,0,0,0,0,0,0,0,0,0,0,0,0,0,0,0,0,0,0,0,0,0,0,0,0,0,0,0,0,0,0,0,0,0,0,0,0,0,0,0,0,0,0,0,0,0,0,0,0,0,0,0,0,0],"sum_hessian":[9.2589044E2,3.5252246E2,5.73368E2,1.2900348E2,2.2351898E2,3.3340323E2,2.3996472E2,2.6802061E1,1.02201416E2,9.890967E1,1.24609314E2,2.2424338E2,1.09159874E2,3.4809086E1,2.0515564E2,1.1438237E1,1.5363825E1,4.927185E1,5.292957E1,9.363295E0,8.954637E1,4.697979E1,7.7629524E1,2.0202777E2,2.2215595E1,1.0324976E2,5.9101114E0,3.8837337E0,3.0925352E1,2.0368765E2,1.4679842E0,1.9389913E0,9.499246E0,6.740117E0,8.623708E0,1.0793506E1,3.8478344E1,4.759706E1,5.332508E0,7.05124E0,2.3120544E0,8.58522E1,3.6941683E0,2.500803E1,2.197176E1,1.8988989E1,5.8640533E1,6.2439827E1,1.3958795E2,1.455576E0,2.076002E1,9.8442696E1,4.8070626E0,1.4937408E0,4.416371E0,2.4402957E0,1.443438E0,9.949647E0,2.0975706E1,7.163621E1,1.3205145E2],"tree_param":{"num_deleted":"0","num_feature":"87","num_nodes":"61","size_leaf_vector":"1"}},{"base_weights":[-4.658832E-1,-4.8353228E-1,3.055558E-1,-5.2992296E-1,-3.5173053E-1,7.335632E-1,-3.7286207E-1,-5.350898E-1,-1.8171374E-1,-4.2488116E-1,-1.3651693E-1,-1.5691231E-1,1.0792003E0,7.6017412E-3,-2.5610883E-2,-5.3717184E-1,4.5207865E-3,3.761914E-2,-2.6647676E-2,-4.777592E-1,3.7347447E-2,5.698698E-1,-3.3779263E-1,-1.8204568E-2,7.852654E-3,6.784149E-2,1.2647745E-2,-1.419793E-2,-2.7211575E-2,-2.5755828E-2,-4.2207143E-3,3.3148024E-2,-1.2578013E-2,-5.9292256E-3,5.531306E-2,3.0034248E-2,-1.9489395E-2],"categories":[],"categories_nodes":[],"categories_segments":[],"categories_sizes":[],"default_left":[1,0,0,0,0,0,0,0,0,0,0,0,0,0,0,0,0,0,0,0,0,0,0,0,0,0,0,0,0,0,0,0,0,0,0,0,0],"id":26,"left_children":[1,3,5,7,9,11,13,15,17,19,21,23,25,-1,-1,27,-1,-1,-1,29,31,33,35,-1,-1,-1,-1,-1,-1,-1,-1,-1,-1,-1,-1,-1,-1],"loss_changes":[8.351318E0,3.4176636E0,4.3645735E0,6.83609E-1,2.4046574E0,2.9319763E0,5.250426E-1,6.04866E-1,2.9797997E0,2.8597698E0,6.043915E0,2.7722847E-1,1.1691709E0,0E0,0E0,6.0676575E-1,0E0,0E0,0E0,1.4907513E0,2.4917808E0,3.6387796E0,1.827682E0,0E0,0E0,0E0,0E0,0E0,0E0,0E0,0E0,0E0,0E0,0E0,0E0,0E0,0E0],"parents":[2147483647,0,0,1,1,2,2,3,3,4,4,5,5,6,6,7,7,8,8,9,9,10,10,11,11,12,12,15,15,19,19,20,20,21,21,22,22],"right_children":[2,4,6,8,10,12,14,16,18,20,22,24,26,-1,-1,28,-1,-1,-1,30,32,34,36,-1,-1,-1,-1,-1,-1,-1,-1,-1,-1,-1,-1,-1,-1],"split_conditions":[1.26E2,2.747076E5,1.1121518E-1,5.2E1,5.1256E3,8.997182E-4,1.36E2,4.737E3,4.0202788E-1,1.7809402E0,4.5E1,1.0153543E2,1.4094E4,7.6017412E-3,-2.5610883E-2,-2.0297775E0,4.5207865E-3,3.761914E-2,-2.6647676E-2,1.6216217E-2,7.587247E-1,2.4998258E-3,-2.4390243E-2,-1.8204568E-2,7.852654E-3,6.784149E-2,1.2647745E-2,-1.419793E-2,-2.7211575E-2,-2.5755828E-2,-4.2207143E-3,3.3148024E-2,-1.2578013E-2,-5.9292256E-3,5.531306E-2,3.0034248E-2,-1.9489395E-2],"split_indices":[6,7,34,11,48,72,6,5,51,71,6,32,5,0,0,71,0,0,0,60,74,54,66,0,0,0,0,0,0,0,0,0,0,0,0,0,0],"split_type":[0,0,0,0,0,0,0,0,0,0,0,0,0,0,0,0,0,0,0,0,0,0,0,0,0,0,0,0,0,0,0,0,0,0,0,0,0],"sum_hessian":[6.015295E2,5.8844025E2,1.3089219E1,4.3301135E2,1.5542891E2,7.97597E0,5.113249E0,4.261513E2,6.86004E0,1.1527348E2,4.0155426E1,2.3828866E0,5.5930834E0,1.0536363E0,4.0596123E0,4.2487827E2,1.2730485E0,1.5625293E0,5.2975106E0,1.0340999E2,1.1863501E1,8.498444E0,3.1656984E1,1.3393946E0,1.0434922E0,3.7057412E0,1.887342E0,1.264247E1,4.1223578E2,9.415789E1,9.252096E0,3.3388023E0,8.524698E0,4.062796E0,4.4356475E0,1.1078783E0,3.0549107E1],"tree_param":{"num_deleted":"0","num_feature":"87","num_nodes":"37","size_leaf_vector":"1"}},{"base_weights":[8.894584E-2,3.1294957E-1,-1.4767106E-1,3.3692503E-1,-3.0040312E-1,-2.0341335E-2,-4.773397E-1,4.0173542E-1,1.0259102E-1,3.0266935E-1,-4.5931232E-1,4.8516464E-1,-8.8216946E-2,5.6892306E-1,-5.2465427E-1,4.1669896E-1,-3.429453E-1,-1.8608057E-1,3.0712414E-1,3.7209924E-2,-8.880316E-3,-5.737466E-1,1.725155E-2,1.8736695E-1,9.2384505E-1,5.1929355E-1,-1.3119633E-1,-8.009122E-3,4.8130583E-2,-2.8696978E-1,-6.281488E-1,8.599978E-3,2.3582261E-2,-3.5090424E-2,2.1422543E-2,7.9537433E-4,-3.4476824E-2,1.9253938E-2,-2.9576022E-2,-3.536622E-2,-3.1635058E-3,3.3014398E-2,-7.022293E-3,-2.5271245E-3,5.1486086E-2,-2.477849E-2,3.1712826E-2,5.22053E-3,-1.069626E-2,2.3974665E-2,-1.8151615E-2,1.2934376E-3,-3.1961184E-2],"categories":[],"categories_nodes":[],"categories_segments":[],"categories_sizes":[],"default_left":[0,0,1,0,0,0,0,0,0,0,0,0,0,0,0,0,0,0,0,0,0,0,0,0,0,0,0,0,0,0,0,0,0,0,0,0,0,0,0,0,0,0,0,0,0,0,0,0,0,0,0,0,0],"id":27,"left_children":[1,3,5,7,9,11,13,15,17,19,21,23,25,27,29,31,33,35,37,-1,-1,39,-1,41,43,45,47,-1,-1,49,51,-1,-1,-1,-1,-1,-1,-1,-1,-1,-1,-1,-1,-1,-1,-1,-1,-1,-1,-1,-1,-1,-1],"loss_changes":[4.7067184E1,6.807392E0,1.812845E1,6.6313324E0,1.8337531E0,1.0773838E1,6.2561493E0,3.9741287E0,5.7565312E0,1.0420537E0,1.5227878E0,4.683613E0,7.289654E0,1.786517E0,2.6649055E0,4.4566803E0,2.3273792E0,4.145129E0,4.2121286E0,0E0,0E0,8.400707E-1,0E0,3.7202196E0,1.5766354E0,2.4699116E0,5.0725937E0,0E0,0E0,2.3268447E0,5.9407616E-1,0E0,0E0,0E0,0E0,0E0,0E0,0E0,0E0,0E0,0E0,0E0,0E0,0E0,0E0,0E0,0E0,0E0,0E0,0E0,0E0,0E0,0E0],"parents":[2147483647,0,0,1,1,2,2,3,3,4,4,5,5,6,6,7,7,8,8,9,9,10,10,11,11,12,12,13,13,14,14,15,15,16,16,17,17,18,18,21,21,23,23,24,24,25,25,26,26,29,29,30,30],"right_children":[2,4,6,8,10,12,14,16,18,20,22,24,26,28,30,32,34,36,38,-1,-1,40,-1,42,44,46,48,-1,-1,50,52,-1,-1,-1,-1,-1,-1,-1,-1,-1,-1,-1,-1,-1,-1,-1,-1,-1,-1,-1,-1,-1,-1],"split_conditions":[1.261082E5,1.7172189E-1,4.7E1,1.9180412E5,8.092713E-3,-1.004336E6,-8.784023E5,1.75E-1,1.79E2,-8.7621284E-1,5.1094284E0,1.5717E3,8.225E2,8.368E2,2.8288E3,-9.265957E-1,2.15847E-1,2.3E1,3.460848E-2,3.7209924E-2,-8.880316E-3,2.0514978E-2,1.725155E-2,1.025E2,6.00663E-3,1.3611323E5,2.5878248E-1,-8.009122E-3,4.8130583E-2,5.97174E1,5.937E1,8.599978E-3,2.3582261E-2,-3.5090424E-2,2.1422543E-2,7.9537433E-4,-3.4476824E-2,1.9253938E-2,-2.9576022E-2,-3.536622E-2,-3.1635058E-3,3.3014398E-2,-7.022293E-3,-2.5271245E-3,5.1486086E-2,-2.477849E-2,3.1712826E-2,5.22053E-3,